<?xml version="1.0"?>
<opencv_storage>
<my_nb type_id="opencv-ml-bayesian">
  <var_count>7</var_count>
  <var_all>7</var_all>
  <cls_labels type_id="opencv-matrix">
    <rows>1</rows>
    <cols>29</cols>
    <dt>i</dt>
    <data>
      49 50 51 52 53 54 55 56 57 97 98 99 100 101 102 103 104 106 107
      108 109 110 112 113 114 115 116 120 121</data></cls_labels>
  <count>
    <_ type_id="opencv-matrix">
      <rows>1</rows>
      <cols>7</cols>
      <dt>i</dt>
      <data>
        15 15 15 15 15 15 15</data></_>
    <_ type_id="opencv-matrix">
      <rows>1</rows>
      <cols>7</cols>
      <dt>i</dt>
      <data>
        15 15 15 15 15 15 15</data></_>
    <_ type_id="opencv-matrix">
      <rows>1</rows>
      <cols>7</cols>
      <dt>i</dt>
      <data>
        11 11 11 11 11 11 11</data></_>
    <_ type_id="opencv-matrix">
      <rows>1</rows>
      <cols>7</cols>
      <dt>i</dt>
      <data>
        17 17 17 17 17 17 17</data></_>
    <_ type_id="opencv-matrix">
      <rows>1</rows>
      <cols>7</cols>
      <dt>i</dt>
      <data>
        15 15 15 15 15 15 15</data></_>
    <_ type_id="opencv-matrix">
      <rows>1</rows>
      <cols>7</cols>
      <dt>i</dt>
      <data>
        18 18 18 18 18 18 18</data></_>
    <_ type_id="opencv-matrix">
      <rows>1</rows>
      <cols>7</cols>
      <dt>i</dt>
      <data>
        14 14 14 14 14 14 14</data></_>
    <_ type_id="opencv-matrix">
      <rows>1</rows>
      <cols>7</cols>
      <dt>i</dt>
      <data>
        18 18 18 18 18 18 18</data></_>
    <_ type_id="opencv-matrix">
      <rows>1</rows>
      <cols>7</cols>
      <dt>i</dt>
      <data>
        21 21 21 21 21 21 21</data></_>
    <_ type_id="opencv-matrix">
      <rows>1</rows>
      <cols>7</cols>
      <dt>i</dt>
      <data>
        5 5 5 5 5 5 5</data></_>
    <_ type_id="opencv-matrix">
      <rows>1</rows>
      <cols>7</cols>
      <dt>i</dt>
      <data>
        2 2 2 2 2 2 2</data></_>
    <_ type_id="opencv-matrix">
      <rows>1</rows>
      <cols>7</cols>
      <dt>i</dt>
      <data>
        5 5 5 5 5 5 5</data></_>
    <_ type_id="opencv-matrix">
      <rows>1</rows>
      <cols>7</cols>
      <dt>i</dt>
      <data>
        7 7 7 7 7 7 7</data></_>
    <_ type_id="opencv-matrix">
      <rows>1</rows>
      <cols>7</cols>
      <dt>i</dt>
      <data>
        4 4 4 4 4 4 4</data></_>
    <_ type_id="opencv-matrix">
      <rows>1</rows>
      <cols>7</cols>
      <dt>i</dt>
      <data>
        5 5 5 5 5 5 5</data></_>
    <_ type_id="opencv-matrix">
      <rows>1</rows>
      <cols>7</cols>
      <dt>i</dt>
      <data>
        2 2 2 2 2 2 2</data></_>
    <_ type_id="opencv-matrix">
      <rows>1</rows>
      <cols>7</cols>
      <dt>i</dt>
      <data>
        2 2 2 2 2 2 2</data></_>
    <_ type_id="opencv-matrix">
      <rows>1</rows>
      <cols>7</cols>
      <dt>i</dt>
      <data>
        2 2 2 2 2 2 2</data></_>
    <_ type_id="opencv-matrix">
      <rows>1</rows>
      <cols>7</cols>
      <dt>i</dt>
      <data>
        4 4 4 4 4 4 4</data></_>
    <_ type_id="opencv-matrix">
      <rows>1</rows>
      <cols>7</cols>
      <dt>i</dt>
      <data>
        2 2 2 2 2 2 2</data></_>
    <_ type_id="opencv-matrix">
      <rows>1</rows>
      <cols>7</cols>
      <dt>i</dt>
      <data>
        3 3 3 3 3 3 3</data></_>
    <_ type_id="opencv-matrix">
      <rows>1</rows>
      <cols>7</cols>
      <dt>i</dt>
      <data>
        7 7 7 7 7 7 7</data></_>
    <_ type_id="opencv-matrix">
      <rows>1</rows>
      <cols>7</cols>
      <dt>i</dt>
      <data>
        10 10 10 10 10 10 10</data></_>
    <_ type_id="opencv-matrix">
      <rows>1</rows>
      <cols>7</cols>
      <dt>i</dt>
      <data>
        2 2 2 2 2 2 2</data></_>
    <_ type_id="opencv-matrix">
      <rows>1</rows>
      <cols>7</cols>
      <dt>i</dt>
      <data>
        1 1 1 1 1 1 1</data></_>
    <_ type_id="opencv-matrix">
      <rows>1</rows>
      <cols>7</cols>
      <dt>i</dt>
      <data>
        4 4 4 4 4 4 4</data></_>
    <_ type_id="opencv-matrix">
      <rows>1</rows>
      <cols>7</cols>
      <dt>i</dt>
      <data>
        2 2 2 2 2 2 2</data></_>
    <_ type_id="opencv-matrix">
      <rows>1</rows>
      <cols>7</cols>
      <dt>i</dt>
      <data>
        2 2 2 2 2 2 2</data></_>
    <_ type_id="opencv-matrix">
      <rows>1</rows>
      <cols>7</cols>
      <dt>i</dt>
      <data>
        1 1 1 1 1 1 1</data></_></count>
  <sum>
    <_ type_id="opencv-matrix">
      <rows>1</rows>
      <cols>7</cols>
      <dt>d</dt>
      <data>
        6.1126945316791534e+000 1.7185811810195446e+000
        2.8623289405368268e-001 1.1736204216140322e-001
        4.0440145334912359e-003 4.2461701981665101e-002
        -3.6801631586058647e-004</data></_>
    <_ type_id="opencv-matrix">
      <rows>1</rows>
      <cols>7</cols>
      <dt>d</dt>
      <data>
        5.7856553196907043e+000 7.6030222326517105e-001
        4.3370394734665751e-002 1.8811853085935581e-002
        1.2887093490654422e-004 2.6419475748298282e-003
        7.2599403333484247e-006</data></_>
    <_ type_id="opencv-matrix">
      <rows>1</rows>
      <cols>7</cols>
      <dt>d</dt>
      <data>
        4.6712526381015778e+000 6.9705952890217304e-001
        5.5189443752169609e-002 1.9440995849436149e-002
        1.0617853973826641e-006 -1.9420344979153015e-003
        -5.5428978029681275e-005</data></_>
    <_ type_id="opencv-matrix">
      <rows>1</rows>
      <cols>7</cols>
      <dt>d</dt>
      <data>
        4.9669120758771896e+000 2.6074323989450932e-001
        1.6083088074810803e-001 4.1953735153583693e-003
        7.0458215717383865e-006 3.8714079772717014e-004
        -4.2565402692124055e-008</data></_>
    <_ type_id="opencv-matrix">
      <rows>1</rows>
      <cols>7</cols>
      <dt>d</dt>
      <data>
        5.2018018960952759e+000 4.1759812179952860e-001
        1.2195557297673076e-002 6.2692271312698722e-003
        5.6064496258834140e-006 9.5440816789960081e-004
        8.4710848802238559e-007</data></_>
    <_ type_id="opencv-matrix">
      <rows>1</rows>
      <cols>7</cols>
      <dt>d</dt>
      <data>
        5.7492518275976181e+000 3.2666321285068989e-001
        1.4653747173724696e-002 6.2831740942783654e-003
        5.2684234560507193e-006 2.9520469115595915e-004
        -3.0733126316073722e-007</data></_>
    <_ type_id="opencv-matrix">
      <rows>1</rows>
      <cols>7</cols>
      <dt>d</dt>
      <data>
        7.1198265552520752e+000 1.8282491788268089e+000
        1.0908700595609844e+000 2.7327736775623634e-001
        1.7112020281160767e-002 1.0431755261379294e-001
        -4.8430614848484765e-003</data></_>
    <_ type_id="opencv-matrix">
      <rows>1</rows>
      <cols>7</cols>
      <dt>d</dt>
      <data>
        5.0790355056524277e+000 2.7387849148362875e-001
        6.3892493512867077e-003 1.8864416917949711e-003
        5.1358641656098093e-007 1.1250805257390084e-004
        1.4367782940737789e-007</data></_>
    <_ type_id="opencv-matrix">
      <rows>1</rows>
      <cols>7</cols>
      <dt>d</dt>
      <data>
        6.4117456227540970e+000 4.1549248713999987e-001
        2.0964061943232082e-002 5.9039561911049532e-003
        4.0521550037642129e-006 3.3690174973344256e-004
        4.6216807787439335e-006</data></_>
    <_ type_id="opencv-matrix">
      <rows>1</rows>
      <cols>7</cols>
      <dt>d</dt>
      <data>
        1.6508937925100327e+000 5.9612832963466644e-002
        1.0622214712202549e-001 2.6398635632176592e-003
        1.4860055837631614e-005 2.0327259230157324e-004
        1.0979870836536065e-005</data></_>
    <_ type_id="opencv-matrix">
      <rows>1</rows>
      <cols>7</cols>
      <dt>d</dt>
      <data>
        6.2144589424133301e-001 2.1881301887333393e-002
        1.8328488804399967e-003 1.0495602873561438e-004
        -3.5909011320001127e-009 5.4054061706665379e-006
        -1.6890475018627171e-008</data></_>
    <_ type_id="opencv-matrix">
      <rows>1</rows>
      <cols>7</cols>
      <dt>d</dt>
      <data>
        2.1114443540573120e+000 7.6808669604361057e-002
        2.1063014108221978e-002 9.7466470324434340e-003
        -3.8425533674057988e-005 -1.2847250636696117e-003
        -1.3668055444782119e-005</data></_>
    <_ type_id="opencv-matrix">
      <rows>1</rows>
      <cols>7</cols>
      <dt>d</dt>
      <data>
        2.7719554901123047e+000 6.0186420567333698e-002
        1.7425795784220099e-002 2.4200157931772992e-003
        2.0282679322747299e-006 3.8929005313548259e-005
        -4.7951019155334507e-008</data></_>
    <_ type_id="opencv-matrix">
      <rows>1</rows>
      <cols>7</cols>
      <dt>d</dt>
      <data>
        1.3882569968700409e+000 1.8704228801652789e-001
        3.2541346117795911e-003 1.8327519026115624e-003
        2.7238916252073087e-006 5.4271357909385642e-004
        8.7519310394083144e-007</data></_>
    <_ type_id="opencv-matrix">
      <rows>1</rows>
      <cols>7</cols>
      <dt>d</dt>
      <data>
        1.7304698526859283e+000 1.4772266522049904e-001
        4.6314407372847199e-002 6.4433370571350679e-003
        2.6443438824408361e-005 6.9474726024054689e-004
        2.8621726329447483e-005</data></_>
    <_ type_id="opencv-matrix">
      <rows>1</rows>
      <cols>7</cols>
      <dt>d</dt>
      <data>
        5.5481564998626709e-001 3.6852470948360860e-003
        9.5614987367298454e-004 4.7958899813238531e-004
        -6.9069516328568170e-008 -7.3720280155953333e-006
        -1.2677217497980564e-007</data></_>
    <_ type_id="opencv-matrix">
      <rows>1</rows>
      <cols>7</cols>
      <dt>d</dt>
      <data>
        8.7986558675765991e-001 1.9780026283115149e-002
        1.0536684421822429e-003 1.5863077715039253e-004
        5.5598121662114863e-008 -8.3441518654581159e-006
        -3.3388925402277891e-008</data></_>
    <_ type_id="opencv-matrix">
      <rows>1</rows>
      <cols>7</cols>
      <dt>d</dt>
      <data>
        9.7791796922683716e-001 2.2660579532384872e-001
        1.1955013498663902e-001 4.2809881269931793e-002
        1.3589784211944789e-003 1.0788751766085625e-002
        7.0094034890644252e-004</data></_>
    <_ type_id="opencv-matrix">
      <rows>1</rows>
      <cols>7</cols>
      <dt>d</dt>
      <data>
        1.2421284019947052e+000 3.7312002619728446e-002
        2.0257419208064675e-002 3.5951760073658079e-003
        -7.1876734075715376e-006 -3.2580918013991322e-004
        1.1227308092998101e-005</data></_>
    <_ type_id="opencv-matrix">
      <rows>1</rows>
      <cols>7</cols>
      <dt>d</dt>
      <data>
        8.9861966669559479e-001 2.1752317994832993e-001
        2.8336763381958008e-001 8.5321590304374695e-002
        1.2157348915934563e-002 3.4035891294479370e-002
        -5.3108101710677147e-003</data></_>
    <_ type_id="opencv-matrix">
      <rows>1</rows>
      <cols>7</cols>
      <dt>d</dt>
      <data>
        7.2398954629898071e-001 1.6063876450061798e-002
        1.9553457332222024e-004 1.3827941256749909e-004
        1.2689579276248253e-008 1.0210898494733556e-005
        -7.7392134367748611e-010</data></_>
    <_ type_id="opencv-matrix">
      <rows>1</rows>
      <cols>7</cols>
      <dt>d</dt>
      <data>
        2.6216925680637360e+000 2.4239691032562405e-002
        5.6758610945735199e-003 3.4356873147771694e-003
        2.6438138922557641e-006 8.5199060322338482e-005
        -1.4580790982376968e-006</data></_>
    <_ type_id="opencv-matrix">
      <rows>1</rows>
      <cols>7</cols>
      <dt>d</dt>
      <data>
        3.2998203784227371e+000 2.4264100007712841e-001
        1.3166608614847064e-001 1.3678581752174068e-002
        6.9849517281284079e-005 9.4641391137884057e-004
        8.7199251118441623e-005</data></_>
    <_ type_id="opencv-matrix">
      <rows>1</rows>
      <cols>7</cols>
      <dt>d</dt>
      <data>
        7.7041044831275940e-001 6.1255824984982610e-003
        1.4201642115949653e-003 6.6927184525411576e-004
        -7.5556631173867572e-008 -1.7623478925088421e-006
        -2.1243806713755475e-010</data></_>
    <_ type_id="opencv-matrix">
      <rows>1</rows>
      <cols>7</cols>
      <dt>d</dt>
      <data>
        4.1444382071495056e-001 6.8136923946440220e-003
        1.2926172930747271e-003 1.3822891050949693e-003
        -7.3599790084699634e-007 1.0734594252426177e-004
        -1.6947954009083332e-006</data></_>
    <_ type_id="opencv-matrix">
      <rows>1</rows>
      <cols>7</cols>
      <dt>d</dt>
      <data>
        1.3521618247032166e+000 5.8546883519738913e-002
        8.4480155965138692e-004 7.0898689301657214e-004
        1.0962331326567522e-007 7.7092560193392501e-005
        3.0247373963217012e-008</data></_>
    <_ type_id="opencv-matrix">
      <rows>1</rows>
      <cols>7</cols>
      <dt>d</dt>
      <data>
        7.5954583287239075e-001 8.5161697119474411e-002
        1.0700194537639618e-001 1.9456642679870129e-002
        5.7729769105208106e-004 4.2345700785517693e-003 0.</data></_>
    <_ type_id="opencv-matrix">
      <rows>1</rows>
      <cols>7</cols>
      <dt>d</dt>
      <data>
        6.8289974331855774e-001 4.1629830375313759e-002
        4.8865175631362945e-004 3.0772468562645372e-005
        2.2676031469215374e-009 1.6684048205206636e-006
        -8.2087261987773275e-010</data></_>
    <_ type_id="opencv-matrix">
      <rows>1</rows>
      <cols>7</cols>
      <dt>d</dt>
      <data>
        5.0132530927658081e-001 5.5454071611166000e-002
        8.7160289287567139e-002 3.6684786900877953e-003
        -5.7168232160620391e-005 8.6217984789982438e-004
        3.2169024052564055e-005</data></_></sum>
  <productsum>
    <_ type_id="opencv-matrix">
      <rows>7</rows>
      <cols>7</cols>
      <dt>d</dt>
      <data>
        2.5982642973188961e+000 7.7738283533834751e-001
        1.2871319396664682e-001 5.3937210242797830e-002
        1.8431641927472734e-003 1.9882560465544569e-002
        -1.6704479073855974e-004 7.7738283533834751e-001
        2.5906539315539229e-001 3.7573523558288538e-002
        1.6212273507907500e-002 4.9928251242980885e-004
        6.2811821978171374e-003 -4.5629434580068769e-005
        1.2871319396664682e-001 3.7573523558288538e-002
        1.2008836652383786e-002 5.7641317416158629e-003
        2.9645410418143922e-004 1.9953933734549534e-003
        -2.1536027446431468e-005 5.3937210242797830e-002
        1.6212273507907500e-002 5.7641317416158629e-003
        2.9021503713845039e-003 1.5848800345954491e-004
        1.0056784566257679e-003 -1.0919384103579650e-005
        1.8431641927472734e-003 4.9928251242980885e-004
        2.9645410418143922e-004 1.5848800345954491e-004
        9.8310830062125140e-006 5.3539254730974964e-005
        -6.2140004547008957e-007 1.9882560465544569e-002
        6.2811821978171374e-003 1.9953933734549534e-003
        1.0056784566257679e-003 5.3539254730974964e-005
        3.5344217479095464e-004 -3.7042751486167148e-006
        -1.6704479073855974e-004 -4.5629434580068769e-005
        -2.1536027446431468e-005 -1.0919384103579650e-005
        -6.2140004547008957e-007 -3.7042751486167148e-006
        4.3447738751510569e-008</data></_>
    <_ type_id="opencv-matrix">
      <rows>7</rows>
      <cols>7</cols>
      <dt>d</dt>
      <data>
        2.3056961704188996e+000 3.1344589374534315e-001
        1.8974302398308357e-002 8.5824350785593303e-003
        6.3366947429818778e-005 1.2652465075027760e-003
        2.9721379951236920e-006 3.1344589374534315e-001
        4.5867645898307080e-002 2.4235057528994778e-003
        1.0539240804259276e-003 6.6066109534222906e-006
        1.3533221818690539e-004 9.5026206805093566e-008
        1.8974302398308357e-002 2.4235057528994778e-003
        3.0899556142143360e-004 1.7480290321231649e-004
        1.8820246593755205e-006 3.4939426319257849e-005
        1.3042759926241701e-007 8.5824350785593303e-003
        1.0539240804259276e-003 1.7480290321231649e-004
        1.0761911302655128e-004 1.2250237599489192e-006
        2.2600420019318083e-005 9.0131371041244268e-008
        6.3366947429818778e-005 6.6066109534222906e-006
        1.8820246593755205e-006 1.2250237599489192e-006
        1.4954096081286218e-008 2.7109619989122002e-007
        1.1466119693421219e-009 1.2652465075027760e-003
        1.3533221818690539e-004 3.4939426319257849e-005
        2.2600420019318083e-005 2.7109619989122002e-007
        4.9829165576607933e-006 2.1005065405142436e-008
        2.9721379951236920e-006 9.5026206805093566e-008
        1.3042759926241701e-007 9.0131371041244268e-008
        1.1466119693421219e-009 2.1005065405142436e-008
        1.1057740484896751e-010</data></_>
    <_ type_id="opencv-matrix">
      <rows>7</rows>
      <cols>7</cols>
      <dt>d</dt>
      <data>
        2.0099976561452833e+000 3.0888356903439301e-001
        2.4652376581179976e-002 8.5581372308359115e-003
        6.1376474431046380e-007 -8.7290071402900933e-004
        -2.5501541615065594e-005 3.0888356903439301e-001
        5.0805430124355691e-002 4.1579040901960976e-003
        1.3837724942146164e-003 1.1521073386028324e-007
        -1.4689565441261253e-004 -4.4562195926997497e-006
        2.4652376581179976e-002 4.1579040901960976e-003
        3.6383756490352548e-004 1.1460815518953899e-004
        -2.0026915367365621e-008 -1.3731762221357492e-005
        -3.8051579981493371e-007 8.5581372308359115e-003
        1.3837724942146164e-003 1.1460815518953899e-004
        4.0814849205987423e-005 1.2616424200972607e-008
        -3.6340219815840659e-006 -1.3511546290305026e-007
        6.1376474431046380e-007 1.1521073386028324e-007
        -2.0026915367365621e-008 1.2616424200972607e-008
        1.1847108130284649e-010 5.3194351727706768e-009
        -6.5964160733319816e-011 -8.7290071402900933e-004
        -1.4689565441261253e-004 -1.3731762221357492e-005
        -3.6340219815840659e-006 5.3194351727706768e-009
        7.4903443255423940e-007 1.2078945148037972e-008
        -2.5501541615065594e-005 -4.4562195926997497e-006
        -3.8051579981493371e-007 -1.3511546290305026e-007
        -6.5964160733319816e-011 1.2078945148037972e-008
        5.3781099812265697e-010</data></_>
    <_ type_id="opencv-matrix">
      <rows>7</rows>
      <cols>7</cols>
      <dt>d</dt>
      <data>
        1.4865986238094984e+000 7.7982898535858283e-002
        5.1196109858721583e-002 1.2789676222690442e-003
        2.2451787159723033e-006 1.2030590738016552e-004
        -8.8794554756954956e-008 7.7982898535858283e-002
        4.6325729306142260e-003 2.5112587390396096e-003
        6.6647556639738820e-005 1.1610574497449869e-007
        6.7133176424325052e-006 1.5927028983292861e-008
        5.1196109858721583e-002 2.5112587390396096e-003
        2.1375907915939596e-003 4.8366775040795516e-005
        9.7495233988712759e-008 4.7388100403754010e-006
        -1.3281773975318322e-008 1.2789676222690442e-003
        6.6647556639738820e-005 4.8366775040795516e-005
        1.6012090130791948e-006 3.3144820871436224e-009
        1.6346336264620464e-007 -6.7933258681762363e-011
        2.2451787159723033e-006 1.1610574497449869e-007
        9.7495233988712759e-008 3.3144820871436224e-009
        7.7205429753859616e-012 3.6095711227050719e-010
        -3.1384958954210616e-013 1.2030590738016552e-004
        6.7133176424325052e-006 4.7388100403754010e-006
        1.6346336264620464e-007 3.6095711227050719e-010
        1.7919378714098082e-008 1.2069051532823091e-011
        -8.8794554756954956e-008 1.5927028983292861e-008
        -1.3281773975318322e-008 -6.7933258681762363e-011
        -3.1384958954210616e-013 1.2069051532823091e-011
        1.9664573853605521e-012</data></_>
    <_ type_id="opencv-matrix">
      <rows>7</rows>
      <cols>7</cols>
      <dt>d</dt>
      <data>
        1.8361777005244608e+000 1.5146266203898942e-001
        4.1847579127595354e-003 2.5510861268286857e-003
        2.4589187528206527e-006 4.1676444679261888e-004
        3.6371647093830348e-007 1.5146266203898942e-001
        1.3252927851072946e-002 3.2292500802426425e-004
        2.5776959260161088e-004 2.7011874924034158e-007
        4.5737318638431435e-005 3.7827951308795192e-008
        4.1847579127595354e-003 3.2292500802426425e-004
        1.8218378735555224e-005 3.7380896656488174e-006
        2.9087742662998312e-009 3.8529388661012672e-007
        5.5270541237962437e-010 2.5510861268286857e-003
        2.5776959260161088e-004 3.7380896656488174e-006
        1.5219829846532604e-005 1.9712150384474650e-008
        3.2868784260295146e-006 2.5449745442982870e-009
        2.4589187528206527e-006 2.7011874924034158e-007
        2.9087742662998312e-009 1.9712150384474650e-008
        2.6153525479791859e-011 4.3489136361251722e-009
        3.3539377220092405e-012 4.1676444679261888e-004
        4.5737318638431435e-005 3.8529388661012672e-007
        3.2868784260295146e-006 4.3489136361251722e-009
        7.2688030925142459e-007 5.5833663078282992e-010
        3.6371647093830348e-007 3.7827951308795192e-008
        5.5270541237962437e-010 2.5449745442982870e-009
        3.3539377220092405e-012 5.5833663078282992e-010
        4.5371653434308597e-013</data></_>
    <_ type_id="opencv-matrix">
      <rows>7</rows>
      <cols>7</cols>
      <dt>d</dt>
      <data>
        1.8830072303776817e+000 1.1008536664085196e-001
        4.9544338833268130e-003 2.3721723902702350e-003
        2.2923593167897473e-006 1.3874895175073739e-004
        -1.8780744523796044e-007 1.1008536664085196e-001
        7.1675426293393400e-003 2.6905730903509722e-004
        1.6923202398658313e-004 1.6447471724549768e-007
        1.6557496030109054e-005 -3.8641445600184407e-009
        4.9544338833268130e-003 2.6905730903509722e-004
        1.6584258422627148e-005 7.7790023873020831e-006
        1.0699758405457129e-008 2.1918020802660977e-007
        -2.2447161319909009e-009 2.3721723902702350e-003
        1.6923202398658313e-004 7.7790023873020831e-006
        6.8881936194283143e-006 9.3999160603990685e-009
        7.2907263148477217e-007 -1.1572272012261204e-009
        2.2923593167897473e-006 1.6447471724549768e-007
        1.0699758405457129e-008 9.3999160603990685e-009
        1.6789135120943954e-011 8.2265734267945501e-010
        -3.3144131143759224e-012 1.3874895175073739e-004
        1.6557496030109054e-005 2.1918020802660977e-007
        7.2907263148477217e-007 8.2265734267945501e-010
        1.4318968052728900e-007 5.3420471844902209e-011
        -1.8780744523796044e-007 -3.8641445600184407e-009
        -2.2447161319909009e-009 -1.1572272012261204e-009
        -3.3144131143759224e-012 5.3420471844902209e-011
        1.1847241387790526e-012</data></_>
    <_ type_id="opencv-matrix">
      <rows>7</rows>
      <cols>7</cols>
      <dt>d</dt>
      <data>
        3.7303739165842433e+000 9.7848792949314434e-001
        6.1370610387196212e-001 1.5565095650245697e-001
        1.0057516416882521e-002 6.0181798991500342e-002
        -2.8626422714607908e-003 9.7848792949314434e-001
        2.6451228580778702e-001 1.6573307681164248e-001
        4.2759727245157697e-002 2.8208310399520432e-003
        1.6837824484449905e-002 -7.8987225054232793e-004
        6.1370610387196212e-001 1.6573307681164248e-001
        1.2756351155388138e-001 3.4207353834641199e-002
        2.4715783535663922e-003 1.3434349382882457e-002
        -6.6449775823204313e-004 1.5565095650245697e-001
        4.2759727245157697e-002 3.4207353834641199e-002
        9.5747618733766221e-003 7.2616131107301437e-004
        3.7955946490627070e-003 -1.7784394608279168e-004
        1.0057516416882521e-002 2.8208310399520432e-003
        2.4715783535663922e-003 7.2616131107301437e-004
        6.1484576288895425e-005 2.9402352263452526e-004
        -1.3531288611527873e-005 6.0181798991500342e-002
        1.6837824484449905e-002 1.3434349382882457e-002
        3.7955946490627070e-003 2.9402352263452526e-004
        1.5235262728536018e-003 -7.0756641864081415e-005
        -2.8626422714607908e-003 -7.8987225054232793e-004
        -6.6449775823204313e-004 -1.7784394608279168e-004
        -1.3531288611527873e-005 -7.0756641864081415e-005
        3.9229604418450021e-006</data></_>
    <_ type_id="opencv-matrix">
      <rows>7</rows>
      <cols>7</cols>
      <dt>d</dt>
      <data>
        1.4739266290648769e+000 8.3120124597043696e-002
        2.1436160199149821e-003 6.1096146498776642e-004
        1.7732614866525863e-007 3.8172847523982675e-005
        4.4394734813058108e-008 8.3120124597043696e-002
        5.6973338426368559e-003 1.7460083858099473e-004
        5.2275495213728440e-005 1.9239958334371906e-008
        4.2302495055214022e-006 -1.7361134640594881e-009
        2.1436160199149821e-003 1.7460083858099473e-004
        9.3126002434588747e-006 2.0413630652829440e-006
        6.8816946809593366e-010 1.3477196937189048e-007
        6.4776281469094017e-010 6.1096146498776642e-004
        5.2275495213728440e-005 2.0413630652829440e-006
        6.2784918703160372e-007 2.5771280538957903e-010
        5.3275737905691367e-008 -1.7187618103668429e-011
        1.7732614866525863e-007 1.9239958334371906e-008
        6.8816946809593366e-010 2.5771280538957903e-010
        1.3021755116935773e-013 2.7115938067730075e-011
        -4.9733164132244886e-014 3.8172847523982675e-005
        4.2302495055214022e-006 1.3477196937189048e-007
        5.3275737905691367e-008 2.7115938067730075e-011
        6.1960196653879493e-009 -1.6953873710231585e-011
        4.4394734813058108e-008 -1.7361134640594881e-009
        6.4776281469094017e-010 -1.7187618103668429e-011
        -4.9733164132244886e-014 -1.6953873710231585e-011
        2.7069798586001987e-013</data></_>
    <_ type_id="opencv-matrix">
      <rows>7</rows>
      <cols>7</cols>
      <dt>d</dt>
      <data>
        2.0130553378711156e+000 1.4261758395752230e-001
        7.6946287757965279e-003 2.0542146633954401e-003
        1.5963661760798760e-006 1.0858155584526643e-004
        2.2796847924747423e-006 1.4261758395752230e-001
        1.3219946455798454e-002 8.4544041731224383e-004
        2.0261834934764053e-004 2.0040088050249667e-007
        8.6941143666436427e-006 3.7777824131013758e-007
        7.6946287757965279e-003 8.4544041731224383e-004
        7.8454597605096056e-005 1.6392695522541357e-005
        1.9074113197348071e-008 4.6918517726142328e-007
        4.0583791466170185e-008 2.0542146633954401e-003
        2.0261834934764053e-004 1.6392695522541357e-005
        4.1594758522113100e-006 4.4061567825954948e-009
        2.0047718463531921e-007 7.5943252735890705e-009
        1.5963661760798760e-006 2.0040088050249667e-007
        1.9074113197348071e-008 4.4061567825954948e-009
        5.3694384699472130e-012 1.7286414362213314e-010
        1.0410877516553589e-011 1.0858155584526643e-004
        8.6941143666436427e-006 4.6918517726142328e-007
        2.0047718463531921e-007 1.7286414362213314e-010
        1.9767153423718541e-008 8.7360477536891639e-011
        2.2796847924747423e-006 3.7777824131013758e-007
        4.0583791466170185e-008 7.5943252735890705e-009
        1.0410877516553589e-011 8.7360477536891639e-011
        2.5995489520209093e-011</data></_>
    <_ type_id="opencv-matrix">
      <rows>7</rows>
      <cols>7</cols>
      <dt>d</dt>
      <data>
        5.7602876450387641e-001 2.3403927727108025e-002
        4.0123698390716472e-002 1.0484542410667411e-003
        6.1719152175536027e-006 8.3157628998888555e-005
        4.5454869309043192e-006 2.3403927727108025e-002
        1.3014979733167579e-003 1.7420204497619277e-003
        4.4489586484405332e-005 2.5931478415775030e-007
        4.0730406358578910e-006 1.9887933985856094e-007
        4.0123698390716472e-002 1.7420204497619277e-003
        3.2500631650222121e-003 9.8662002950613778e-005
        6.4608486722836633e-007 7.5518532141093261e-006
        4.5941591547093028e-007 1.0484542410667411e-003
        4.4489586484405332e-005 9.8662002950613778e-005
        3.8297302681136549e-006 2.7908611345352859e-008
        2.6919554104880628e-007 1.8885539452501554e-008
        6.1719152175536027e-006 2.5931478415775030e-007
        6.4608486722836633e-007 2.7908611345352859e-008
        2.1253978376219723e-010 1.9007860468860666e-009
        1.4157409088090931e-010 8.3157628998888555e-005
        4.0730406358578910e-006 7.5518532141093261e-006
        2.6919554104880628e-007 1.9007860468860666e-009
        2.0215808618153215e-008 1.3148806118245652e-009
        4.5454869309043192e-006 1.9887933985856094e-007
        4.5941591547093028e-007 1.8885539452501554e-008
        1.4157409088090931e-010 1.3148806118245652e-009
        9.5099905149988773e-011</data></_>
    <_ type_id="opencv-matrix">
      <rows>7</rows>
      <cols>7</cols>
      <dt>d</dt>
      <data>
        1.9310088163158134e-001 6.7913420886394349e-003
        5.7065030133422040e-004 3.2516402756677576e-005
        -1.1156359577222609e-009 1.6718406523449460e-006
        -5.2224921498239918e-009 6.7913420886394349e-003
        2.5683867725118190e-004 1.7458782151259593e-005
        1.3659551659255572e-006 -3.9603439249917137e-011
        7.6723737563638188e-008 -2.4330921086313842e-010
        5.7065030133422040e-004 1.7458782151259593e-005
        2.0653629798582081e-006 6.3816993276755783e-008
        -3.2437045984377461e-012 2.3387406617603141e-009
        -6.7774360951319949e-012 3.2516402756677576e-005
        1.3659551659255572e-006 6.3816993276755783e-008
        8.2241217277402947e-009 -1.9239469608273156e-013
        5.0310591814742402e-010 -1.6165942703627404e-012
        -1.1156359577222609e-009 -3.9603439249917137e-011
        -3.2437045984377461e-012 -1.9239469608273156e-013
        6.4530335114339003e-018 -1.0024362223266154e-014
        3.1388264089960071e-017 1.6718406523449460e-006
        7.6723737563638188e-008 2.3387406617603141e-009
        5.0310591814742402e-010 -1.0024362223266154e-014
        3.2337525077213692e-011 -1.0464301206618149e-013
        -5.2224921498239918e-009 -2.4330921086313842e-010
        -6.7774360951319949e-012 -1.6165942703627404e-012
        3.1388264089960071e-017 -1.0464301206618149e-013
        3.3895050476270085e-016</data></_>
    <_ type_id="opencv-matrix">
      <rows>7</rows>
      <cols>7</cols>
      <dt>d</dt>
      <data>
        9.3906089233563783e-001 3.5405543952930302e-002
        9.8690833873423985e-003 4.7731578095157826e-003
        -1.9888623532495141e-005 -6.4491581273304398e-004
        -7.2058570107623877e-006 3.5405543952930302e-002
        1.3958551325781833e-003 3.9305157139274925e-004
        1.9280432331201652e-004 -8.2942299100245864e-007
        -2.6378378593596378e-005 -3.1121808163256392e-007
        9.8690833873423985e-003 3.9305157139274925e-004
        1.1593381597570099e-004 5.7567890536585669e-005
        -2.6044665680243997e-007 -7.9435842756082301e-006
        -1.0244441340300968e-007 4.7731578095157826e-003
        1.9280432331201652e-004 5.7567890536585669e-005
        3.0017953048681326e-005 -1.4155729565977142e-007
        -4.2065947973577445e-006 -5.6418776831488561e-008
        -1.9888623532495141e-005 -8.2942299100245864e-007
        -2.6044665680243997e-007 -1.4155729565977142e-007
        7.1202343860080684e-010 2.0152360850792288e-008
        2.9806226768016482e-010 -6.4491581273304398e-004
        -2.6378378593596378e-005 -7.9435842756082301e-006
        -4.2065947973577445e-006 2.0152360850792288e-008
        5.9331272707018568e-007 8.0759998519997585e-009
        -7.2058570107623877e-006 -3.1121808163256392e-007
        -1.0244441340300968e-007 -5.6418776831488561e-008
        2.9806226768016482e-010 8.0759998519997585e-009
        1.3231179177969736e-010</data></_>
    <_ type_id="opencv-matrix">
      <rows>7</rows>
      <cols>7</cols>
      <dt>d</dt>
      <data>
        1.1326577924911074e+000 2.5594809598612323e-002
        7.4698727017707897e-003 9.8995496785486822e-004
        9.0287239861586940e-007 1.5667822881105972e-005
        -7.5231357723364302e-008 2.5594809598612323e-002
        7.6265348596043538e-004 2.0092862566009292e-004
        2.2534759935081678e-005 3.0371246589608670e-008
        4.2785901868532330e-007 3.8985408547174349e-009
        7.4698727017707897e-003 2.0092862566009292e-004
        6.0581370367093475e-005 7.4313560864071161e-006
        9.0422324665593647e-009 1.9831949265188720e-007
        3.1694412895157208e-010 9.8995496785486822e-004
        2.2534759935081678e-005 7.4313560864071161e-006
        1.0853857501486431e-006 1.1042721580220516e-009
        3.3854349332208627e-008 -8.1768878493699547e-011
        9.0287239861586940e-007 3.0371246589608670e-008
        9.0422324665593647e-009 1.1042721580220516e-009
        1.7121273805589086e-012 4.2121488411490933e-011
        1.5541856588240472e-013 1.5667822881105972e-005
        4.2785901868532330e-007 1.9831949265188720e-007
        3.3854349332208627e-008 4.2121488411490933e-011
        2.4484197804396994e-009 3.9518314335944419e-012
        -7.5231357723364302e-008 3.8985408547174349e-009
        3.1694412895157208e-010 -8.1768878493699547e-011
        1.5541856588240472e-013 3.9518314335944419e-012
        5.7191539635276097e-013</data></_>
    <_ type_id="opencv-matrix">
      <rows>7</rows>
      <cols>7</cols>
      <dt>d</dt>
      <data>
        5.6345131745376964e-001 9.9533058733131036e-002
        1.6868713994139563e-003 9.8345889425304920e-004
        1.6406835658178057e-006 3.3178112227202656e-004
        5.3812457471012688e-007 9.9533058733131036e-002
        2.3430727649270656e-002 3.8809419974271522e-004
        2.3272328749519115e-004 4.2208633643237362e-007
        8.6177624294018552e-005 1.4028501252245543e-007
        1.6868713994139563e-003 3.8809419974271522e-004
        6.5872226564959584e-006 3.9168389212727577e-006
        6.9493084224323728e-009 1.4153621470382864e-006
        2.3013514801169394e-009 9.8345889425304920e-004
        2.3272328749519115e-004 3.9168389212727577e-006
        2.3417895623753163e-006 4.2051274568323038e-009
        8.5762105317824208e-007 1.3953597286346768e-009
        1.6406835658178057e-006 4.2208633643237362e-007
        6.9493084224323728e-009 4.2051274568323038e-009
        7.7872900738035867e-012 1.5935527400879121e-009
        2.5964930182776188e-012 3.3178112227202656e-004
        8.6177624294018552e-005 1.4153621470382864e-006
        8.5762105317824208e-007 1.5935527400879121e-009
        3.2621487899115668e-007 5.3160886415103103e-010
        5.3812457471012688e-007 1.4028501252245543e-007
        2.3013514801169394e-009 1.3953597286346768e-009
        2.5964930182776188e-012 5.3160886415103103e-010
        8.6638552744510626e-013</data></_>
    <_ type_id="opencv-matrix">
      <rows>7</rows>
      <cols>7</cols>
      <dt>d</dt>
      <data>
        6.2828716886342395e-001 5.5207198612986785e-002
        1.8230477312212105e-002 2.7097497291490571e-003
        1.2679721740902339e-005 3.2683049268155263e-004
        1.2828700949931760e-005 5.5207198612986785e-002
        5.1390360038454305e-003 1.6989567907703721e-003
        2.6674564198913951e-004 1.2396337048156610e-006
        3.2107768729257167e-005 1.2786709342610377e-006
        1.8230477312212105e-002 1.6989567907703721e-003
        6.1269957241547762e-004 1.0203058525145702e-004
        5.6671322972659644e-007 1.4353657237330141e-005
        5.2333261611228330e-007 2.7097497291490571e-003
        2.6674564198913951e-004 1.0203058525145702e-004
        1.8335931250013419e-005 1.1063574904162955e-007
        2.7859413312293240e-006 9.7813456482238558e-008
        1.2679721740902339e-005 1.2396337048156610e-006
        5.6671322972659644e-007 1.1063574904162955e-007
        8.0887637173787045e-010 1.9997121906497545e-008
        6.3776580339961840e-010 3.2683049268155263e-004
        3.2107768729257167e-005 1.4353657237330141e-005
        2.7859413312293240e-006 1.9997121906497545e-008
        4.9541482025523096e-007 1.5925727275346538e-008
        1.2828700949931760e-005 1.2786709342610377e-006
        5.2333261611228330e-007 9.7813456482238558e-008
        6.3776580339961840e-010 1.5925727275346538e-008
        5.4013239234343915e-010</data></_>
    <_ type_id="opencv-matrix">
      <rows>7</rows>
      <cols>7</cols>
      <dt>d</dt>
      <data>
        1.5394545289347583e-001 1.0142778939515821e-003
        2.6773871021609037e-004 1.3329886072475277e-004
        -1.9588380990244227e-008 -2.0764745059215402e-006
        -3.5387281041135240e-008 1.0142778939515821e-003
        8.6236290465650595e-006 1.1928037850688836e-006
        8.2506806849818809e-007 -2.9677375167921630e-011
        -6.4196745918500353e-009 -1.8349555369831859e-010
        2.6773871021609037e-004 1.1928037850688836e-006
        6.3374282168472785e-007 2.4748022669429386e-007
        -6.3314180051185053e-011 -5.7482441670119814e-009
        -7.6157636076702575e-011 1.3329886072475277e-004
        8.2506806849818809e-007 2.4748022669429386e-007
        1.1687827380682107e-007 -1.9684069374999946e-011
        -1.9969265194080806e-009 -3.2001704793722547e-011
        -1.9588380990244227e-008 -2.9677375167921630e-011
        -6.3314180051185053e-011 -1.9684069374999946e-011
        7.5809332614470676e-015 6.3600207592927674e-013
        7.0451783974536668e-015 -2.0764745059215402e-006
        -6.4196745918500353e-009 -5.7482441670119814e-009
        -1.9969265194080806e-009 6.3600207592927674e-013
        5.5172723844577736e-011 6.6307784547846569e-013
        -3.5387281041135240e-008 -1.8349555369831859e-010
        -7.6157636076702575e-011 -3.2001704793722547e-011
        7.0451783974536668e-015 6.6307784547846569e-013
        9.4047403413789965e-015</data></_>
    <_ type_id="opencv-matrix">
      <rows>7</rows>
      <cols>7</cols>
      <dt>d</dt>
      <data>
        3.8720309169945111e-001 8.8012073288477599e-003
        4.7175131463158410e-004 7.1022605086984436e-005
        2.4892542981384035e-008 -3.7358664779433681e-006
        -1.4948980933734886e-008 8.8012073288477599e-003
        2.7691150632505970e-004 1.7138159822770995e-005
        2.5801661156172120e-006 9.0431625048744273e-010
        -1.3571955136050285e-007 -5.4307855957960318e-010
        4.7175131463158410e-004 1.7138159822770995e-005
        1.1102171860507545e-006 1.6714424384221263e-007
        5.8581986239979380e-011 -8.7919694974093088e-009
        -3.5180857014757263e-011 7.1022605086984436e-005
        2.5801661156172120e-006 1.6714424384221263e-007
        2.5163723459337498e-008 8.8195732473633545e-012
        -1.3236392950785185e-009 -5.2965111847798245e-012
        2.4892542981384035e-008 9.0431625048744273e-010
        5.8581986239979380e-011 8.8195732473633545e-012
        3.0911511323553260e-015 -4.6391917058290302e-013
        -1.8563615366831237e-015 -3.7358664779433681e-006
        -1.3571955136050285e-007 -8.7919694974093088e-009
        -1.3236392950785185e-009 -4.6391917058290302e-013
        6.9624870353828156e-011 2.7860226418105894e-013
        -1.4948980933734886e-008 -5.4307855957960318e-010
        -3.5180857014757263e-011 -5.2965111847798245e-012
        -1.8563615366831237e-015 2.7860226418105894e-013
        1.1148203395188779e-015</data></_>
    <_ type_id="opencv-matrix">
      <rows>7</rows>
      <cols>7</cols>
      <dt>d</dt>
      <data>
        4.7907522478870490e-001 1.1219824459635541e-001
        5.8570026873804304e-002 2.1093893310772938e-002
        6.7580081862280046e-004 5.3844385972952047e-003
        3.4169105417627618e-004 1.1219824459635541e-001
        2.7812557338764032e-002 1.3721161599312609e-002
        5.0977102457664958e-003 1.7128649967387247e-004
        1.3894122784176843e-003 7.7827638228801337e-005
        5.8570026873804304e-002 1.3721161599312609e-002
        7.1605739239548744e-003 2.5792954436260895e-003
        8.2656625189565553e-005 6.5863370250167363e-004
        4.1767918338198300e-005 2.1093893310772938e-002
        5.0977102457664958e-003 2.5792954436260895e-003
        9.4493807484680170e-004 3.1091023656564789e-005
        2.5025018704336044e-004 1.4819573464868591e-005
        6.7580081862280046e-004 1.7128649967387247e-004
        8.2656625189565553e-005 3.1091023656564789e-005
        1.0635991279993153e-006 8.6834191644372073e-006
        4.6339718224910120e-007 5.3844385972952047e-003
        1.3894122784176843e-003 6.5863370250167363e-004
        2.5025018704336044e-004 8.6834191644372073e-006
        7.1248699792903630e-005 3.6568245689563481e-006
        3.4169105417627618e-004 7.7827638228801337e-005
        4.1767918338198300e-005 1.4819573464868591e-005
        4.6339718224910120e-007 3.6568245689563481e-006
        2.4684283361108150e-007</data></_>
    <_ type_id="opencv-matrix">
      <rows>7</rows>
      <cols>7</cols>
      <dt>d</dt>
      <data>
        4.0171507108574911e-001 1.4322533588235702e-002
        8.1968128167648011e-003 1.2819426546716080e-003
        -3.0062254708046063e-006 -1.2647836608759347e-004
        4.5821695342907015e-006 1.4322533588235702e-002
        8.1946894401759723e-004 5.1741748477140406e-004
        6.2007066934784244e-005 -1.9995768290585354e-007
        -7.4035606236530536e-006 2.9329208287033872e-007
        8.1968128167648011e-003 5.1741748477140406e-004
        3.3277555452441776e-004 3.8499156294396152e-005
        -1.2968115646820489e-007 -4.7112443150063703e-006
        1.8928354135110709e-007 1.2819426546716080e-003
        6.2007066934784244e-005 3.8499156294396152e-005
        5.1062737676554222e-006 -1.4724512093892157e-008
        -5.6329362460896558e-007 2.1838239552227987e-008
        -3.0062254708046063e-006 -1.9995768290585354e-007
        -1.2968115646820489e-007 -1.4724512093892157e-008
        5.0800648452999615e-011 1.8256283423510953e-009
        -7.3900196143945267e-011 -1.2647836608759347e-004
        -7.4035606236530536e-006 -4.7112443150063703e-006
        -5.6329362460896558e-007 1.8256283423510953e-009
        6.7259831432680514e-008 -2.6758442026752736e-009
        4.5821695342907015e-006 2.9329208287033872e-007
        1.8928354135110709e-007 2.1838239552227987e-008
        -7.3900196143945267e-011 -2.6758442026752736e-009
        1.0777004620294562e-010</data></_>
    <_ type_id="opencv-matrix">
      <rows>7</rows>
      <cols>7</cols>
      <dt>d</dt>
      <data>
        5.0689621743555002e-001 1.3568905843321433e-001
        1.9166914289286296e-001 5.7711305499017485e-002
        8.2231997181805294e-003 2.3021789835606654e-002
        -3.5922184190003703e-003 1.3568905843321433e-001
        3.7624828806296196e-002 5.4499506650671492e-002
        1.6409723706130031e-002 2.3381975886503925e-003
        6.5460520630455932e-003 -1.0214170557772406e-003
        1.9166914289286296e-001 5.4499506650671492e-002
        8.0297215896507623e-002 2.4177377158274282e-002
        3.4449991958274140e-003 9.6446699810570635e-003
        -1.5049117118404176e-003 5.7711305499017485e-002
        1.6409723706130031e-002 2.4177377158274282e-002
        7.2797737720675659e-003 1.0372843433927026e-003
        2.9039963726718021e-003 -4.5312676960014564e-004
        8.2231997181805294e-003 2.3381975886503925e-003
        3.4449991958274140e-003 1.0372843433927026e-003
        1.4780113266377529e-004 4.1378620613180539e-004
        -6.4565372275964331e-005 2.3021789835606654e-002
        6.5460520630455932e-003 9.6446699810570635e-003
        2.9039963726718021e-003 4.1378620613180539e-004
        1.1584418962096166e-003 -1.8075815766807612e-004
        -3.5922184190003703e-003 -1.0214170557772406e-003
        -1.5049117118404176e-003 -4.5312676960014564e-004
        -6.4565372275964331e-005 -1.8075815766807612e-004
        2.8204704673116289e-005</data></_>
    <_ type_id="opencv-matrix">
      <rows>7</rows>
      <cols>7</cols>
      <dt>d</dt>
      <data>
        1.7541420259579743e-001 3.9105868151268972e-003
        5.0292452002190287e-005 3.4958577548469878e-005
        3.3060748704877317e-009 2.5877362374821996e-006
        -1.9794361421770543e-010 3.9105868151268972e-003
        8.7980398600607471e-005 1.2086974082086914e-006
        8.2349985206229305e-007 8.0925380794713768e-011
        6.1178371314522328e-008 -4.6173226147148628e-012
        5.0292452002190287e-005 1.2086974082086914e-006
        2.6958354924702119e-008 1.6294644071349880e-008
        1.9522398265310080e-012 1.2334397386618492e-009
        -9.8062583993392857e-014 3.4958577548469878e-005
        8.2349985206229305e-007 1.6294644071349880e-008
        1.0104722650051529e-008 1.1616637827783603e-012
        7.6167864717149165e-010 -5.9940805153643543e-014
        3.3060748704877317e-009 8.0925380794713768e-011
        1.9522398265310080e-012 1.1616637827783603e-012
        1.4299703889510953e-016 8.8207398486458927e-014
        -6.9455019536891467e-018 2.5877362374821996e-006
        6.1178371314522328e-008 1.2334397386618492e-009
        7.6167864717149165e-010 8.8207398486458927e-014
        5.7459719569349437e-011 -4.5134176127767710e-015
        -1.9794361421770543e-010 -4.6173226147148628e-012
        -9.8062583993392857e-014 -5.9940805153643543e-014
        -6.9455019536891467e-018 -4.5134176127767710e-015
        3.9657759970659662e-019</data></_>
    <_ type_id="opencv-matrix">
      <rows>7</rows>
      <cols>7</cols>
      <dt>d</dt>
      <data>
        9.8739100919793277e-001 9.3619927573421573e-003
        2.2847511186935114e-003 1.3565579834921987e-003
        1.1187712687412014e-006 3.4385755451710090e-005
        -6.3419959349922577e-007 9.3619927573421573e-003
        1.1898970096270952e-004 3.1065330124872007e-005
        1.3703227948983705e-005 1.7548755581184664e-008
        4.5311138878813437e-007 -1.0092177868225504e-008
        2.2847511186935114e-003 3.1065330124872007e-005
        1.0863606405142947e-005 4.7752052200368166e-006
        6.8734658909246005e-009 1.7416440988432487e-007
        -4.0147345409336410e-009 1.3565579834921987e-003
        1.3703227948983705e-005 4.7752052200368166e-006
        2.8550996173884584e-006 2.9028160937896493e-009
        7.4304476262795751e-008 -1.8423935232547450e-009
        1.1187712687412014e-006 1.7548755581184664e-008
        6.8734658909246005e-009 2.9028160937896493e-009
        4.6946852188837996e-012 1.1297685053841795e-010
        -2.8164262406958085e-012 3.4385755451710090e-005
        4.5311138878813437e-007 1.7416440988432487e-007
        7.4304476262795751e-008 1.1297685053841795e-010
        3.2030483956032790e-009 -6.1392515812587988e-011
        -6.3419959349922577e-007 -1.0092177868225504e-008
        -4.0147345409336410e-009 -1.8423935232547450e-009
        -2.8164262406958085e-012 -6.1392515812587988e-011
        1.8118928152093819e-012</data></_>
    <_ type_id="opencv-matrix">
      <rows>7</rows>
      <cols>7</cols>
      <dt>d</dt>
      <data>
        1.1442762592764539e+000 9.2388676230924976e-002
        5.0505575474683068e-002 5.4848128312249712e-003
        2.9553839324269079e-005 3.8911089051707210e-004
        3.6869315290716585e-005 9.2388676230924976e-002
        9.1968023501761993e-003 4.8098488494013360e-003
        5.6705159061965524e-004 3.2368052694004641e-006
        4.0162880207564028e-005 4.0926089273716606e-006
        5.0505575474683068e-002 4.8098488494013360e-003
        2.7996985860108854e-003 3.2592927643197744e-004
        1.9851593188806564e-006 2.3314920382517589e-005
        2.5297857483605411e-006 5.4848128312249712e-003
        5.6705159061965524e-004 3.2592927643197744e-004
        3.9671868922996801e-005 2.4802500427384640e-007
        2.9501136766408473e-006 3.1115874217155491e-007
        2.9553839324269079e-005 3.2368052694004641e-006
        1.9851593188806564e-006 2.4802500427384640e-007
        1.6520350121615056e-009 1.8619103291966079e-008
        2.0783751939414522e-009 3.8911089051707210e-004
        4.0162880207564028e-005 2.3314920382517589e-005
        2.9501136766408473e-006 1.8619103291966079e-008
        2.4924224098294134e-007 2.1906668762218684e-008
        3.6869315290716585e-005 4.0926089273716606e-006
        2.5297857483605411e-006 3.1115874217155491e-007
        2.0783751939414522e-009 2.1906668762218684e-008
        2.7071005062737642e-009</data></_>
    <_ type_id="opencv-matrix">
      <rows>7</rows>
      <cols>7</cols>
      <dt>d</dt>
      <data>
        3.1513862280755323e-001 2.6003923943916964e-003
        6.6646363759319672e-004 2.2900908838759549e-004
        -2.7058684270370451e-008 -1.5024369144657479e-006
        -1.6799164902946363e-008 2.6003923943916964e-003
        2.1917071093071968e-005 5.9146151655676425e-006
        1.6724204616656238e-006 -2.0459810991367497e-010
        -1.6191255085981879e-008 -2.1974448181637242e-010
        6.6646363759319672e-004 5.9146151655676425e-006
        1.7845118907536854e-006 2.8807065306937644e-007
        -4.0352964184451893e-011 -6.6040763498153314e-009
        -1.0880237083858184e-010 2.2900908838759549e-004
        1.6724204616656238e-006 2.8807065306937644e-007
        2.6910163973657097e-007 -2.8491156593722939e-011
        7.0116003982575426e-010 2.6132455480410027e-011
        -2.7058684270370451e-008 -2.0459810991367497e-010
        -4.0352964184451893e-011 -2.8491156593722939e-011
        3.0822769674782545e-015 -2.5141712781361175e-014
        -1.8537657599971886e-015 -1.5024369144657479e-006
        -1.6191255085981879e-008 -6.6040763498153314e-009
        7.0116003982575426e-010 -2.5141712781361175e-014
        3.8470607111575671e-011 7.4956372723770129e-013
        -1.6799164902946363e-008 -2.1974448181637242e-010
        -1.0880237083858184e-010 2.6132455480410027e-011
        -1.8537657599971886e-015 7.4956372723770129e-013
        1.5211306371079612e-014</data></_>
    <_ type_id="opencv-matrix">
      <rows>7</rows>
      <cols>7</cols>
      <dt>d</dt>
      <data>
        1.7176368052880608e-001 2.8238927092126692e-003
        5.3571724966410689e-004 5.7288117804820890e-004
        -3.0502978206521251e-007 4.4488862558002534e-005
        -7.0239748128257603e-007 2.8238927092126692e-003
        4.6426404048829787e-005 8.8074966190086106e-006
        9.4184927625848834e-006 -5.0148632994751440e-009
        7.3142223217345675e-007 -1.1547814533646776e-008
        5.3571724966410689e-004 8.8074966190086106e-006
        1.6708594663558348e-006 1.7867708012745461e-006
        -9.5136361430152578e-010 1.3875722164826649e-007
        -2.1907218434376265e-009 5.7288117804820890e-004
        9.4184927625848834e-006 1.7867708012745461e-006
        1.9107231700642510e-006 -1.0173618797135705e-009
        1.4838312682743781e-007 -2.3426972180406496e-009
        -3.0502978206521251e-007 -5.0148632994751440e-009
        -9.5136361430152578e-010 -1.0173618797135705e-009
        5.4169291005118506e-013 -7.9006388362298985e-011
        1.2473658574336769e-012 4.4488862558002534e-005
        7.3142223217345675e-007 1.3875722164826649e-007
        1.4838312682743781e-007 -7.9006388362298985e-011
        1.1523151376422112e-008 -1.8192940969628913e-010
        -7.0239748128257603e-007 -1.1547814533646776e-008
        -2.1907218434376265e-009 -2.3426972180406496e-009
        1.2473658574336769e-012 -1.8192940969628913e-010
        2.8723314509400380e-012</data></_>
    <_ type_id="opencv-matrix">
      <rows>7</rows>
      <cols>7</cols>
      <dt>d</dt>
      <data>
        4.7876789507913387e-001 2.2203201314887178e-002
        3.3684299801285070e-004 2.6599831003677467e-004
        4.3962958897539558e-008 2.8938930022061997e-005
        1.1440413753647892e-008 2.2203201314887178e-002
        1.1924906560388069e-003 1.5013353082444111e-005
        1.5062996125047962e-005 2.7914377491764025e-009
        1.6361078798803383e-006 9.1293822206387238e-010
        3.3684299801285070e-004 1.5013353082444111e-005
        4.4397280304183292e-007 1.2596307626814266e-007
        2.1640434135099129e-011 1.3892462009883537e-008
        -5.9606925412723596e-012 2.6599831003677467e-004
        1.5062996125047962e-005 1.2596307626814266e-007
        2.1051388700306844e-007 3.7433917815251705e-011
        2.2816570190761677e-008 1.5594361861871852e-011
        4.3962958897539558e-008 2.7914377491764025e-009
        2.1640434135099129e-011 3.7433917815251705e-011
        8.0604274041934990e-015 4.0538609282799117e-012
        3.3007910285773796e-015 2.8938930022061997e-005
        1.6361078798803383e-006 1.3892462009883537e-008
        2.2816570190761677e-008 4.0538609282799117e-012
        2.4731421188202137e-009 1.6791661140900697e-012
        1.1440413753647892e-008 9.1293822206387238e-010
        -5.9606925412723596e-012 1.5594361861871852e-011
        3.3007910285773796e-015 1.6791661140900697e-012
        1.9657352670064120e-015</data></_>
    <_ type_id="opencv-matrix">
      <rows>7</rows>
      <cols>7</cols>
      <dt>d</dt>
      <data>
        2.9057403322912823e-001 3.2871461163068494e-002
        4.1944672590997767e-002 7.7807937398744476e-003
        2.3534276324937075e-004 1.7011634904246162e-003 0.
        3.2871461163068494e-002 3.7584913812212656e-003
        4.8830327707028165e-003 9.2632482327221002e-004
        2.8603824383989618e-005 2.0354030776039474e-004 0.
        4.1944672590997767e-002 4.8830327707028165e-003
        6.5323494173404884e-003 1.2827590928832858e-003
        4.0825831206545599e-005 2.8396035785680646e-004 0.
        7.7807937398744476e-003 9.2632482327221002e-004
        1.2827590928832858e-003 2.6167891769514080e-004
        8.5921510061521407e-006 5.8382977855146517e-005 0.
        2.3534276324937075e-004 2.8603824383989618e-005
        4.0825831206545599e-005 8.5921510061521407e-006
        2.8896845108476748e-007 1.9288228838159072e-006 0.
        1.7011634904246162e-003 2.0354030776039474e-004
        2.8396035785680646e-004 5.8382977855146517e-005
        1.9288228838159072e-006 1.3046234430272676e-005 0. 0. 0. 0. 0.
        0. 0. 0.</data></_>
    <_ type_id="opencv-matrix">
      <rows>7</rows>
      <cols>7</cols>
      <dt>d</dt>
      <data>
        2.3318904799926887e-001 1.4207765761665436e-002
        1.6740783461005907e-004 1.0553763826277868e-005
        7.7962803785949199e-010 5.7056194963069144e-007
        -2.8155519712567654e-010 1.4207765761665436e-002
        8.7000519427698000e-004 9.8827131083391274e-006
        6.1646711658902468e-007 4.4429656181676577e-011
        3.4269711621267498e-008 -1.6430266929242551e-011
        1.6740783461005907e-004 9.8827131083391274e-006
        1.4328671498817833e-007 9.5111143720514018e-009
        7.8347364453425706e-013 4.4556586079752692e-010
        -2.5490142291232060e-013 1.0553763826277868e-005
        6.1646711658902468e-007 9.5111143720514018e-009
        6.3962559733862086e-010 5.4021676217360886e-014
        2.8833374412558490e-011 -1.7161360066968442e-014
        7.7962803785949199e-010 4.4429656181676577e-011
        7.8347364453425706e-013 5.4021676217360886e-014
        4.7739543202935901e-018 2.2558347280029215e-015
        -1.4524567525695181e-018 5.7056194963069144e-007
        3.4269711621267498e-008 4.4556586079752692e-010
        2.8833374412558490e-011 2.2558347280029215e-015
        1.4519967033896936e-012 -7.7103065936934052e-016
        -2.8155519712567654e-010 -1.6430266929242551e-011
        -2.5490142291232060e-013 -1.7161360066968442e-014
        -1.4524567525695181e-018 -7.7103065936934052e-016
        4.6048845754755458e-019</data></_>
    <_ type_id="opencv-matrix">
      <rows>7</rows>
      <cols>7</cols>
      <dt>d</dt>
      <data>
        2.5132706572125940e-001 2.7800529601113455e-002
        4.3695658983725849e-002 1.8391012138828100e-003
        -2.8659881668718391e-005 4.3223257890041486e-004
        1.6127145932277442e-005 2.7800529601113455e-002
        3.0751540582563269e-003 4.8333929238026929e-003
        2.0343207998416504e-004 -3.1702112401188064e-006
        4.7811383027141071e-005 1.7839033634722086e-006
        4.3695658983725849e-002 4.8333929238026929e-003
        7.5969160286923909e-003 3.1974566387332759e-004
        -4.9827996531784727e-006 7.5147844960859328e-005
        2.8038614425201884e-006 1.8391012138828100e-003
        2.0343207998416504e-004 3.1974566387332759e-004
        1.3457735899628266e-005 -2.0972044143122766e-007
        3.1628883990436423e-006 1.1801137921775296e-007
        -2.8659881668718391e-005 -3.1702112401188064e-006
        -4.9827996531784727e-006 -2.0972044143122766e-007
        3.2682067683705916e-009 -4.9289297708945538e-008
        -1.8390462354175633e-009 4.3223257890041486e-004
        4.7811383027141071e-005 7.5147844960859328e-005
        3.1628883990436423e-006 -4.9289297708945538e-008
        7.4335409012456430e-007 2.7735484264725469e-008
        1.6127145932277442e-005 1.7839033634722086e-006
        2.8038614425201884e-006 1.1801137921775296e-007
        -1.8390462354175633e-009 2.7735484264725469e-008
        1.0348461084944447e-009</data></_></productsum>
  <avg>
    <_ type_id="opencv-matrix">
      <rows>1</rows>
      <cols>7</cols>
      <dt>d</dt>
      <data>
        4.0751296877861021e-001 1.1457207873463630e-001
        1.9082192936912178e-002 7.8241361440935485e-003
        2.6960096889941572e-004 2.8307801321110068e-003
        -2.4534421057372432e-005</data></_>
    <_ type_id="opencv-matrix">
      <rows>1</rows>
      <cols>7</cols>
      <dt>d</dt>
      <data>
        3.8571035464604697e-001 5.0686814884344740e-002
        2.8913596489777166e-003 1.2541235390623720e-003
        8.5913956604362816e-006 1.7612983832198854e-004
        4.8399602222322835e-007</data></_>
    <_ type_id="opencv-matrix">
      <rows>1</rows>
      <cols>7</cols>
      <dt>d</dt>
      <data>
        4.2465933073650708e-001 6.3369048082015725e-002
        5.0172221592881460e-003 1.7673632590396499e-003
        9.6525945216605832e-008 -1.7654859071957287e-004
        -5.0389980026982979e-006</data></_>
    <_ type_id="opencv-matrix">
      <rows>1</rows>
      <cols>7</cols>
      <dt>d</dt>
      <data>
        2.9217129858101115e-001 1.5337837640853488e-002
        9.4606400440063552e-003 2.4678667737402171e-004
        4.1446009245519919e-007 2.2772988101598242e-005
        -2.5038472171837679e-009</data></_>
    <_ type_id="opencv-matrix">
      <rows>1</rows>
      <cols>7</cols>
      <dt>d</dt>
      <data>
        3.4678679307301841e-001 2.7839874786635240e-002
        8.1303715317820511e-004 4.1794847541799150e-004
        3.7376330839222762e-007 6.3627211193306718e-005
        5.6473899201492374e-008</data></_>
    <_ type_id="opencv-matrix">
      <rows>1</rows>
      <cols>7</cols>
      <dt>d</dt>
      <data>
        3.1940287931097877e-001 1.8147956269482773e-002
        8.1409706520692759e-004 3.4906522745990916e-004
        2.9269019200281773e-007 1.6400260619775509e-005
        -1.7073959064485401e-008</data></_>
    <_ type_id="opencv-matrix">
      <rows>1</rows>
      <cols>7</cols>
      <dt>d</dt>
      <data>
        5.0855903966086247e-001 1.3058922705905779e-001
        7.7919289968641739e-002 1.9519811982588311e-002
        1.2222871629400547e-003 7.4512537581280670e-003
        -3.4593296320346259e-004</data></_>
    <_ type_id="opencv-matrix">
      <rows>1</rows>
      <cols>7</cols>
      <dt>d</dt>
      <data>
        2.8216863920291263e-001 1.5215471749090485e-002
        3.5495829729370598e-004 1.0480231621083173e-004
        2.8532578697832275e-008 6.2504473652167135e-006
        7.9821016337432160e-009</data></_>
    <_ type_id="opencv-matrix">
      <rows>1</rows>
      <cols>7</cols>
      <dt>d</dt>
      <data>
        3.0532122013114749e-001 1.9785356530476184e-002
        9.9828866396343236e-004 2.8114077100499778e-004
        1.9295976208401014e-007 1.6042940463497263e-005
        2.2008003708304446e-007</data></_>
    <_ type_id="opencv-matrix">
      <rows>1</rows>
      <cols>7</cols>
      <dt>d</dt>
      <data>
        3.3017875850200651e-001 1.1922566592693329e-002
        2.1244429424405097e-002 5.2797271264353189e-004
        2.9720111675263226e-006 4.0654518460314645e-005
        2.1959741673072131e-006</data></_>
    <_ type_id="opencv-matrix">
      <rows>1</rows>
      <cols>7</cols>
      <dt>d</dt>
      <data>
        3.1072294712066650e-001 1.0940650943666697e-002
        9.1642444021999836e-004 5.2478014367807191e-005
        -1.7954505660000564e-009 2.7027030853332690e-006
        -8.4452375093135856e-009</data></_>
    <_ type_id="opencv-matrix">
      <rows>1</rows>
      <cols>7</cols>
      <dt>d</dt>
      <data>
        4.2228887081146238e-001 1.5361733920872211e-002
        4.2126028216443959e-003 1.9493294064886868e-003
        -7.6851067348115969e-006 -2.5694501273392233e-004
        -2.7336110889564238e-006</data></_>
    <_ type_id="opencv-matrix">
      <rows>1</rows>
      <cols>7</cols>
      <dt>d</dt>
      <data>
        3.9599364144461496e-001 8.5980600810476714e-003
        2.4893993977457285e-003 3.4571654188247133e-004
        2.8975256175353283e-007 5.5612864733640369e-006
        -6.8501455936192150e-009</data></_>
    <_ type_id="opencv-matrix">
      <rows>1</rows>
      <cols>7</cols>
      <dt>d</dt>
      <data>
        3.4706424921751022e-001 4.6760572004131973e-002
        8.1353365294489777e-004 4.5818797565289060e-004
        6.8097290630182716e-007 1.3567839477346411e-004
        2.1879827598520786e-007</data></_>
    <_ type_id="opencv-matrix">
      <rows>1</rows>
      <cols>7</cols>
      <dt>d</dt>
      <data>
        3.4609397053718566e-001 2.9544533044099808e-002
        9.2628814745694399e-003 1.2886674114270136e-003
        5.2886877648816723e-006 1.3894945204810937e-004
        5.7243452658894970e-006</data></_>
    <_ type_id="opencv-matrix">
      <rows>1</rows>
      <cols>7</cols>
      <dt>d</dt>
      <data>
        2.7740782499313354e-001 1.8426235474180430e-003
        4.7807493683649227e-004 2.3979449906619266e-004
        -3.4534758164284085e-008 -3.6860140077976666e-006
        -6.3386087489902820e-008</data></_>
    <_ type_id="opencv-matrix">
      <rows>1</rows>
      <cols>7</cols>
      <dt>d</dt>
      <data>
        4.3993279337882996e-001 9.8900131415575743e-003
        5.2683422109112144e-004 7.9315388575196266e-005
        2.7799060831057432e-008 -4.1720759327290580e-006
        -1.6694462701138946e-008</data></_>
    <_ type_id="opencv-matrix">
      <rows>1</rows>
      <cols>7</cols>
      <dt>d</dt>
      <data>
        4.8895898461341858e-001 1.1330289766192436e-001
        5.9775067493319511e-002 2.1404940634965897e-002
        6.7948921059723943e-004 5.3943758830428123e-003
        3.5047017445322126e-004</data></_>
    <_ type_id="opencv-matrix">
      <rows>1</rows>
      <cols>7</cols>
      <dt>d</dt>
      <data>
        3.1053210049867630e-001 9.3280006549321115e-003
        5.0643548020161688e-003 8.9879400184145197e-004
        -1.7969183518928844e-006 -8.1452295034978306e-005
        2.8068270232495252e-006</data></_>
    <_ type_id="opencv-matrix">
      <rows>1</rows>
      <cols>7</cols>
      <dt>d</dt>
      <data>
        4.4930983334779739e-001 1.0876158997416496e-001
        1.4168381690979004e-001 4.2660795152187347e-002
        6.0786744579672813e-003 1.7017945647239685e-002
        -2.6554050855338573e-003</data></_>
    <_ type_id="opencv-matrix">
      <rows>1</rows>
      <cols>7</cols>
      <dt>d</dt>
      <data>
        2.4132984876632690e-001 5.3546254833539324e-003
        6.5178191107406747e-005 4.6093137522499696e-005
        4.2298597587494174e-009 3.4036328315778519e-006
        -2.5797378122582870e-010</data></_>
    <_ type_id="opencv-matrix">
      <rows>1</rows>
      <cols>7</cols>
      <dt>d</dt>
      <data>
        3.7452750972339083e-001 3.4628130046517719e-003
        8.1083729922478852e-004 4.9081247353959564e-004
        3.7768769889368059e-007 1.2171294331762641e-005
        -2.0829701403395668e-007</data></_>
    <_ type_id="opencv-matrix">
      <rows>1</rows>
      <cols>7</cols>
      <dt>d</dt>
      <data>
        3.2998203784227370e-001 2.4264100007712841e-002
        1.3166608614847064e-002 1.3678581752174068e-003
        6.9849517281284079e-006 9.4641391137884062e-005
        8.7199251118441626e-006</data></_>
    <_ type_id="opencv-matrix">
      <rows>1</rows>
      <cols>7</cols>
      <dt>d</dt>
      <data>
        3.8520522415637970e-001 3.0627912492491305e-003
        7.1008210579748265e-004 3.3463592262705788e-004
        -3.7778315586933786e-008 -8.8117394625442103e-007
        -1.0621903356877738e-010</data></_>
    <_ type_id="opencv-matrix">
      <rows>1</rows>
      <cols>7</cols>
      <dt>d</dt>
      <data>
        4.1444382071495056e-001 6.8136923946440220e-003
        1.2926172930747271e-003 1.3822891050949693e-003
        -7.3599790084699634e-007 1.0734594252426177e-004
        -1.6947954009083332e-006</data></_>
    <_ type_id="opencv-matrix">
      <rows>1</rows>
      <cols>7</cols>
      <dt>d</dt>
      <data>
        3.3804045617580414e-001 1.4636720879934728e-002
        2.1120038991284673e-004 1.7724672325414303e-004
        2.7405828316418804e-008 1.9273140048348125e-005
        7.5618434908042529e-009</data></_>
    <_ type_id="opencv-matrix">
      <rows>1</rows>
      <cols>7</cols>
      <dt>d</dt>
      <data>
        3.7977291643619537e-001 4.2580848559737206e-002
        5.3500972688198090e-002 9.7283213399350643e-003
        2.8864884552604053e-004 2.1172850392758846e-003 0.</data></_>
    <_ type_id="opencv-matrix">
      <rows>1</rows>
      <cols>7</cols>
      <dt>d</dt>
      <data>
        3.4144987165927887e-001 2.0814915187656879e-002
        2.4432587815681472e-004 1.5386234281322686e-005
        1.1338015734607687e-009 8.3420241026033182e-007
        -4.1043630993886637e-010</data></_>
    <_ type_id="opencv-matrix">
      <rows>1</rows>
      <cols>7</cols>
      <dt>d</dt>
      <data>
        5.0132530927658081e-001 5.5454071611166000e-002
        8.7160289287567139e-002 3.6684786900877953e-003
        -5.7168232160620391e-005 8.6217984789982438e-004
        3.2169024052564055e-005</data></_></avg>
  <inv_eigen_values>
    <_ type_id="opencv-matrix">
      <rows>1</rows>
      <cols>7</cols>
      <dt>d</dt>
      <data>
        8.4182233180847490e+001 1.4158611602612748e+003
        7.0372711254272726e+003 9.2808304255462962e+005 8388608.
        8388608. 8388608.</data></_>
    <_ type_id="opencv-matrix">
      <rows>1</rows>
      <cols>7</cols>
      <dt>d</dt>
      <data>
        1.7538874085665120e+002 7.6310446316680745e+003
        2.7301923764459306e+005 4.8095317758007981e+006 8388608.
        8388608. 8388608.</data></_>
    <_ type_id="opencv-matrix">
      <rows>1</rows>
      <cols>7</cols>
      <dt>d</dt>
      <data>
        3.0551699705408146e+002 3.5449601917136722e+004
        5.6724507066172338e+005 3.6728254698707904e+006 8388608.
        8388608. 8388608.</data></_>
    <_ type_id="opencv-matrix">
      <rows>1</rows>
      <cols>7</cols>
      <dt>d</dt>
      <data>
        4.4442292144406764e+002 2.6624458605128642e+004
        2.8417115663784213e+005 8388608. 8388608. 8388608. 8388608.</data></_>
    <_ type_id="opencv-matrix">
      <rows>1</rows>
      <cols>7</cols>
      <dt>d</dt>
      <data>
        4.1610230198034395e+002 5.6444769873856741e+004
        1.5551100770071896e+006 1.8636735294564101e+006 8388608.
        8388608. 8388608.</data></_>
    <_ type_id="opencv-matrix">
      <rows>1</rows>
      <cols>7</cols>
      <dt>d</dt>
      <data>
        3.5864981588032009e+002 3.2352999073355604e+004
        6.5583202217492210e+006 8388608. 8388608. 8388608. 8388608.</data></_>
    <_ type_id="opencv-matrix">
      <rows>1</rows>
      <cols>7</cols>
      <dt>d</dt>
      <data>
        7.7279864983564238e+001 1.0864881279510057e+003
        5.0324876279578748e+003 1.2965436071722305e+005
        1.5941113828555844e+006 8388608. 8388608.</data></_>
    <_ type_id="opencv-matrix">
      <rows>1</rows>
      <cols>7</cols>
      <dt>d</dt>
      <data>
        4.0830357402209768e+002 2.4965001090366339e+004
        5.6129907537609609e+006 8388608. 8388608. 8388608. 8388608.</data></_>
    <_ type_id="opencv-matrix">
      <rows>1</rows>
      <cols>7</cols>
      <dt>d</dt>
      <data>
        3.3352122084336281e+002 4.1145270020633790e+004
        1.0081421535046381e+006 8.3886079999999991e+006 8388608.
        8388608. 8388608.</data></_>
    <_ type_id="opencv-matrix">
      <rows>1</rows>
      <cols>7</cols>
      <dt>d</dt>
      <data>
        1.2417210934750985e+002 1.3844266911061894e+004
        1.7461703561088012e+005 8.3886080000000019e+006 8388608.
        8388608. 8388608.</data></_>
    <_ type_id="opencv-matrix">
      <rows>1</rows>
      <cols>7</cols>
      <dt>d</dt>
      <data>
        4.7140198777251295e+004 8.3886079999999991e+006
        8.3886079999999991e+006 8.3886079999999991e+006 8388608.
        8388608. 8388608.</data></_>
    <_ type_id="opencv-matrix">
      <rows>1</rows>
      <cols>7</cols>
      <dt>d</dt>
      <data>
        8.3968408648538883e+001 1.2186438238051982e+005
        7.0526604180866340e+005 8388608. 8388608. 8388608. 8388608.</data></_>
    <_ type_id="opencv-matrix">
      <rows>1</rows>
      <cols>7</cols>
      <dt>d</dt>
      <data>
        1.7104023638892559e+002 3.7651480670757694e+004
        1.2538968666852519e+006 8.3886079999999991e+006 8388608.
        8388608. 8388608.</data></_>
    <_ type_id="opencv-matrix">
      <rows>1</rows>
      <cols>7</cols>
      <dt>d</dt>
      <data>
        3.1145383955723677e+001 6.5197903519620653e+005
        8.3886079999999991e+006 8.3886079999999991e+006 8388608.
        8388608. 8388608.</data></_>
    <_ type_id="opencv-matrix">
      <rows>1</rows>
      <cols>7</cols>
      <dt>d</dt>
      <data>
        1.3277340615278030e+002 1.9331275912893634e+004
        2.3105007085083096e+005 8388608. 8388608. 8388608. 8388608.</data></_>
    <_ type_id="opencv-matrix">
      <rows>1</rows>
      <cols>7</cols>
      <dt>d</dt>
      <data>
        2.6837136434446791e+004 8388608. 8388608. 8388608. 8388608.
        8388608. 8388608.</data></_>
    <_ type_id="opencv-matrix">
      <rows>1</rows>
      <cols>7</cols>
      <dt>d</dt>
      <data>
        4.9207553933022064e+003 8388608. 8388608. 8388608. 8388608.
        8388608. 8388608.</data></_>
    <_ type_id="opencv-matrix">
      <rows>1</rows>
      <cols>7</cols>
      <dt>d</dt>
      <data>
        3.2183784803348686e+002 8.3886079999999991e+006
        8.3886079999999991e+006 8.3886079999999991e+006 8388608.
        8388608. 8388608.</data></_>
    <_ type_id="opencv-matrix">
      <rows>1</rows>
      <cols>7</cols>
      <dt>d</dt>
      <data>
        1.7973208768725598e+002 5.5458663561679109e+005
        3.2164894016642463e+006 8388608. 8388608. 8388608. 8388608.</data></_>
    <_ type_id="opencv-matrix">
      <rows>1</rows>
      <cols>7</cols>
      <dt>d</dt>
      <data>
        6.1896529974499037e+000 8388608. 8388608. 8388608. 8388608.
        8388608. 8388608.</data></_>
    <_ type_id="opencv-matrix">
      <rows>1</rows>
      <cols>7</cols>
      <dt>d</dt>
      <data>
        2.8752623762113612e+003 6.4827860494809523e+006
        8.3886079999999991e+006 8.3886079999999991e+006 8388608.
        8388608. 8388608.</data></_>
    <_ type_id="opencv-matrix">
      <rows>1</rows>
      <cols>7</cols>
      <dt>d</dt>
      <data>
        1.0879017869283923e+003 2.8514686200373282e+005
        5.0252472466726517e+006 8.3886080000000019e+006 8388608.
        8388608. 8388608.</data></_>
    <_ type_id="opencv-matrix">
      <rows>1</rows>
      <cols>7</cols>
      <dt>d</dt>
      <data>
        1.5232606769293758e+002 1.6533203843545554e+004
        5.5385753766553462e+004 8388608. 8388608. 8388608. 8388608.</data></_>
    <_ type_id="opencv-matrix">
      <rows>1</rows>
      <cols>7</cols>
      <dt>d</dt>
      <data>
        5.4417414371666354e+001 8388608. 8388608. 8388608. 8388608.
        8388608. 8388608.</data></_>
    <_ type_id="opencv-matrix">
      <rows>1</rows>
      <cols>7</cols>
      <dt>d</dt>
      <data>
        8388608. 8388608. 8388608. 8388608. 8388608. 8388608. 8388608.</data></_>
    <_ type_id="opencv-matrix">
      <rows>1</rows>
      <cols>7</cols>
      <dt>d</dt>
      <data>
        1.3666315174784495e+002 4.5040999533095921e+004 8388608.
        8388608. 8388608. 8388608. 8388608.</data></_>
    <_ type_id="opencv-matrix">
      <rows>1</rows>
      <cols>7</cols>
      <dt>d</dt>
      <data>
        3.1892090985522617e+002 8388608. 8388608. 8388608. 8388608.
        8388608. 8388608.</data></_>
    <_ type_id="opencv-matrix">
      <rows>1</rows>
      <cols>7</cols>
      <dt>d</dt>
      <data>
        6.0510141433284734e+004 8388608. 8388608. 8388608. 8388608.
        8388608. 8388608.</data></_>
    <_ type_id="opencv-matrix">
      <rows>1</rows>
      <cols>7</cols>
      <dt>d</dt>
      <data>
        8388608. 8388608. 8388608. 8388608. 8388608. 8388608. 8388608.</data></_></inv_eigen_values>
  <cov_rotate_mats>
    <_ type_id="opencv-matrix">
      <rows>7</rows>
      <cols>7</cols>
      <dt>d</dt>
      <data>
        -7.9819839044442031e-001 -5.9544805610043594e-001
        -7.9167611539516139e-002 -4.1478878729032949e-002
        -1.2061804932835059e-003 -1.8206270469909656e-002
        1.0356086799864547e-004 2.7605019256983798e-001
        -4.9592831235065554e-001 7.2425082804105878e-001
        3.7312407427854299e-001 2.5010137713833543e-002
        1.1602654920985103e-001 -1.7018686189881121e-003
        5.2649004521212173e-001 -6.2080884715890272e-001
        -3.9680424647086054e-001 -3.9626375616687454e-001
        -3.1842922630975601e-002 -1.4802182104961489e-001
        1.2656557424926230e-003 -9.7271283198401809e-002
        1.1792827649844290e-001 5.5763791933465545e-001
        -7.6067513927340102e-001 -1.0012081329303649e-001
        -2.7749095042610544e-001 4.3700864647648824e-003
        4.6491099280966145e-003 -1.3606660672647009e-002
        3.9476590389544135e-003 -2.9120812932011092e-001
        -3.0187721545600571e-001 9.0733685163239575e-001
        -2.4196496162645947e-002 -6.1065139807072377e-004
        4.3846003955210671e-004 -2.7599579441424642e-002
        1.9644209435836948e-001 -9.4646007160047152e-001
        -2.5258537742465054e-001 -3.2590821003693801e-002
        4.0412041934521914e-004 -8.2760178638053281e-004
        -1.4991566118935477e-003 3.8242430693530786e-003
        -3.7661237613357011e-002 1.5334578568095340e-002
        9.9916403124709141e-001</data></_>
    <_ type_id="opencv-matrix">
      <rows>7</rows>
      <cols>7</cols>
      <dt>d</dt>
      <data>
        -9.6279892515061660e-001 -2.6825354545654545e-001
        -2.7936144532853976e-002 -1.6397545953965868e-002
        -1.6577081727499129e-004 -2.9882959535174592e-003
        -1.2118376042382410e-006 2.4959187858333870e-001
        -9.2889650386331502e-001 2.2451220738615524e-001
        1.5170897489626212e-001 2.0984422235408966e-003
        3.7807384326416768e-002 1.8209036375406345e-004
        1.0290029451306662e-001 -2.5433320216602329e-001
        -7.3407387127303958e-001 -6.0426315997255053e-001
        -7.7956301283429227e-003 -1.4375741273598930e-001
        -8.7813077513968754e-004 -1.1555899707473380e-002
        2.2404840570350429e-002 6.4025082824250257e-001
        -7.4475032652748030e-001 -9.6725329818397095e-003
        -1.8626929790660329e-001 -7.0932084711490041e-004
        -3.3633698020424369e-004 -1.9893163972316491e-003
        -5.3102785075016465e-003 2.3851974796622316e-001
        -2.6800658570090664e-002 -9.7074847866587954e-001
        2.2751127663703328e-003 -2.5085817640332189e-006
        8.6005457158877405e-005 -1.4462352675621406e-004
        -5.8208160000686720e-003 9.9945347059067313e-001
        -2.9057080538613802e-002 -1.4647046689649000e-002
        3.6280513724784248e-005 -3.2845553801116200e-005
        -2.2144625976553935e-004 -1.7146402054485084e-003
        1.4687550556725807e-002 1.5178791050062222e-003
        9.9988948413166134e-001</data></_>
    <_ type_id="opencv-matrix">
      <rows>7</rows>
      <cols>7</cols>
      <dt>d</dt>
      <data>
        -8.9556149958552078e-001 -4.4279688202639289e-001
        -4.2316447712045312e-002 -1.0350121522698690e-002
        -5.0749084931899307e-006 1.6463598781731833e-003
        6.6623823358818329e-005 4.4158832911518309e-001
        -8.7321417325431283e-001 -2.0593204286752376e-001
        -9.3376842095794031e-003 1.2477632774821100e-004
        1.2390675265656812e-003 -7.5720479475647947e-005
        -5.2559470907330465e-002 2.0206959242917275e-001
        -9.6226561810065059e-001 -1.4823820582114813e-001
        1.3861532132778706e-003 9.2048206192269652e-002
        9.5010831192614861e-004 1.1469420826920712e-002
        -1.3270635794157735e-002 1.2323757747020717e-001
        -9.6511612185160811e-001 -4.9680753365753914e-003
        -2.3023730639660805e-001 4.6705913528391121e-003
        -8.6773282424487605e-003 2.0486291421310983e-002
        -1.2107277977519820e-001 2.1528622352300722e-001
        -1.5497849623088910e-002 -9.6862536592733661e-001
        -4.7913397161958287e-003 -6.3169979487096687e-005
        8.6680112614540038e-005 2.7033348344044267e-004
        -5.8090309074673527e-003 2.6400050169405292e-001
        -7.7551229659614631e-004 -9.6450469374793735e-001
        -4.9369594871966473e-005 5.7332171268729192e-005
        2.4726586592973089e-005 2.9229475578773520e-004
        9.6438422476427021e-001 -1.6672245009231958e-002
        2.6397918762699357e-001</data></_>
    <_ type_id="opencv-matrix">
      <rows>7</rows>
      <cols>7</cols>
      <dt>d</dt>
      <data>
        -9.9172673149407264e-001 -5.0654046915657586e-002
        -1.1794055674196441e-001 -1.4971590913415386e-003
        -5.2523755394236988e-006 -2.0280312879503517e-004
        2.1222762369218164e-006 8.7817375187740822e-003
        -9.4346796031432678e-001 3.3134122391611676e-001
        1.9524516563855492e-003 7.1146502989565125e-006
        -5.1864179829880848e-004 -3.4246776539082843e-005
        1.2802428042080854e-001 -3.2739802881352076e-001
        -9.3542506942671833e-001 -3.6923161257496520e-002
        -1.3584617732965011e-004 -6.0755583676234456e-003
        -5.6025568796226420e-005 -3.2718762998347026e-003
        1.0541226172665695e-002 3.5782337689480512e-002
        -9.9321289485374598e-001 -2.4520192873067588e-003
        -1.1009056530841235e-001 4.7047439942997301e-005
        -2.2246006943741687e-004 1.3364984762004725e-003
        1.6063798519108455e-003 1.1026510314668340e-001
        -1.7136937397214620e-002 -9.9375004524738908e-001
        -2.0889716655162604e-003 -9.0707991282507462e-006
        4.9385520515444537e-005 3.5906413858554812e-005
        -3.6814773485567434e-004 1.7683724744224677e-001
        -1.0212513199162948e-003 -9.8423950622780676e-001
        1.9198245058442514e-006 2.0203490549853393e-006
        -2.1474651192889760e-005 -4.9356000207800908e-004
        9.8408784280810946e-001 -1.7396824961052649e-002
        1.7682823317601765e-001</data></_>
    <_ type_id="opencv-matrix">
      <rows>7</rows>
      <cols>7</cols>
      <dt>d</dt>
      <data>
        -9.7905989956962391e-001 -2.0322695663305265e-001
        1.3960166410130976e-003 -1.1477771599848004e-002
        -1.5671778633247935e-005 -2.6131970680885481e-003
        -2.1223357039121202e-006 2.0338870049994001e-001
        -9.7840524765445458e-001 3.0111219806261070e-002
        -2.0459960659426527e-002 -2.9517601383014522e-005
        -5.5598067009875627e-003 9.6138286464811182e-007
        3.0764194830913420e-003 3.6171274421702135e-002
        5.8372090406654142e-001 -7.8951742251696955e-001
        -1.0786346332647338e-003 -1.8604606910656618e-001
        -1.3025013040323343e-004 -8.0786416487169371e-003
        1.0643882550801446e-002 8.1134480396544517e-001
        5.7126889767616496e-001 8.1629267227495287e-004
        1.2325673023410158e-001 1.0515587597971297e-004
        -1.4406426363827498e-004 5.6754555113072258e-004
        -8.9931229660597592e-003 2.2307727049855364e-001
        -3.6346772467811244e-003 -9.7475160799041105e-001
        -1.1849494453168522e-003 8.2700162767187940e-009
        -5.5391380380545178e-007 6.5335612148681473e-005
        5.0243472907473066e-004 -9.9883645730562565e-001
        3.8972976332799008e-003 -4.8065433719041727e-002
        1.1949008178924401e-006 -4.7527379829456557e-006
        1.6849433677216680e-005 -1.2571870986958906e-004
        4.8069634647742894e-002 1.0060635117372259e-003
        -9.9884347219568348e-001</data></_>
    <_ type_id="opencv-matrix">
      <rows>7</rows>
      <cols>7</cols>
      <dt>d</dt>
      <data>
        -9.9228751623142852e-001 -1.2357522724879987e-001
        -5.7448314166350552e-003 -7.7925227298261315e-003
        -1.2943342311292106e-005 -9.6003756822576848e-004
        1.8726042180735361e-006 1.2315649004834937e-001
        -9.9041881180768621e-001 5.8760912725167237e-002
        -1.8312491348123058e-002 1.3519631363577444e-005
        -1.0717424748484248e-002 -2.4428096914990028e-005
        1.2502096513737983e-002 -2.1914112102282737e-002
        -6.4433451048556878e-001 -7.6178259439563378e-001
        -1.4752373665752265e-003 -6.2301553908383940e-002
        3.5609271620122893e-004 -6.4501797551680335e-003
        5.7614778657003998e-002 7.5224605421793533e-001
        -6.2055237970325516e-001 2.4493485724156806e-005
        -2.1372710858006616e-001 -5.2237695066788855e-004
        -2.3840125595784832e-004 2.2080624000889041e-004
        1.2438807835619388e-001 -1.8494260126851164e-001
        -1.5609652942719368e-003 9.7483991177749219e-001
        2.9059252117534296e-003 -4.2417672395187383e-006
        2.4679762001822920e-005 8.1882772060353469e-004
        1.4784764698790019e-003 -9.4979265279521852e-001
        -2.2774894136828208e-003 3.1286718066873104e-001
        -9.8421977590999723e-007 5.8689834471810319e-006
        6.5258774100246449e-006 2.2671094350987852e-005
        3.1287266228937627e-001 -2.3268048596937520e-003
        9.4979223126909373e-001</data></_>
    <_ type_id="opencv-matrix">
      <rows>7</rows>
      <cols>7</cols>
      <dt>d</dt>
      <data>
        -8.0107952173566466e-001 -3.5674666052328852e-001
        -4.5803717623985579e-001 -1.3355016972777811e-001
        -1.1165655541409443e-002 -5.6881037063079357e-002
        3.0972839876370973e-003 -2.7792796350032778e-001
        -4.8856037004294250e-001 7.7518923251322880e-001
        2.7139678691532992e-001 2.8620882346298775e-002
        9.2980620854203430e-002 -5.0694195856671826e-003
        4.9888651875068946e-001 -7.6002019150603639e-001
        -1.5871294807032732e-001 -3.3771853001864921e-001
        -4.4245937106568184e-002 -1.7966691241521110e-001
        2.0528409631743235e-004 -1.7861703341115878e-001
        2.3392250349037833e-001 4.0392878277092342e-001
        -7.9205650238619030e-001 -1.4259347878992690e-001
        -3.1842130587012552e-001 -3.3752407139287920e-002
        -9.9253270909111860e-003 2.9138881327159121e-002
        -1.3823957304364313e-002 3.9721215912404018e-001
        -5.0615200024801554e-001 -7.6050655837864822e-001
        8.0769670258099002e-002 -9.2860565364607899e-003
        2.6324017887504797e-002 1.1959468978373775e-002
        9.0670599319613174e-002 8.0425336906282840e-001
        -5.1651545030453883e-001 -2.7792973339465954e-001
        -7.1484810046920861e-003 1.2170767032750543e-002
        2.4519519734246584e-002 -3.3198957672712089e-002
        2.7157363841547766e-001 -9.6376286394046051e-002
        9.5658599422596591e-001</data></_>
    <_ type_id="opencv-matrix">
      <rows>7</rows>
      <cols>7</cols>
      <dt>d</dt>
      <data>
        -9.8952397193335973e-001 -1.4411262405153058e-001
        -8.3681616287620570e-003 -1.9515006071044862e-003
        -8.0987861837491776e-007 -1.6147409312750280e-004
        -7.8122238674771175e-008 1.4434683449880648e-001
        -9.8853555184818320e-001 -4.0559688327594066e-002
        -1.7637288332082793e-002 -9.7520108574203306e-006
        -2.3003713613462783e-003 6.4760656154955795e-006
        2.3806754413062221e-003 4.2451087368098279e-002
        -9.9668656594712157e-001 -6.8852100778794403e-002
        1.4575576380364903e-005 8.2130081991019198e-003
        -2.4764584536311383e-004 -7.8778062651510008e-004
        1.4951411716312507e-002 6.8993985240357242e-002
        -9.9602616406900801e-001 -5.2834774022761410e-004
        -5.4288032177716210e-002 2.7493806940014098e-004
        -1.1011572601452354e-004 1.8370423575759078e-003
        -1.1855450651198293e-002 5.3630714776025705e-002
        -3.2446244508864143e-003 -9.9847902362188545e-001
        2.9865819312597979e-003 8.1649729948591764e-008
        7.8412479506602885e-006 -2.2346441601681509e-004
        2.7114403669683382e-005 1.9295826102744112e-001
        2.3120040259427608e-003 9.8120421595385643e-001
        2.2185393790132525e-007 -2.0091198644491867e-006
        -5.6288748059143588e-005 3.6347134424043615e-004
        -9.8120145864847708e-001 3.7858025279165243e-003
        1.9294877548560291e-001</data></_>
    <_ type_id="opencv-matrix">
      <rows>7</rows>
      <cols>7</cols>
      <dt>d</dt>
      <data>
        -9.6096675461162551e-001 -2.7569239139910440e-001
        -2.2736747168289519e-002 -4.4307681644635798e-003
        -6.3142272081337838e-006 -1.0102027683677343e-004
        -1.5249763435415751e-005 2.7636263653281623e-001
        -9.5265643789617549e-001 -1.2364768171677137e-001
        -2.7929629700627588e-002 -3.5441537458827641e-005
        -7.6412786420798054e-004 -7.6856747958555183e-005
        -1.2806832835781738e-002 1.2788500410267134e-001
        -9.8077485986747603e-001 -1.4682507948648124e-001
        -2.2399813676355235e-004 2.0345773897427074e-003
        -5.3978123091828084e-004 -1.6021493051273849e-003
        9.2062552342883318e-003 1.4745082759942973e-001
        -9.7876646215997809e-001 -8.6495512469259201e-004
        -1.4207703420564644e-001 7.1566557017465108e-004
        -8.8372953345353073e-005 2.9515977636709509e-004
        2.3088517916728255e-002 -1.4020294020106069e-001
        -2.5503960159698586e-004 9.8977759448830538e-001
        -1.2255993393423951e-002 3.7386293573493750e-007
        1.0858499343546973e-005 3.7284830002877467e-004
        1.2681854197730249e-003 -2.1129190941528622e-001
        -1.1985596032077257e-002 -9.7734862105353049e-001
        4.8196557548067559e-007 -3.5544478737792421e-006
        1.2288344853426544e-005 6.6327038678206870e-004
        -9.7742256181855081e-001 2.4579842113366850e-003
        2.1127861668943687e-001</data></_>
    <_ type_id="opencv-matrix">
      <rows>7</rows>
      <cols>7</cols>
      <dt>d</dt>
      <data>
        -9.7999519293175874e-001 -1.1773033649507783e-001
        -1.6036497109544051e-001 -5.6394130549608356e-003
        -4.0445758601074702e-005 -5.1016360534350080e-004
        -2.9369897664195241e-005 -3.9039716449302847e-002
        -6.7656016585617429e-001 7.3335088884559296e-001
        5.4162054095570400e-002 4.7902607842755266e-004
        2.2074724363543340e-003 2.9298670808226195e-004
        1.9381074292646691e-001 -7.2426458075890787e-001
        -6.4792656583607866e-001 -1.3412180962802406e-001
        -1.3537476336790391e-003 -8.8421905654375924e-003
        -8.3754625790363887e-004 -2.2862048792049370e-002
        6.1990531831221954e-002 1.2910934303903265e-001
        -9.8819538197669043e-001 -6.8986734353317586e-003
        -4.8709180912614031e-002 -3.8715975953252796e-003
        -1.6025747673265779e-004 1.8377694601938877e-003
        1.0227271467710157e-003 4.6308152636435965e-002
        2.4058505339751451e-001 -9.6943804317295901e-001
        1.2641933405737563e-002 -1.3483542226588318e-004
        7.2083204352694716e-004 6.4958802499955916e-004
        1.9248119224698906e-002 -9.5312167157954497e-001
        -2.3803737471959463e-001 -1.8581129557780229e-001
        -3.4036358032901297e-005 6.2220614779055555e-005
        1.5736395464379234e-004 9.8032867145960117e-004
        1.8338008566216635e-001 3.2744264306170862e-002
        -9.8249608981409542e-001</data></_>
    <_ type_id="opencv-matrix">
      <rows>7</rows>
      <cols>7</cols>
      <dt>d</dt>
      <data>
        -3.9927846297275787e-001 9.0678887738108627e-001
        -1.3483976101746029e-001 1.1315652308521260e-002
        -1.6460978722276380e-008 9.1417525347874953e-004
        -3.0420263322631431e-006 6.0369060570468125e-003
        -9.6154335924731951e-003 1.0179576004626894e-003
        9.9906163118415414e-001 6.8253172318013095e-009
        -4.1784208261821089e-002 3.0463397092280782e-008
        8.9141124681277351e-001 3.4965482386989211e-001
        -2.8830920631474166e-001 -1.6608084016441066e-003
        3.6167592816272766e-008 1.5926284119265389e-003
        -2.1374194099534957e-006 -2.1430150507030177e-001
        -2.3533574903744969e-001 -9.4795387940336051e-001
        3.5867212413500131e-004 -5.9465695358871227e-008
        8.6754285390287476e-003 -3.1107454226314993e-005
        -1.0576936968092079e-003 -2.5426309971546583e-004
        -8.8569609869947191e-003 -4.1772313493658661e-002
        4.5817425522760845e-005 -9.9908730479496555e-001
        -2.7759829142979240e-007 -5.9745804524694453e-006
        -3.8135917345500404e-006 -3.0500587294706224e-005
        4.4690521185750741e-008 2.3431065413641573e-002
        1.0725725653154315e-006 9.9972545440831084e-001
        1.3689166555598555e-007 8.9382421173207601e-008
        1.0725890526819111e-006 1.9068249775949724e-006
        9.9972545384937561e-001 4.5763799462278742e-005
        -2.3431065415843493e-002</data></_>
    <_ type_id="opencv-matrix">
      <rows>7</rows>
      <cols>7</cols>
      <dt>d</dt>
      <data>
        -9.9773375338485215e-001 -6.2533499495665154e-002
        -2.0516335592288552e-002 -1.3832880237230586e-002
        7.7073978745112611e-005 2.1548418624324733e-003
        3.0195322458285196e-005 6.6799009997018668e-002
        -9.4111098402832771e-001 -3.1922417494766558e-001
        -8.8395890194041746e-002 5.4594275712927616e-004
        1.1381991901173810e-002 5.0292872625548113e-004
        3.4135961893615448e-003 3.2118452681360132e-001
        -8.0854861247358600e-001 -4.8759750437097343e-001
        4.1690055501908355e-003 7.2824694504979567e-002
        2.4177174763772885e-003 7.3194476916935858e-003
        -8.5084361405938613e-002 4.9385903284673277e-001
        -8.5435769998681299e-001 7.8794968995980798e-003
        1.3710052402344891e-001 4.9611611211253593e-003
        1.4323025196865273e-004 -8.9449523830542436e-004
        -5.1589277290536809e-003 1.5439704344450458e-001
        -1.3835550261404711e-002 9.8409318247061273e-001
        -8.6621611434276324e-002 -4.6102712552406280e-005
        -5.2587592635690728e-005 -8.8430964710609614e-004
        2.1830585134059305e-002 5.4681904210342747e-001
        7.7611858164658362e-002 8.3335945025154423e-001
        -5.1159228554247210e-006 -1.5960745257413307e-004
        8.0664181575291680e-005 -1.1793022882371903e-003
        8.3708884932813044e-001 -3.6094664242120912e-002
        -5.4587362162175102e-001</data></_>
    <_ type_id="opencv-matrix">
      <rows>7</rows>
      <cols>7</cols>
      <dt>d</dt>
      <data>
        -9.9858994504079879e-001 -5.0516881062730674e-002
        -1.6289542990133517e-002 -9.0394435111000051e-004
        -2.8583480947982502e-006 -7.3605593627992714e-006
        1.5946347853675651e-006 5.2354343745892463e-002
        -9.8797473663253732e-001 -1.4547176226931391e-001
        -1.5997202734938133e-003 -5.1073225224095142e-005
        -5.8741477518845008e-004 -4.5601752203972279e-005
        8.7429539191208137e-003 1.4386564362776599e-001
        -9.7180451721640138e-001 -1.8572371843353438e-001
        -2.5575705410501573e-004 -1.8134198266136266e-002
        -5.9253087688277859e-005 -8.3050284025842729e-004
        -2.5623964103378850e-002 1.8478681779923486e-001
        -9.7992167277259878e-001 -1.2911796149304136e-003
        -7.0330660569314210e-002 1.4145550289938241e-003
        1.2387322763310687e-004 2.2690051010961334e-004
        -4.7254063221068756e-003 -7.2465314780069137e-002
        -6.3417866883345511e-003 9.9733578380739107e-001
        2.7382365484130353e-003 4.6678661602265380e-006
        1.1339726777039627e-005 -2.8865089417160443e-004
        1.9895265960039568e-003 -2.6689397491753492e-001
        -4.1998481092170312e-003 9.6371464954247965e-001
        -3.1282778248059648e-006 4.4026457089753026e-005
        1.2912247740438291e-004 1.2881611614609916e-003
        -9.6370413131894639e-001 -5.3008999225462377e-003
        -2.6691678433343108e-001</data></_>
    <_ type_id="opencv-matrix">
      <rows>7</rows>
      <cols>7</cols>
      <dt>d</dt>
      <data>
        -9.2061438242165172e-001 -3.9039942118832194e-001
        -6.2847677670372195e-003 -3.9162129794839485e-003
        -7.8405390828035851e-006 -1.6173174637336828e-003
        -2.6429459162450583e-006 3.8705166114434836e-001
        -9.1490871503017224e-001 9.8436867132302347e-002
        5.8536499209152271e-002 2.8297924801142289e-005
        4.0884450896928682e-003 5.7209982958229690e-006
        4.9737311387464338e-002 -9.9387748544987595e-002
        -9.4525274175330243e-001 -2.9785151912152691e-001
        2.6955681464133617e-004 7.3687926597878567e-002
        1.3737829609534172e-004 -1.2466055585124947e-002
        2.4211395257112321e-002 -2.9500360594785879e-001
        9.5013355425082879e-001 2.4280318407658976e-003
        9.7320903800406866e-002 5.0369351087473926e-004
        5.5648635809800529e-003 -8.1374707209414289e-003
        -9.8691332933536061e-002 7.1302324415503909e-002
        -1.1806390427749238e-003 -9.9251053968747993e-001
        4.9789663357547101e-004 5.7535390234625154e-006
        -1.9350148379498402e-005 8.2935550110861320e-004
        -2.1099643885829117e-003 9.9799690138543418e-001
        -1.4527301591750470e-003 -6.3205491947742262e-002
        7.6235282553772774e-006 -8.5065779735284423e-006
        -3.8018702065140684e-004 6.0808153051613320e-004
        -6.3204604696013009e-002 -3.4386407234305048e-004
        -9.9800027317978324e-001</data></_>
    <_ type_id="opencv-matrix">
      <rows>7</rows>
      <cols>7</cols>
      <dt>d</dt>
      <data>
        -9.8748996831182534e-001 -1.3818546682460331e-001
        -7.4147877973427589e-002 -1.6185423123685372e-002
        -1.1857196425164552e-004 -2.9051261782606528e-003
        -9.8462680991624900e-005 1.4696535266757538e-001
        -9.8078193128829649e-001 -1.1901861629129484e-001
        -4.7962163654245674e-002 1.3026931165265650e-004
        1.4669209776242836e-003 -1.3921262324653814e-004
        5.6381094815031556e-002 1.3690197701432921e-001
        -9.3485572820762930e-001 -3.0967639915838452e-001
        -3.7167815333276617e-003 -9.0586250136206845e-002
        -2.1524172458192137e-003 -8.6618047150810572e-003
        -1.7498225253658947e-003 3.0949604799333641e-001
        -7.7564372097884338e-001 -1.9998688304436987e-002
        -5.4964595572114849e-001 5.4906128510073815e-004
        3.3001740022497029e-003 -1.5044105322307277e-002
        -1.0290484421662796e-001 5.4764003070594591e-001
        -3.3274345348566284e-002 -8.2954769814054907e-001
        2.6847724463975381e-003 -2.9439189651695550e-005
        -1.6869025331439977e-004 1.6004532550038684e-003
        -4.4892613205885045e-004 -8.5492891081131261e-001
        3.2124811914526104e-002 -5.1774681226452490e-001
        -2.9499675314397142e-005 -1.1517904550136653e-004
        1.2870385240313807e-003 2.2812452782918109e-003
        5.1727708471605183e-001 -2.2169257983798776e-002
        -8.5552677745555394e-001</data></_>
    <_ type_id="opencv-matrix">
      <rows>7</rows>
      <cols>7</cols>
      <dt>d</dt>
      <data>
        -9.7263215893347110e-001 2.2180016920128809e-001
        -6.8849724052010577e-002 -7.0945225888376625e-003
        1.1808299809277857e-005 8.6684584183305724e-004
        6.0616842669362249e-006 2.2468973383805099e-001
        8.4944893668571975e-001 -4.3523264312350296e-001
        4.5716661055888314e-004 -6.6270627181827958e-007
        1.9627369877073667e-001 -3.4749887051391097e-007
        5.6254890646461386e-002 4.7040799706117198e-001
        7.1611050056022840e-001 -1.7874242379747642e-002
        3.1269928367466345e-005 -5.1226747387875182e-001
        1.5939116414459179e-005 -1.8330309961332555e-002
        8.7710437548734074e-002 5.2199430522307810e-001
        2.8692654924386968e-001 -5.0142469505183498e-004
        7.9822657357624660e-001 -2.5562748876960766e-004
        -7.7066908507384660e-004 -1.6259900113051232e-002
        -1.4331768264853997e-001 9.5775742126522811e-001
        -1.6737130660201289e-003 -2.4878154310910730e-001
        -8.5326545154394424e-004 -6.3455700546256895e-007
        -8.6990283683016645e-019 -3.7242979899587518e-018
        1.8446473725315638e-003 9.9225575195292659e-001
        -4.6798528976769466e-018 1.2419790655240784e-001
        1.8875201812915760e-007 -1.7088889710855509e-019
        -9.8809040275174304e-019 -6.6695856877271929e-004
        1.2419931101458062e-001 -1.5107550193461836e-018
        -9.9225706664640867e-001</data></_>
    <_ type_id="opencv-matrix">
      <rows>7</rows>
      <cols>7</cols>
      <dt>d</dt>
      <data>
        -7.7279620212399225e-001 -6.3244951798696614e-001
        -5.2264266980395158e-002 -7.8684346577988437e-003
        -2.7577888430815066e-006 4.1388824355227015e-004
        1.6561639710865763e-006 6.3320525628901736e-001
        -7.7361234563960080e-001 2.2972127471918985e-003
        -2.3867965571644389e-002 -7.6153461511161129e-006
        2.9164535266263043e-004 -1.2023856079944477e-007
        3.8452979610813981e-002 3.6082688783252978e-002
        -9.6868901196170409e-001 -2.4261284108331801e-001
        -1.1841080318890501e-004 -2.1920470013281428e-005
        2.9558997929610238e-005 1.8933652911534898e-002
        -1.5144208075112124e-002 -2.4270301086279397e-001
        9.6979761666905928e-001 -2.9832379874789419e-005
        5.0540315817001400e-006 7.4051489611316845e-006
        1.3592712623960871e-004 4.8825141690079349e-004
        9.5410096903446696e-007 -1.9414540543072624e-009
        3.0705201236801610e-008 9.9999987156672132e-001
        -2.5319411908522477e-011 5.8017988170309238e-006
        -2.8598040778399725e-006 -1.1171002149885371e-004
        -9.3089562708992353e-011 7.4967800165005649e-001
        -2.2321509198560178e-008 -6.6180275106787567e-001
        5.2273392355505308e-006 -2.5245866977114220e-006
        -5.7908110081038748e-005 -4.5153729036477135e-012
        6.6180274921254900e-001 -1.9724461791151467e-008
        7.4967800937980256e-001</data></_>
    <_ type_id="opencv-matrix">
      <rows>7</rows>
      <cols>7</cols>
      <dt>d</dt>
      <data>
        -5.4220105517779271e-001 -8.2940752751804558e-001
        -6.8210413652016216e-002 -9.5932204801502330e-002
        -6.7169776857326112e-003 -6.4807574551137406e-002
        6.1733572893888614e-004 -6.2738865873696328e-002
        -9.5971940900273001e-002 -7.9043958701754402e-003
        8.8899947271349844e-001 5.5656380350173514e-002
        4.3974201702059551e-001 7.1433474269416659e-005
        9.0757657734923409e-003 1.3883241979410883e-002
        -1.7503801738268029e-002 4.3760749804907662e-001
        9.9714729059204241e-002 -8.9329455017045678e-001
        -9.3867695557980442e-006 -3.6999477606694822e-002
        -5.6598276503105116e-002 9.8972134371247145e-001
        1.9855029806958691e-002 -1.2199548297298679e-001
        -2.4540045973449342e-002 4.0284782441062743e-005
        -5.6477755680741674e-003 -8.6394290921421504e-003
        1.2421788383001524e-001 -9.2641100535146140e-002
        9.8591467016711698e-001 6.2044786352231637e-002
        1.9272675722288579e-003 3.5166294283662500e-004
        5.3794047273046381e-004 -2.3676323430111483e-004
