<?xml version="1.0"?>
<opencv_storage>
<my_nb type_id="opencv-ml-bayesian">
  <var_count>7</var_count>
  <var_all>7</var_all>
  <cls_labels type_id="opencv-matrix">
    <rows>1</rows>
    <cols>29</cols>
    <dt>i</dt>
    <data>
      49 50 51 52 53 54 55 56 57 97 98 99 100 101 102 103 104 106 107
      108 109 110 112 113 114 115 116 120 121</data></cls_labels>
  <count>
    <_ type_id="opencv-matrix">
      <rows>1</rows>
      <cols>7</cols>
      <dt>i</dt>
      <data>
        12 12 12 12 12 12 12</data></_>
    <_ type_id="opencv-matrix">
      <rows>1</rows>
      <cols>7</cols>
      <dt>i</dt>
      <data>
        11 11 11 11 11 11 11</data></_>
    <_ type_id="opencv-matrix">
      <rows>1</rows>
      <cols>7</cols>
      <dt>i</dt>
      <data>
        10 10 10 10 10 10 10</data></_>
    <_ type_id="opencv-matrix">
      <rows>1</rows>
      <cols>7</cols>
      <dt>i</dt>
      <data>
        9 9 9 9 9 9 9</data></_>
    <_ type_id="opencv-matrix">
      <rows>1</rows>
      <cols>7</cols>
      <dt>i</dt>
      <data>
        8 8 8 8 8 8 8</data></_>
    <_ type_id="opencv-matrix">
      <rows>1</rows>
      <cols>7</cols>
      <dt>i</dt>
      <data>
        14 14 14 14 14 14 14</data></_>
    <_ type_id="opencv-matrix">
      <rows>1</rows>
      <cols>7</cols>
      <dt>i</dt>
      <data>
        11 11 11 11 11 11 11</data></_>
    <_ type_id="opencv-matrix">
      <rows>1</rows>
      <cols>7</cols>
      <dt>i</dt>
      <data>
        13 13 13 13 13 13 13</data></_>
    <_ type_id="opencv-matrix">
      <rows>1</rows>
      <cols>7</cols>
      <dt>i</dt>
      <data>
        13 13 13 13 13 13 13</data></_>
    <_ type_id="opencv-matrix">
      <rows>1</rows>
      <cols>7</cols>
      <dt>i</dt>
      <data>
        2 2 2 2 2 2 2</data></_>
    <_ type_id="opencv-matrix">
      <rows>1</rows>
      <cols>7</cols>
      <dt>i</dt>
      <data>
        2 2 2 2 2 2 2</data></_>
    <_ type_id="opencv-matrix">
      <rows>1</rows>
      <cols>7</cols>
      <dt>i</dt>
      <data>
        4 4 4 4 4 4 4</data></_>
    <_ type_id="opencv-matrix">
      <rows>1</rows>
      <cols>7</cols>
      <dt>i</dt>
      <data>
        4 4 4 4 4 4 4</data></_>
    <_ type_id="opencv-matrix">
      <rows>1</rows>
      <cols>7</cols>
      <dt>i</dt>
      <data>
        1 1 1 1 1 1 1</data></_>
    <_ type_id="opencv-matrix">
      <rows>1</rows>
      <cols>7</cols>
      <dt>i</dt>
      <data>
        5 5 5 5 5 5 5</data></_>
    <_ type_id="opencv-matrix">
      <rows>1</rows>
      <cols>7</cols>
      <dt>i</dt>
      <data>
        2 2 2 2 2 2 2</data></_>
    <_ type_id="opencv-matrix">
      <rows>1</rows>
      <cols>7</cols>
      <dt>i</dt>
      <data>
        2 2 2 2 2 2 2</data></_>
    <_ type_id="opencv-matrix">
      <rows>1</rows>
      <cols>7</cols>
      <dt>i</dt>
      <data>
        2 2 2 2 2 2 2</data></_>
    <_ type_id="opencv-matrix">
      <rows>1</rows>
      <cols>7</cols>
      <dt>i</dt>
      <data>
        1 1 1 1 1 1 1</data></_>
    <_ type_id="opencv-matrix">
      <rows>1</rows>
      <cols>7</cols>
      <dt>i</dt>
      <data>
        1 1 1 1 1 1 1</data></_>
    <_ type_id="opencv-matrix">
      <rows>1</rows>
      <cols>7</cols>
      <dt>i</dt>
      <data>
        3 3 3 3 3 3 3</data></_>
    <_ type_id="opencv-matrix">
      <rows>1</rows>
      <cols>7</cols>
      <dt>i</dt>
      <data>
        5 5 5 5 5 5 5</data></_>
    <_ type_id="opencv-matrix">
      <rows>1</rows>
      <cols>7</cols>
      <dt>i</dt>
      <data>
        6 6 6 6 6 6 6</data></_>
    <_ type_id="opencv-matrix">
      <rows>1</rows>
      <cols>7</cols>
      <dt>i</dt>
      <data>
        1 1 1 1 1 1 1</data></_>
    <_ type_id="opencv-matrix">
      <rows>1</rows>
      <cols>7</cols>
      <dt>i</dt>
      <data>
        1 1 1 1 1 1 1</data></_>
    <_ type_id="opencv-matrix">
      <rows>1</rows>
      <cols>7</cols>
      <dt>i</dt>
      <data>
        3 3 3 3 3 3 3</data></_>
    <_ type_id="opencv-matrix">
      <rows>1</rows>
      <cols>7</cols>
      <dt>i</dt>
      <data>
        1 1 1 1 1 1 1</data></_>
    <_ type_id="opencv-matrix">
      <rows>1</rows>
      <cols>7</cols>
      <dt>i</dt>
      <data>
        2 2 2 2 2 2 2</data></_>
    <_ type_id="opencv-matrix">
      <rows>1</rows>
      <cols>7</cols>
      <dt>i</dt>
      <data>
        1 1 1 1 1 1 1</data></_></count>
  <sum>
    <_ type_id="opencv-matrix">
      <rows>1</rows>
      <cols>7</cols>
      <dt>d</dt>
      <data>
        4.7331306040287018e+000 1.3101204447448254e+000
        2.0068803592585027e-001 8.9079480356303975e-002
        3.5682637412435270e-003 3.2438846617878880e-002
        -2.6509828228427068e-004</data></_>
    <_ type_id="opencv-matrix">
      <rows>1</rows>
      <cols>7</cols>
      <dt>d</dt>
      <data>
        4.1560055017471313e+000 4.9952299520373344e-001
        3.2268185575958341e-002 1.5654094378987793e-002
        1.2621957354674862e-004 2.4952985422714846e-003
        8.1749295235411523e-006</data></_>
    <_ type_id="opencv-matrix">
      <rows>1</rows>
      <cols>7</cols>
      <dt>d</dt>
      <data>
        4.1117610633373260e+000 5.8279592264443636e-001
        4.6187601808924228e-002 1.6481933271279559e-002
        4.5504356407377600e-006 -1.2890736165900307e-003
        -4.5619331736190816e-005</data></_>
    <_ type_id="opencv-matrix">
      <rows>1</rows>
      <cols>7</cols>
      <dt>d</dt>
      <data>
        2.5947916954755783e+000 1.4199457969516516e-001
        8.7095944443717599e-002 2.5588037860870827e-003
        4.7586465576898718e-006 2.6620296671353572e-004
        6.1832149489404742e-007</data></_>
    <_ type_id="opencv-matrix">
      <rows>1</rows>
      <cols>7</cols>
      <dt>d</dt>
      <data>
        2.6499231159687042e+000 1.9771668408066034e-001
        5.3867963288212195e-003 1.3813855621265247e-003
        1.3132266163395911e-007 7.0028653453846346e-005
        1.3617595051584885e-008</data></_>
    <_ type_id="opencv-matrix">
      <rows>1</rows>
      <cols>7</cols>
      <dt>d</dt>
      <data>
        4.6744981110095978e+000 3.4760942496359348e-001
        4.4490912579931319e-002 1.3031568196311127e-002
        1.5903151781981872e-004 3.0143229091663670e-003
        -6.1486944002986377e-006</data></_>
    <_ type_id="opencv-matrix">
      <rows>1</rows>
      <cols>7</cols>
      <dt>d</dt>
      <data>
        5.5796394348144531e+000 1.4005922004580498e+000
        8.7123478157445788e-001 2.1589169773506001e-001
        1.4777328667946676e-002 8.2743101491359994e-002
        -4.1376228515446201e-003</data></_>
    <_ type_id="opencv-matrix">
      <rows>1</rows>
      <cols>7</cols>
      <dt>d</dt>
      <data>
        3.9590739756822586e+000 2.8596410714089870e-001
        3.8268945799700305e-002 3.5373802184039960e-003
        -2.2537677960057225e-006 -4.4569255124571328e-004
        -8.2691019716724101e-006</data></_>
    <_ type_id="opencv-matrix">
      <rows>1</rows>
      <cols>7</cols>
      <dt>d</dt>
      <data>
        4.2204118818044662e+000 2.8554143384099007e-001
        2.3898839674075134e-002 8.3905843603133690e-003
        -2.1391302521434064e-005 -4.6523142287924202e-004
        -6.5950690768586812e-006</data></_>
    <_ type_id="opencv-matrix">
      <rows>1</rows>
      <cols>7</cols>
      <dt>d</dt>
      <data>
        6.9516873359680176e-001 3.0026156455278397e-002
        4.4660708401352167e-002 2.1360967512009665e-003
        1.4544510939629163e-005 1.1101538075308781e-004
        9.7789633173306356e-006</data></_>
    <_ type_id="opencv-matrix">
      <rows>1</rows>
      <cols>7</cols>
      <dt>d</dt>
      <data>
        6.2144589424133301e-001 2.1881301887333393e-002
        1.8328488804399967e-003 1.0495602873561438e-004
        -3.5909011320001127e-009 5.4054061706665379e-006
        -1.6890475018627171e-008</data></_>
    <_ type_id="opencv-matrix">
      <rows>1</rows>
      <cols>7</cols>
      <dt>d</dt>
      <data>
        1.5755568146705627e+000 5.3543082438409328e-002
        1.3004875916521996e-002 5.2209511050023139e-003
        -1.3568390457407986e-005 -6.3337609935842920e-004
        -2.3071069250590940e-006</data></_>
    <_ type_id="opencv-matrix">
      <rows>1</rows>
      <cols>7</cols>
      <dt>d</dt>
      <data>
        1.4707768261432648e+000 3.8171882741153240e-002
        1.0820670984685421e-002 1.5150295075727627e-003
        1.6321607674285588e-006 5.3559094340016600e-005
        6.4786186726450978e-007</data></_>
    <_ type_id="opencv-matrix">
      <rows>1</rows>
      <cols>7</cols>
      <dt>d</dt>
      <data>
        5.9437602758407593e-001 1.5157607197761536e-001
        2.5024490896612406e-003 1.5118988230824471e-003
        2.7899723136215471e-006 5.7070836191996932e-004
        9.2973579057797906e-007</data></_>
    <_ type_id="opencv-matrix">
      <rows>1</rows>
      <cols>7</cols>
      <dt>d</dt>
      <data>
        1.7304698526859283e+000 1.4772266522049904e-001
        4.6314407372847199e-002 6.4433370571350679e-003
        2.6443438824408361e-005 6.9474726024054689e-004
        2.8621726329447483e-005</data></_>
    <_ type_id="opencv-matrix">
      <rows>1</rows>
      <cols>7</cols>
      <dt>d</dt>
      <data>
        5.5481564998626709e-001 3.6852470948360860e-003
        9.5614987367298454e-004 4.7958899813238531e-004
        -6.9069516328568170e-008 -7.3720280155953333e-006
        -1.2677217497980564e-007</data></_>
    <_ type_id="opencv-matrix">
      <rows>1</rows>
      <cols>7</cols>
      <dt>d</dt>
      <data>
        8.7986558675765991e-001 1.9780026283115149e-002
        1.0536684421822429e-003 1.5863077715039253e-004
        5.5598121662114863e-008 -8.3441518654581159e-006
        -3.3388925402277891e-008</data></_>
    <_ type_id="opencv-matrix">
      <rows>1</rows>
      <cols>7</cols>
      <dt>d</dt>
      <data>
        9.7791796922683716e-001 2.2660579532384872e-001
        1.1955013498663902e-001 4.2809881269931793e-002
        1.3589784211944789e-003 1.0788751766085625e-002
        7.0094034890644252e-004</data></_>
    <_ type_id="opencv-matrix">
      <rows>1</rows>
      <cols>7</cols>
      <dt>d</dt>
      <data>
        2.6917853951454163e-001 1.8128568772226572e-003
        7.1377801941707730e-004 7.5168506009504199e-004
        -1.8166375070904905e-007 -2.4881850549718365e-005
        5.1976689974253532e-007</data></_>
    <_ type_id="opencv-matrix">
      <rows>1</rows>
      <cols>7</cols>
      <dt>d</dt>
      <data>
        2.2222222387790680e-001 2.5195263326168060e-002 0. 0. 0. 0. 0.</data></_>
    <_ type_id="opencv-matrix">
      <rows>1</rows>
      <cols>7</cols>
      <dt>d</dt>
      <data>
        7.2398954629898071e-001 1.6063876450061798e-002
        1.9553457332222024e-004 1.3827941256749909e-004
        1.2689579276248253e-008 1.0210898494733556e-005
        -7.7392134367748611e-010</data></_>
    <_ type_id="opencv-matrix">
      <rows>1</rows>
      <cols>7</cols>
      <dt>d</dt>
      <data>
        1.9174244999885559e+000 1.9425192906055599e-002
        5.0704730820143595e-003 3.1051543410285376e-003
        2.5720247291971532e-006 7.7716126270388486e-005
        -1.5290536966583446e-006</data></_>
    <_ type_id="opencv-matrix">
      <rows>1</rows>
      <cols>7</cols>
      <dt>d</dt>
      <data>
        1.9117550253868103e+000 1.3194539537653327e-001
        6.0197220183908939e-002 5.5596111269551329e-003
        1.6638112601441435e-005 3.4566835211080615e-004
        2.2390157218943330e-005</data></_>
    <_ type_id="opencv-matrix">
      <rows>1</rows>
      <cols>7</cols>
      <dt>d</dt>
      <data>
        4.8105013370513916e-001 4.3189143761992455e-003
        1.3330101501196623e-003 1.8440403800923377e-004
        -2.7104171351766126e-008 -5.1775487008853815e-006
        -8.7316550434479723e-008</data></_>
    <_ type_id="opencv-matrix">
      <rows>1</rows>
      <cols>7</cols>
      <dt>d</dt>
      <data>
        4.1444382071495056e-001 6.8136923946440220e-003
        1.2926172930747271e-003 1.3822891050949693e-003
        -7.3599790084699634e-007 1.0734594252426177e-004
        -1.6947954009083332e-006</data></_>
    <_ type_id="opencv-matrix">
      <rows>1</rows>
      <cols>7</cols>
      <dt>d</dt>
      <data>
        1.1182588934898376e+000 5.5833145044744015e-002
        8.2724302592396270e-004 7.0868711918592453e-004
        1.0962398011571395e-007 7.7107234574214090e-005
        3.0247542248673653e-008</data></_>
    <_ type_id="opencv-matrix">
      <rows>1</rows>
      <cols>7</cols>
      <dt>d</dt>
      <data>
        3.4722220897674561e-001 3.4449610859155655e-002
        3.3405683934688568e-002 3.7117423489689827e-003
        4.1331095417262986e-005 6.8892189301550388e-004 0.</data></_>
    <_ type_id="opencv-matrix">
      <rows>1</rows>
      <cols>7</cols>
      <dt>d</dt>
      <data>
        6.8289974331855774e-001 4.1629830375313759e-002
        4.8865175631362945e-004 3.0772468562645372e-005
        2.2676031469215374e-009 1.6684048205206636e-006
        -8.2087261987773275e-010</data></_>
    <_ type_id="opencv-matrix">
      <rows>1</rows>
      <cols>7</cols>
      <dt>d</dt>
      <data>
        5.0132530927658081e-001 5.5454071611166000e-002
        8.7160289287567139e-002 3.6684786900877953e-003
        -5.7168232160620391e-005 8.6217984789982438e-004
        3.2169024052564055e-005</data></_></sum>
  <productsum>
    <_ type_id="opencv-matrix">
      <rows>7</rows>
      <cols>7</cols>
      <dt>d</dt>
      <data>
        1.9606893552795155e+000 5.8678579211872461e-001
        8.9526848893447475e-002 4.0987720320746136e-002
        1.6262548230449826e-003 1.5251915578764241e-002
        -1.2042820002817632e-004 5.8678579211872461e-001
        2.0099921689213746e-001 2.6096899593178523e-002
        1.2441101664640457e-002 4.3688505914040734e-004
        4.9093168925373916e-003 -3.2521021262828415e-005
        8.9526848893447475e-002 2.6096899593178523e-002
        9.5305334324054646e-003 4.9297555798842813e-003
        2.8217731501041038e-004 1.7010695695897980e-003
        -1.8331543794655174e-005 4.0987720320746136e-002
        1.2441101664640457e-002 4.9297555798842813e-003
        2.6144970551004228e-003 1.5347609047271818e-004
        9.0398239878008470e-004 -9.7492296513159550e-006
        1.6262548230449826e-003 4.3688505914040734e-004
        2.8217731501041038e-004 1.5347609047271818e-004
        9.7423672026410823e-006 5.1775357453773380e-005
        -6.0004314540995049e-007 1.5251915578764241e-002
        4.9093168925373916e-003 1.7010695695897980e-003
        9.0398239878008470e-004 5.1775357453773380e-005
        3.1693283268053869e-004 -3.2942682549386266e-006
        -1.2042820002817632e-004 -3.2521021262828415e-005
        -1.8331543794655174e-005 -9.7492296513159550e-006
        -6.0004314540995049e-007 -3.2942682549386266e-006
        3.8005947861380179e-008</data></_>
    <_ type_id="opencv-matrix">
      <rows>7</rows>
      <cols>7</cols>
      <dt>d</dt>
      <data>
        1.6090819691166569e+000 1.9618897565576454e-001
        1.4100375297702444e-002 7.1462643848219506e-003
        6.2242875065036089e-005 1.2106863194080010e-003
        3.9154148808254603e-006 1.9618897565576454e-001
        2.5138972215270963e-002 1.5798880936708794e-003
        7.9521462432331508e-004 6.4143536331449356e-006
        1.2716367758649173e-004 3.3849226413510992e-007
        1.4100375297702444e-002 1.5798880936708794e-003
        2.7160774930122647e-004 1.6313330259419307e-004
        1.8719214809267140e-006 3.4357586814386650e-005
        1.3573122815760373e-007 7.1462643848219506e-003
        7.9521462432331508e-004 1.6313330259419307e-004
        1.0365512554799506e-004 1.2213083107124249e-006
        2.2376795081119449e-005 9.1183198391269857e-008
        6.2242875065036089e-005 6.4143536331449356e-006
        1.8719214809267140e-006 1.2213083107124249e-006
        1.4949699322332497e-008 2.7076933536979315e-007
        1.1438052875895412e-009 1.2106863194080010e-003
        1.2716367758649173e-004 3.4357586814386650e-005
        2.2376795081119449e-005 2.7076933536979315e-007
        4.9544158457924825e-006 2.0573618237470812e-008
        3.9154148808254603e-006 3.3849226413510992e-007
        1.3573122815760373e-007 9.1183198391269857e-008
        1.1438052875895412e-009 2.0573618237470812e-008
        9.3510077363168033e-011</data></_>
    <_ type_id="opencv-matrix">
      <rows>7</rows>
      <cols>7</cols>
      <dt>d</dt>
      <data>
        1.7145467813383943e+000 2.5085997695102857e-001
        2.0091098608876229e-002 7.1339882573883970e-003
        2.2794675521200440e-006 -5.5606065086302801e-004
        -2.0475753913520249e-005 2.5085997695102857e-001
        3.9569415672198738e-002 3.2716155835338947e-003
        1.1278650824854942e-003 4.1231626315232021e-007
        -8.8877960046498025e-005 -3.4561353066985034e-006
        2.0091098608876229e-002 3.2716155835338947e-003
        2.9381397817704606e-004 9.4698158525377904e-005
        3.0729852510368042e-009 -9.1965387620739517e-006
        -3.0105370734454580e-007 7.1339882573883970e-003
        1.1278650824854942e-003 9.4698158525377904e-005
        3.4983856989491429e-005 1.9318932484170896e-008
        -2.3318873798733085e-006 -1.1312001730945553e-007
        2.2794675521200440e-006 4.1231626315232021e-007
        3.0729852510368042e-009 1.9318932484170896e-008
        1.1078188537602607e-010 3.8207849275144690e-009
        -9.1519144632028189e-011 -5.5606065086302801e-004
        -8.8877960046498025e-005 -9.1965387620739517e-006
        -2.3318873798733085e-006 3.8207849275144690e-009
        4.5584167825617647e-007 7.0136022421229077e-009
        -2.0475753913520249e-005 -3.4561353066985034e-006
        -3.0105370734454580e-007 -1.1312001730945553e-007
        -9.1519144632028189e-011 7.0136022421229077e-009
        4.4644587630931216e-010</data></_>
    <_ type_id="opencv-matrix">
      <rows>7</rows>
      <cols>7</cols>
      <dt>d</dt>
      <data>
        7.6521397024933369e-001 4.2868857982741523e-002
        2.6940373884185510e-002 7.6592546284581103e-004
        1.4897559475640389e-006 8.1632468172284110e-005
        1.7785564357834121e-007 4.2868857982741523e-002
        2.5076581591717282e-003 1.5885320946840973e-003
        4.4847094835180080e-005 9.3037120864865770e-008
        5.0216815415651137e-006 1.1241427681939344e-008
        2.6940373884185510e-002 1.5885320946840973e-003
        1.0663958090373457e-003 2.8760424768256639e-005
        6.2429422418956172e-008 3.2435271374932747e-006
        8.5315029956190566e-009 7.6592546284581103e-004
        4.4847094835180080e-005 2.8760424768256639e-005
        1.0078106705661088e-006 2.1870491692732028e-009
        1.1314993051450872e-007 3.5217472532482193e-010
        1.4897559475640389e-006 9.3037120864865770e-008
        6.2429422418956172e-008 2.1870491692732028e-009
        5.1933301232055804e-012 2.5932290501610351e-010
        8.0402391551207236e-013 8.1632468172284110e-005
        5.0216815415651137e-006 3.2435271374932747e-006
        1.1314993051450872e-007 2.5932290501610351e-010
        1.3307937166423553e-008 4.1790056872144883e-011
        1.7785564357834121e-007 1.1241427681939344e-008
        8.5315029956190566e-009 3.5217472532482193e-010
        8.0402391551207236e-013 4.1790056872144883e-011
        7.9033992957517575e-013</data></_>
    <_ type_id="opencv-matrix">
      <rows>7</rows>
      <cols>7</cols>
      <dt>d</dt>
      <data>
        8.8548277829895294e-001 6.7409382499467013e-002
        1.7611183302941942e-003 4.6298419403999853e-004
        4.7564884207760353e-008 2.5881402485397453e-005
        8.6831931535704195e-009 6.7409382499467013e-002
        5.4956137819728102e-003 1.4114042199598191e-004
        3.5058481605777477e-005 3.8919121827821060e-009
        2.1324201956163704e-006 6.3934585752240468e-010
        1.7611183302941942e-003 1.4114042199598191e-004
        6.3514439739733535e-006 7.5893149984889353e-007
        -1.9818247712693509e-013 -1.5037030387160636e-008
        -1.0976324380245849e-010 4.6298419403999853e-004
        3.5058481605777477e-005 7.5893149984889353e-007
        3.0009351454998662e-007 3.7910445725602652e-011
        2.1319238830002162e-008 8.0141732682164722e-012
        4.7564884207760353e-008 3.8919121827821060e-009
        -1.9818247712693509e-013 3.7910445725602652e-011
        1.0874155811895787e-014 6.9627658814437813e-012
        5.9941527684202588e-015 2.5881402485397453e-005
        2.1324201956163704e-006 -1.5037030387160636e-008
        2.1319238830002162e-008 6.9627658814437813e-012
        4.7046680604383583e-009 4.5171467793843846e-012
        8.6831931535704195e-009 6.3934585752240468e-010
        -1.0976324380245849e-010 8.0141732682164722e-012
        5.9941527684202588e-015 4.5171467793843846e-012
        1.7398301346219001e-014</data></_>
    <_ type_id="opencv-matrix">
      <rows>7</rows>
      <cols>7</cols>
      <dt>d</dt>
      <data>
        1.6023782926147812e+000 1.2900281991545426e-001
        1.8516224592812901e-002 5.4899220573092567e-003
        7.0134039338111493e-005 1.3434306144812066e-003
        -2.7294991859528356e-006 1.2900281991545426e-001
        1.8194618949409359e-002 4.0539679376075874e-003
        1.1418842138397338e-003 1.8283679995048328e-005
        3.5744278222291646e-004 -6.4724508084244295e-007
        1.8516224592812901e-002 4.0539679376075874e-003
        1.0873207746893993e-003 3.0237472921832131e-004
        5.0931440965176992e-006 9.9824757118237962e-005
        -1.7734733406765779e-007 5.4899220573092567e-003
        1.1418842138397338e-003 3.0237472921832131e-004
        8.5315146150573244e-005 1.4082241137522828e-006
        2.7599298270622219e-005 -4.9993614455889974e-008
        7.0134039338111493e-005 1.8283679995048328e-005
        5.0931440965176992e-006 1.4082241137522828e-006
        2.4100536651868578e-008 4.7287402521595609e-007
        -8.3222139709379747e-010 1.3434306144812066e-003
        3.5744278222291646e-004 9.9824757118237962e-005
        2.7599298270622219e-005 4.7287402521595609e-007
        9.2815479747649459e-006 -1.6325265974238963e-008
        -2.7294991859528356e-006 -6.4724508084244295e-007
        -1.7734733406765779e-007 -4.9993614455889974e-008
        -8.3222139709379747e-010 -1.6325265974238963e-008
        2.9541624334545621e-011</data></_>
    <_ type_id="opencv-matrix">
      <rows>7</rows>
      <cols>7</cols>
      <dt>d</dt>
      <data>
        2.9316491015043713e+000 7.5580352719070043e-001
        4.9655052395635868e-001 1.2500354629132937e-001
        8.7839103544034153e-003 4.8602568360549638e-002
        -2.4771189220824268e-003 7.5580352719070043e-001
        2.0151197341965105e-001 1.3288537460619429e-001
        3.3938582260455291e-002 2.4432028398025606e-003
        1.3452620112720809e-002 -6.8524702156597583e-004
        4.9655052395635868e-001 1.3288537460619429e-001
        1.0902819300813729e-001 2.9393600729036014e-002
        2.2628760980798663e-003 1.1603467133087082e-002
        -5.9889655532109176e-004 1.2500354629132937e-001
        3.3938582260455291e-002 2.9393600729036014e-002
        8.2627442383168374e-003 6.6701518136625542e-004
        3.2837467290077432e-003 -1.6198967703043556e-004
        8.7839103544034153e-003 2.4432028398025606e-003
        2.2628760980798663e-003 6.6701518136625542e-004
        5.8669759067257723e-005 2.7036632810230229e-004
        -1.2859800591201714e-005 4.8602568360549638e-002
        1.3452620112720809e-002 1.1603467133087082e-002
        3.2837467290077432e-003 2.7036632810230229e-004
        1.3210425392857494e-003 -6.4918515245382768e-005
        -2.4771189220824268e-003 -6.8524702156597583e-004
        -5.9889655532109176e-004 -1.6198967703043556e-004
        -1.2859800591201714e-005 -6.4918515245382768e-005
        3.6573757833514436e-006</data></_>
    <_ type_id="opencv-matrix">
      <rows>7</rows>
      <cols>7</cols>
      <dt>d</dt>
      <data>
        1.2890811434288281e+000 1.1005176420950595e-001
        1.6728448127053919e-002 1.6000071316662084e-003
        -1.2192629452416300e-006 -2.4011345187032840e-004
        -4.4193191347731661e-006 1.1005176420950595e-001
        1.4188173744896237e-002 1.7717773168374374e-003
        2.6578601460739950e-004 -2.6453126250228215e-007
        -5.2335017646275052e-005 -9.5460175177093491e-007
        1.6728448127053919e-002 1.7717773168374374e-003
        8.1549115755207545e-004 2.8690836722435510e-005
        -1.5981538429929104e-008 -2.7648820916924062e-006
        -5.2667659310975401e-008 1.6000071316662084e-003
        2.6578601460739950e-004 2.8690836722435510e-005
        5.5390405331673900e-006 -5.9148926080637247e-009
        -1.1752462698496787e-006 -2.1344966631881033e-008
        -1.2192629452416300e-006 -2.6453126250228215e-007
        -1.5981538429929104e-008 -5.9148926080637247e-009
        7.1168689047444316e-012 1.4141668871557135e-009
        2.5619736763223758e-011 -2.4011345187032840e-004
        -5.2335017646275052e-005 -2.7648820916924062e-006
        -1.1752462698496787e-006 1.4141668871557135e-009
        2.8161980782304168e-007 5.0972299012588197e-009
        -4.4193191347731661e-006 -9.5460175177093491e-007
        -5.2667659310975401e-008 -2.1344966631881033e-008
        2.5619736763223758e-011 5.0972299012588197e-009
        9.2329941380528199e-011</data></_>
    <_ type_id="opencv-matrix">
      <rows>7</rows>
      <cols>7</cols>
      <dt>d</dt>
      <data>
        1.4670631136460053e+000 1.0706526444916062e-001
        1.0507898891844775e-002 3.8642732002110046e-003
        -1.1900853529095113e-005 -2.8768786109388984e-004
        -3.7682027875066191e-006 1.0706526444916062e-001
        1.0631702674963842e-002 9.5306044437878088e-004
        2.7081034261824158e-004 -3.8933003649447028e-007
        -9.9137411170011643e-006 1.1582832295551640e-007
        1.0507898891844775e-002 9.5306044437878088e-004
        1.3847795876598297e-004 5.1484652324761892e-005
        -1.8169638263928893e-007 -4.8562795012627010e-006
        -5.0774229445612042e-008 3.8642732002110046e-003
        2.7081034261824158e-004 5.1484652324761892e-005
        2.3987620874521726e-005 -1.0835241561760975e-007
        -2.8100200927090820e-006 -4.3743283292371531e-008
        -1.1900853529095113e-005 -3.8933003649447028e-007
        -1.8169638263928893e-007 -1.0835241561760975e-007
        6.2306310175225782e-010 1.6329571125436683e-008
        2.9285359158794797e-010 -2.8768786109388984e-004
        -9.9137411170011643e-006 -4.8562795012627010e-006
        -2.8100200927090820e-006 1.6329571125436683e-008
        4.3561841535502957e-007 7.4954578688004883e-009
        -3.7682027875066191e-006 1.1582832295551640e-007
        -5.0774229445612042e-008 -4.3743283292371531e-008
        2.9285359158794797e-010 7.4954578688004883e-009
        1.5504749964114705e-010</data></_>
    <_ type_id="opencv-matrix">
      <rows>7</rows>
      <cols>7</cols>
      <dt>d</dt>
      <data>
        2.5127362156577426e-001 1.0763902189928620e-002
        1.8547985269779896e-002 8.5915944028788294e-004
        6.0692520718436549e-006 4.8884770914193988e-005
        4.0675225781098712e-006 1.0763902189928620e-002
        4.6189181185461031e-004 7.7314024377992448e-004
        3.6029307009981189e-005 2.5276311675678145e-007
        2.0161473671554717e-006 1.6949926180190112e-007
        1.8547985269779896e-002 7.7314024377992448e-004
        1.9459090651628450e-003 8.4296198997454888e-005
        6.4274708284372635e-007 5.7086626741269872e-006
        4.2803351390894644e-007 8.5915944028788294e-004
        3.6029307009981189e-005 8.4296198997454888e-005
        3.6932920293050874e-006 2.7800803641584056e-008
        2.4316511685657397e-007 1.8533015524798949e-008
        6.0692520718436549e-006 2.5276311675678145e-007
        6.4274708284372635e-007 2.7800803641584056e-008
        2.1234780522211243e-010 1.8898621801064827e-009
        1.4139193538236918e-010 4.8884770914193988e-005
        2.0161473671554717e-006 5.7086626741269872e-006
        2.4316511685657397e-007 1.8898621801064827e-009
        1.7157803691631204e-008 1.2566313208964577e-009
        4.0675225781098712e-006 1.6949926180190112e-007
        4.2803351390894644e-007 1.8533015524798949e-008
        1.4139193538236918e-010 1.2566313208964577e-009
        9.4154814301113847e-011</data></_>
    <_ type_id="opencv-matrix">
      <rows>7</rows>
      <cols>7</cols>
      <dt>d</dt>
      <data>
        1.9310088163158134e-001 6.7913420886394349e-003
        5.7065030133422040e-004 3.2516402756677576e-005
        -1.1156359577222609e-009 1.6718406523449460e-006
        -5.2224921498239918e-009 6.7913420886394349e-003
        2.5683867725118190e-004 1.7458782151259593e-005
        1.3659551659255572e-006 -3.9603439249917137e-011
        7.6723737563638188e-008 -2.4330921086313842e-010
        5.7065030133422040e-004 1.7458782151259593e-005
        2.0653629798582081e-006 6.3816993276755783e-008
        -3.2437045984377461e-012 2.3387406617603141e-009
        -6.7774360951319949e-012 3.2516402756677576e-005
        1.3659551659255572e-006 6.3816993276755783e-008
        8.2241217277402947e-009 -1.9239469608273156e-013
        5.0310591814742402e-010 -1.6165942703627404e-012
        -1.1156359577222609e-009 -3.9603439249917137e-011
        -3.2437045984377461e-012 -1.9239469608273156e-013
        6.4530335114339003e-018 -1.0024362223266154e-014
        3.1388264089960071e-017 1.6718406523449460e-006
        7.6723737563638188e-008 2.3387406617603141e-009
        5.0310591814742402e-010 -1.0024362223266154e-014
        3.2337525077213692e-011 -1.0464301206618149e-013
        -5.2224921498239918e-009 -2.4330921086313842e-010
        -6.7774360951319949e-012 -1.6165942703627404e-012
        3.1388264089960071e-017 -1.0464301206618149e-013
        3.3895050476270085e-016</data></_>
    <_ type_id="opencv-matrix">
      <rows>7</rows>
      <cols>7</cols>
      <dt>d</dt>
      <data>
        6.5188543746565308e-001 2.2937805694180496e-002
        5.5508275397539060e-003 2.3478937549467286e-003
        -6.5679902179405463e-006 -2.9586601896621682e-004
        -1.1176662634284843e-006 2.2937805694180496e-002
        8.5456758640168554e-004 2.0557425489846869e-004
        8.7511350225542384e-005 -2.5110695879894234e-007
        -1.1224362488962179e-005 -4.6898943559057641e-008
        5.5508275397539060e-003 2.0557425489846869e-004
        5.1000224859167140e-005 2.1099207339651310e-005
        -6.0144361711796486e-008 -2.6949243101680612e-006
        -1.0896320242292209e-008 2.3478937549467286e-003
        8.7511350225542384e-005 2.1099207339651310e-005
        9.5360294210241851e-006 -2.9061423836357854e-008
        -1.2587874422316342e-006 -5.0025783839098513e-009
        -6.5679902179405463e-006 -2.5110695879894234e-007
        -6.0144361711796486e-008 -2.9061423836357854e-008
        9.4145869707757658e-011 3.9616863608925718e-009
        1.5661543248421747e-011 -2.9586601896621682e-004
        -1.1224362488962179e-005 -2.6949243101680612e-006
        -1.2587874422316342e-006 3.9616863608925718e-009
        1.6905725376093559e-007 6.7605780008550469e-010
        -1.1176662634284843e-006 -4.6898943559057641e-008
        -1.0896320242292209e-008 -5.0025783839098513e-009
        1.5661543248421747e-011 6.7605780008550469e-010
        3.2406405119005777e-012</data></_>
    <_ type_id="opencv-matrix">
      <rows>7</rows>
      <cols>7</cols>
      <dt>d</dt>
      <data>
        5.6128365965205962e-001 1.5879619954793145e-002
        4.5152957985272330e-003 5.9513824844650582e-004
        7.3193610931436415e-007 2.1147761524329821e-005
        2.4082999904004768e-007 1.5879619954793145e-002
        5.4701610867245341e-004 1.5118050287892199e-004
        1.8191075104648089e-005 2.8448330641012707e-008
        6.8389621362801485e-007 6.0023184249173191e-009
        4.5152957985272330e-003 1.5118050287892199e-004
        4.4876274113941190e-005 5.3692538229101208e-006
        8.1647425071431244e-009 2.1657130311003249e-007
        2.0884696273850775e-009 5.9513824844650582e-004
        1.8191075104648089e-005 5.3692538229101208e-006
        7.0126500367150311e-007 9.3986698290360100e-010
        3.0041417956925508e-008 2.8961063336948746e-010
        7.3193610931436415e-007 2.8448330641012707e-008
        8.1647425071431244e-009 9.3986698290360100e-010
        1.6412102094200212e-012 4.0907215707005382e-011
        3.0974583492615542e-013 2.1147761524329821e-005
        6.8389621362801485e-007 2.1657130311003249e-007
        3.0041417956925508e-008 4.0907215707005382e-011
        1.6987503247393805e-009 1.3602498975765817e-011
        2.4082999904004768e-007 6.0023184249173191e-009
        2.0884696273850775e-009 2.8961063336948746e-010
        3.0974583492615542e-013 1.3602498975765817e-011
        1.5874614488706224e-013</data></_>
    <_ type_id="opencv-matrix">
      <rows>7</rows>
      <cols>7</cols>
      <dt>d</dt>
      <data>
        3.5328286216662619e-001 9.0093183538852983e-002
        1.4873957491442352e-003 8.9863641657278448e-004
        1.6582926608399288e-006 3.3921536906700647e-004
        5.5261266590647952e-007 9.0093183538852983e-002
        2.2975305596163231e-002 3.7931140333481023e-004
        2.2916768483041694e-004 4.2289304422505366e-007
        8.6505731744608225e-005 1.4092569911281287e-007
        1.4873957491442352e-003 3.7931140333481023e-004
        6.2622514463463717e-006 3.7834498334825706e-006
        6.9817636764023057e-009 1.4281686207486850e-006
        2.3266164827573375e-009 8.9863641657278448e-004
        2.2916768483041694e-004 3.7834498334825706e-006
        2.2858380512380885e-006 4.2181558573970289e-009
        8.6285330071011286e-007 1.4056664475524750e-009
        1.6582926608399288e-006 4.2289304422505366e-007
        6.9817636764023057e-009 4.2181558573970289e-009
        7.7839455107747682e-012 1.5922605289090200e-009
        2.5939371146956024e-012 3.3921536906700647e-004
        8.6505731744608225e-005 1.4281686207486850e-006
        8.6285330071011286e-007 1.5922605289090200e-009
        3.2570803436537469e-007 5.3060799005912608e-010
        5.5261266590647952e-007 1.4092569911281287e-007
        2.3266164827573375e-009 1.4056664475524750e-009
        2.5939371146956024e-012 5.3060799005912608e-010
        8.6440864028165974e-013</data></_>
    <_ type_id="opencv-matrix">
      <rows>7</rows>
      <cols>7</cols>
      <dt>d</dt>
      <data>
        6.2828716886342395e-001 5.5207198612986785e-002
        1.8230477312212105e-002 2.7097497291490571e-003
        1.2679721740902339e-005 3.2683049268155263e-004
        1.2828700949931760e-005 5.5207198612986785e-002
        5.1390360038454305e-003 1.6989567907703721e-003
        2.6674564198913951e-004 1.2396337048156610e-006
        3.2107768729257167e-005 1.2786709342610377e-006
        1.8230477312212105e-002 1.6989567907703721e-003
        6.1269957241547762e-004 1.0203058525145702e-004
        5.6671322972659644e-007 1.4353657237330141e-005
        5.2333261611228330e-007 2.7097497291490571e-003
        2.6674564198913951e-004 1.0203058525145702e-004
        1.8335931250013419e-005 1.1063574904162955e-007
        2.7859413312293240e-006 9.7813456482238558e-008
        1.2679721740902339e-005 1.2396337048156610e-006
        5.6671322972659644e-007 1.1063574904162955e-007
        8.0887637173787045e-010 1.9997121906497545e-008
        6.3776580339961840e-010 3.2683049268155263e-004
        3.2107768729257167e-005 1.4353657237330141e-005
        2.7859413312293240e-006 1.9997121906497545e-008
        4.9541482025523096e-007 1.5925727275346538e-008
        1.2828700949931760e-005 1.2786709342610377e-006
        5.2333261611228330e-007 9.7813456482238558e-008
        6.3776580339961840e-010 1.5925727275346538e-008
        5.4013239234343915e-010</data></_>
    <_ type_id="opencv-matrix">
      <rows>7</rows>
      <cols>7</cols>
      <dt>d</dt>
      <data>
        1.5394545289347583e-001 1.0142778939515821e-003
        2.6773871021609037e-004 1.3329886072475277e-004
        -1.9588380990244227e-008 -2.0764745059215402e-006
        -3.5387281041135240e-008 1.0142778939515821e-003
        8.6236290465650595e-006 1.1928037850688836e-006
        8.2506806849818809e-007 -2.9677375167921630e-011
        -6.4196745918500353e-009 -1.8349555369831859e-010
        2.6773871021609037e-004 1.1928037850688836e-006
        6.3374282168472785e-007 2.4748022669429386e-007
        -6.3314180051185053e-011 -5.7482441670119814e-009
        -7.6157636076702575e-011 1.3329886072475277e-004
        8.2506806849818809e-007 2.4748022669429386e-007
        1.1687827380682107e-007 -1.9684069374999946e-011
        -1.9969265194080806e-009 -3.2001704793722547e-011
        -1.9588380990244227e-008 -2.9677375167921630e-011
        -6.3314180051185053e-011 -1.9684069374999946e-011
        7.5809332614470676e-015 6.3600207592927674e-013
        7.0451783974536668e-015 -2.0764745059215402e-006
        -6.4196745918500353e-009 -5.7482441670119814e-009
        -1.9969265194080806e-009 6.3600207592927674e-013
        5.5172723844577736e-011 6.6307784547846569e-013
        -3.5387281041135240e-008 -1.8349555369831859e-010
        -7.6157636076702575e-011 -3.2001704793722547e-011
        7.0451783974536668e-015 6.6307784547846569e-013
        9.4047403413789965e-015</data></_>
    <_ type_id="opencv-matrix">
      <rows>7</rows>
      <cols>7</cols>
      <dt>d</dt>
      <data>
        3.8720309169945111e-001 8.8012073288477599e-003
        4.7175131463158410e-004 7.1022605086984436e-005
        2.4892542981384035e-008 -3.7358664779433681e-006
        -1.4948980933734886e-008 8.8012073288477599e-003
        2.7691150632505970e-004 1.7138159822770995e-005
        2.5801661156172120e-006 9.0431625048744273e-010
        -1.3571955136050285e-007 -5.4307855957960318e-010
        4.7175131463158410e-004 1.7138159822770995e-005
        1.1102171860507545e-006 1.6714424384221263e-007
        5.8581986239979380e-011 -8.7919694974093088e-009
        -3.5180857014757263e-011 7.1022605086984436e-005
        2.5801661156172120e-006 1.6714424384221263e-007
        2.5163723459337498e-008 8.8195732473633545e-012
        -1.3236392950785185e-009 -5.2965111847798245e-012
        2.4892542981384035e-008 9.0431625048744273e-010
        5.8581986239979380e-011 8.8195732473633545e-012
        3.0911511323553260e-015 -4.6391917058290302e-013
        -1.8563615366831237e-015 -3.7358664779433681e-006
        -1.3571955136050285e-007 -8.7919694974093088e-009
        -1.3236392950785185e-009 -4.6391917058290302e-013
        6.9624870353828156e-011 2.7860226418105894e-013
        -1.4948980933734886e-008 -5.4307855957960318e-010
        -3.5180857014757263e-011 -5.2965111847798245e-012
        -1.8563615366831237e-015 2.7860226418105894e-013
        1.1148203395188779e-015</data></_>
    <_ type_id="opencv-matrix">
      <rows>7</rows>
      <cols>7</cols>
      <dt>d</dt>
      <data>
        4.7907522478870490e-001 1.1219824459635541e-001
        5.8570026873804304e-002 2.1093893310772938e-002
        6.7580081862280046e-004 5.3844385972952047e-003
        3.4169105417627618e-004 1.1219824459635541e-001
        2.7812557338764032e-002 1.3721161599312609e-002
        5.0977102457664958e-003 1.7128649967387247e-004
        1.3894122784176843e-003 7.7827638228801337e-005
        5.8570026873804304e-002 1.3721161599312609e-002
        7.1605739239548744e-003 2.5792954436260895e-003
        8.2656625189565553e-005 6.5863370250167363e-004
        4.1767918338198300e-005 2.1093893310772938e-002
        5.0977102457664958e-003 2.5792954436260895e-003
        9.4493807484680170e-004 3.1091023656564789e-005
        2.5025018704336044e-004 1.4819573464868591e-005
        6.7580081862280046e-004 1.7128649967387247e-004
        8.2656625189565553e-005 3.1091023656564789e-005
        1.0635991279993153e-006 8.6834191644372073e-006
        4.6339718224910120e-007 5.3844385972952047e-003
        1.3894122784176843e-003 6.5863370250167363e-004
        2.5025018704336044e-004 8.6834191644372073e-006
        7.1248699792903630e-005 3.6568245689563481e-006
        3.4169105417627618e-004 7.7827638228801337e-005
        4.1767918338198300e-005 1.4819573464868591e-005
        4.6339718224910120e-007 3.6568245689563481e-006
        2.4684283361108150e-007</data></_>
    <_ type_id="opencv-matrix">
      <rows>7</rows>
      <cols>7</cols>
      <dt>d</dt>
      <data>
        7.2457086135181648e-002 4.8798216655968757e-004
        1.9213372480427100e-004 2.0233748665128386e-004
        -4.8899983098595600e-008 -6.6976601913922842e-006
        1.3991009496069684e-007 4.8798216655968757e-004
        3.2864500572934844e-006 1.2939773913106159e-006
        1.3626974306988232e-006 -3.2933037981496195e-010
        -4.5107233887083292e-008 9.4226299875095452e-010
        1.9213372480427100e-004 1.2939773913106159e-006
        5.0947906100296558e-007 5.3653627342004580e-007
        -1.2966759218098271e-010 -1.7760118004809691e-008
        3.7099818825678144e-010 2.0233748665128386e-004
        1.3626974306988232e-006 5.3653627342004580e-007
        5.6503042957008689e-007 -1.3655392736882227e-010
        -1.8703315325740903e-008 3.9070101326838132e-010
        -4.8899983098595600e-008 -3.2933037981496195e-010
        -1.2966759218098271e-010 -1.3655392736882227e-010
        3.3001718321679521e-014 4.5201302954438522e-012
        -9.4422804501643229e-014 -6.6976601913922842e-006
        -4.5107233887083292e-008 -1.7760118004809691e-008
        -1.8703315325740903e-008 4.5201302954438522e-012
        6.1910648677852011e-010 -1.2932762320084213e-011
        1.3991009496069684e-007 9.4226299875095452e-010
        3.7099818825678144e-010 3.9070101326838132e-010
        -9.4422804501643229e-014 -1.2932762320084213e-011
        2.7015763006796676e-013</data></_>
    <_ type_id="opencv-matrix">
      <rows>7</rows>
      <cols>7</cols>
      <dt>d</dt>
      <data>
        4.9382716785242531e-002 5.5989474475305334e-003 0. 0. 0. 0. 0.
        5.5989474475305334e-003 6.3480129407494923e-004 0. 0. 0. 0. 0.
        0. 0. 0. 0. 0. 0. 0. 0. 0. 0. 0. 0. 0. 0. 0. 0. 0. 0. 0. 0. 0.
        0. 0. 0. 0. 0. 0. 0. 0. 0. 0. 0. 0. 0. 0.</data></_>
    <_ type_id="opencv-matrix">
      <rows>7</rows>
      <cols>7</cols>
      <dt>d</dt>
      <data>
        1.7541420259579743e-001 3.9105868151268972e-003
        5.0292452002190287e-005 3.4958577548469878e-005
        3.3060748704877317e-009 2.5877362374821996e-006
        -1.9794361421770543e-010 3.9105868151268972e-003
        8.7980398600607471e-005 1.2086974082086914e-006
        8.2349985206229305e-007 8.0925380794713768e-011
        6.1178371314522328e-008 -4.6173226147148628e-012
        5.0292452002190287e-005 1.2086974082086914e-006
        2.6958354924702119e-008 1.6294644071349880e-008
        1.9522398265310080e-012 1.2334397386618492e-009
        -9.8062583993392857e-014 3.4958577548469878e-005
        8.2349985206229305e-007 1.6294644071349880e-008
        1.0104722650051529e-008 1.1616637827783603e-012
        7.6167864717149165e-010 -5.9940805153643543e-014
        3.3060748704877317e-009 8.0925380794713768e-011
        1.9522398265310080e-012 1.1616637827783603e-012
        1.4299703889510953e-016 8.8207398486458927e-014
        -6.9455019536891467e-018 2.5877362374821996e-006
        6.1178371314522328e-008 1.2334397386618492e-009
        7.6167864717149165e-010 8.8207398486458927e-014
        5.7459719569349437e-011 -4.5134176127767710e-015
        -1.9794361421770543e-010 -4.6173226147148628e-012
        -9.8062583993392857e-014 -5.9940805153643543e-014
        -6.9455019536891467e-018 -4.5134176127767710e-015
        3.9657759970659662e-019</data></_>
    <_ type_id="opencv-matrix">
      <rows>7</rows>
      <cols>7</cols>
      <dt>d</dt>
      <data>
        7.3925510879797329e-001 7.6620089261335671e-003
        2.0766055643868095e-003 1.2416964308124083e-003
        1.0940881697828323e-006 3.1783223624224380e-005
        -6.5858972401066163e-007 7.6620089261335671e-003
        1.0724559757376351e-004 2.9775642038347114e-005
        1.2958532012339382e-005 1.7395805422927997e-008
        4.3617954135475186e-007 -1.0242962880138192e-008
        2.0766055643868095e-003 2.9775642038347114e-005
        1.0498370474646917e-005 4.6198094494298947e-006
        6.8301702131686676e-009 1.7072531123102919e-007
        -4.0580054375358233e-009 1.2416964308124083e-003
        1.2958532012339382e-005 4.6198094494298947e-006
        2.7836422350764218e-006 2.8843933556637971e-009
        7.2710749265528032e-008 -1.8607490885296090e-009
        1.0940881697828323e-006 1.7395805422927997e-008
        6.8301702131686676e-009 2.8843933556637971e-009
        4.6895528762161582e-012 1.1256912850170500e-010
        -2.8215556260059940e-012 3.1783223624224380e-005
        4.3617954135475186e-007 1.7072531123102919e-007
        7.2710749265528032e-008 1.1256912850170500e-010
        3.1674770595146237e-009 -6.1798620964614914e-011
        -6.5858972401066163e-007 -1.0242962880138192e-008
        -4.0580054375358233e-009 -1.8607490885296090e-009
        -2.8215556260059940e-012 -6.1798620964614914e-011
        1.8067657852206571e-012</data></_>
    <_ type_id="opencv-matrix">
      <rows>7</rows>
      <cols>7</cols>
      <dt>d</dt>
      <data>
        6.3301360523699257e-001 4.7143500256012584e-002
        2.1492234567274553e-002 2.0632597182216523e-003
        6.6412757017620926e-006 1.3492791996298881e-004
        8.8538110361161871e-006 4.7143500256012584e-002
        4.4405702497304269e-003 1.8285824339535238e-003
        1.9218595272864941e-004 6.5480343212415261e-007
        1.1912889721458828e-005 9.3512477626891151e-007
        2.1492234567274553e-002 1.8285824339535238e-003
        8.4935114994663099e-004 8.7863506902356091e-005
        3.2972447761567353e-007 6.4538652989218305e-006
        4.2917582737661752e-007 2.0632597182216523e-003
        1.9218595272864941e-004 8.7863506902356091e-005
        9.6049529289476036e-006 3.8431837841072265e-008
        7.4042067749574443e-007 5.0244251864479437e-008
        6.6412757017620926e-006 6.5480343212415261e-007
        3.2972447761567353e-007 3.8431837841072265e-008
        1.7915686601785435e-010 3.4949773207774074e-009
        2.2238878127864229e-010 1.3492791996298881e-004
        1.1912889721458828e-005 6.4538652989218305e-006
        7.4042067749574443e-007 3.4949773207774074e-009
        7.1688521270360102e-008 4.1678954647638730e-009
        8.8538110361161871e-006 9.3512477626891151e-007
        4.2917582737661752e-007 5.0244251864479437e-008
        2.2238878127864229e-010 4.1678954647638730e-009
        2.8964032286581611e-010</data></_>
    <_ type_id="opencv-matrix">
      <rows>7</rows>
      <cols>7</cols>
      <dt>d</dt>
      <data>
        2.3140923113773226e-001 2.0776143381316947e-003
        6.4124471094537117e-004 8.8707587140109470e-005
        -1.3038465252734098e-008 -2.4906604948257824e-006
        -4.2003638261177997e-008 2.0776143381316947e-003
        1.8653021388940517e-005 5.7571567009713238e-006
        7.9642525078727183e-007 -1.1706059530611046e-010
        -2.2361389517725601e-008 -3.7711270495160095e-010
        6.4124471094537117e-004 5.7571567009713238e-006
        1.7769160603220446e-006 2.4581245438936062e-007
        -3.6130135522486814e-011 -6.9017249710190849e-009
        -1.1639384800259688e-010 8.8707587140109470e-005
        7.9642525078727183e-007 2.4581245438936062e-007
        3.4004849234110934e-008 -4.9981186441598659e-012
        -9.5476088743272684e-010 -1.6101524485154976e-011
        -1.3038465252734098e-008 -1.1706059530611046e-010
        -3.6130135522486814e-011 -4.9981186441598659e-012
        7.3463610466589961e-016 1.4033316717091148e-013
        2.3666427448212674e-015 -2.4906604948257824e-006
        -2.2361389517725601e-008 -6.9017249710190849e-009
        -9.5476088743272684e-010 1.4033316717091148e-013
        2.6807010550039902e-011 4.5208569226783339e-013
        -4.2003638261177997e-008 -3.7711270495160095e-010
        -1.1639384800259688e-010 -1.6101524485154976e-011
        2.3666427448212674e-015 4.5208569226783339e-013
        7.6241799797770411e-015</data></_>
    <_ type_id="opencv-matrix">
      <rows>7</rows>
      <cols>7</cols>
      <dt>d</dt>
      <data>
        1.7176368052880608e-001 2.8238927092126692e-003
        5.3571724966410689e-004 5.7288117804820890e-004
        -3.0502978206521251e-007 4.4488862558002534e-005
        -7.0239748128257603e-007 2.8238927092126692e-003
        4.6426404048829787e-005 8.8074966190086106e-006
        9.4184927625848834e-006 -5.0148632994751440e-009
        7.3142223217345675e-007 -1.1547814533646776e-008
        5.3571724966410689e-004 8.8074966190086106e-006
        1.6708594663558348e-006 1.7867708012745461e-006
        -9.5136361430152578e-010 1.3875722164826649e-007
        -2.1907218434376265e-009 5.7288117804820890e-004
        9.4184927625848834e-006 1.7867708012745461e-006
        1.9107231700642510e-006 -1.0173618797135705e-009
        1.4838312682743781e-007 -2.3426972180406496e-009
        -3.0502978206521251e-007 -5.0148632994751440e-009
        -9.5136361430152578e-010 -1.0173618797135705e-009
        5.4169291005118506e-013 -7.9006388362298985e-011
        1.2473658574336769e-012 4.4488862558002534e-005
        7.3142223217345675e-007 1.3875722164826649e-007
        1.4838312682743781e-007 -7.9006388362298985e-011
        1.1523151376422112e-008 -1.8192940969628913e-010
        -7.0239748128257603e-007 -1.1547814533646776e-008
        -2.1907218434376265e-009 -2.3426972180406496e-009
        1.2473658574336769e-012 -1.8192940969628913e-010
        2.8723314509400380e-012</data></_>
    <_ type_id="opencv-matrix">
      <rows>7</rows>
      <cols>7</cols>
      <dt>d</dt>
      <data>
        4.2405731384892320e-001 2.1568449931039346e-002
        3.3273600550619720e-004 2.6592819205908513e-004
        4.3963114875718298e-008 2.8942362402749908e-005
        1.1440453116109480e-008 2.1568449931039346e-002
        1.1851262795281392e-003 1.4965703813903505e-005
        1.5062182617269938e-005 2.7914395588330096e-009
        1.6361477023121705e-006 9.1293867874659086e-010
        3.3273600550619720e-004 1.4965703813903505e-005
        4.4366450093517584e-007 1.2595781267922664e-007
        2.1640445844008026e-011 1.3892719670494122e-008
        -5.9606895864264931e-012 2.6592819205908513e-004
        1.5062182617269938e-005 1.2595781267922664e-007
        2.1051379713871891e-007 3.7433918015155894e-011
        2.2816574589757028e-008 1.5594361912319429e-011
        4.3963114875718298e-008 2.7914395588330096e-009
        2.1640445844008026e-011 3.7433918015155894e-011
        8.0604274037488102e-015 4.0538609184943004e-012
        3.3007910284651586e-015 2.8942362402749908e-005
        1.6361477023121705e-006 1.3892719670494122e-008
        2.2816574589757028e-008 4.0538609184943004e-012
        2.4731419034827610e-009 1.6791661116205848e-012
        1.1440453116109480e-008 9.1293867874659086e-010
        -5.9606895864264931e-012 1.5594361912319429e-011
        3.3007910284651586e-015 1.6791661116205848e-012
        1.9657352669780919e-015</data></_>
    <_ type_id="opencv-matrix">
      <rows>7</rows>
      <cols>7</cols>
      <dt>d</dt>
      <data>
        1.2056326240669080e-001 1.1961669980905310e-002
        1.1599195368181547e-002 1.2887993775615447e-003
        1.4351074250210701e-005 2.3920898150528447e-004 0.
        1.1961669980905310e-002 1.1867756883472552e-003
        1.1508128120339689e-003 1.2786807953142978e-004
        1.4238401535073415e-006 2.3733091126736973e-005 0.
        1.1599195368181547e-002 1.1508128120339689e-003
        1.1159397191443099e-003 1.2399329175665635e-004
        1.3806935101835424e-006 2.3013907013763255e-005 0.
        1.2887993775615447e-003 1.2786807953142978e-004
        1.2399329175665635e-004 1.3777031265129781e-005
        1.5341037718953287e-007 2.5571005654375246e-006 0.
        1.4351074250210701e-005 1.4238401535073415e-006
        1.3806935101835424e-006 1.5341037718953287e-007
        1.7082594483908974e-009 2.8473896495265234e-008 0.
        2.3920898150528447e-004 2.3733091126736973e-005
        2.3013907013763255e-005 2.5571005654375246e-006
        2.8473896495265234e-008 4.7461337467606538e-007 0. 0. 0. 0. 0.
        0. 0. 0.</data></_>
    <_ type_id="opencv-matrix">
      <rows>7</rows>
      <cols>7</cols>
      <dt>d</dt>
      <data>
        2.3318904799926887e-001 1.4207765761665436e-002
        1.6740783461005907e-004 1.0553763826277868e-005
        7.7962803785949199e-010 5.7056194963069144e-007
        -2.8155519712567654e-010 1.4207765761665436e-002
        8.7000519427698000e-004 9.8827131083391274e-006
        6.1646711658902468e-007 4.4429656181676577e-011
        3.4269711621267498e-008 -1.6430266929242551e-011
        1.6740783461005907e-004 9.8827131083391274e-006
        1.4328671498817833e-007 9.5111143720514018e-009
        7.8347364453425706e-013 4.4556586079752692e-010
        -2.5490142291232060e-013 1.0553763826277868e-005
        6.1646711658902468e-007 9.5111143720514018e-009
        6.3962559733862086e-010 5.4021676217360886e-014
        2.8833374412558490e-011 -1.7161360066968442e-014
        7.7962803785949199e-010 4.4429656181676577e-011
        7.8347364453425706e-013 5.4021676217360886e-014
        4.7739543202935901e-018 2.2558347280029215e-015
        -1.4524567525695181e-018 5.7056194963069144e-007
        3.4269711621267498e-008 4.4556586079752692e-010
        2.8833374412558490e-011 2.2558347280029215e-015
        1.4519967033896936e-012 -7.7103065936934052e-016
        -2.8155519712567654e-010 -1.6430266929242551e-011
        -2.5490142291232060e-013 -1.7161360066968442e-014
        -1.4524567525695181e-018 -7.7103065936934052e-016
        4.6048845754755458e-019</data></_>
    <_ type_id="opencv-matrix">
      <rows>7</rows>
      <cols>7</cols>
      <dt>d</dt>
      <data>
        2.5132706572125940e-001 2.7800529601113455e-002
        4.3695658983725849e-002 1.8391012138828100e-003
        -2.8659881668718391e-005 4.3223257890041486e-004
        1.6127145932277442e-005 2.7800529601113455e-002
        3.0751540582563269e-003 4.8333929238026929e-003
        2.0343207998416504e-004 -3.1702112401188064e-006
        4.7811383027141071e-005 1.7839033634722086e-006
        4.3695658983725849e-002 4.8333929238026929e-003
        7.5969160286923909e-003 3.1974566387332759e-004
        -4.9827996531784727e-006 7.5147844960859328e-005
        2.8038614425201884e-006 1.8391012138828100e-003
        2.0343207998416504e-004 3.1974566387332759e-004
        1.3457735899628266e-005 -2.0972044143122766e-007
        3.1628883990436423e-006 1.1801137921775296e-007
        -2.8659881668718391e-005 -3.1702112401188064e-006
        -4.9827996531784727e-006 -2.0972044143122766e-007
        3.2682067683705916e-009 -4.9289297708945538e-008
        -1.8390462354175633e-009 4.3223257890041486e-004
        4.7811383027141071e-005 7.5147844960859328e-005
        3.1628883990436423e-006 -4.9289297708945538e-008
        7.4335409012456430e-007 2.7735484264725469e-008
        1.6127145932277442e-005 1.7839033634722086e-006
        2.8038614425201884e-006 1.1801137921775296e-007
        -1.8390462354175633e-009 2.7735484264725469e-008
        1.0348461084944447e-009</data></_></productsum>
  <avg>
    <_ type_id="opencv-matrix">
      <rows>1</rows>
      <cols>7</cols>
      <dt>d</dt>
      <data>
        3.9442755033572513e-001 1.0917670372873545e-001
        1.6724002993820857e-002 7.4232900296919979e-003
        2.9735531177029390e-004 2.7032372181565734e-003
        -2.2091523523689222e-005</data></_>
    <_ type_id="opencv-matrix">
      <rows>1</rows>
      <cols>7</cols>
      <dt>d</dt>
      <data>
        3.7781868197701196e-001 4.5411181382157585e-002
        2.9334714159962127e-003 1.4230994889988904e-003
        1.1474506686068056e-005 2.2684532202468043e-004
        7.4317541123101383e-007</data></_>
    <_ type_id="opencv-matrix">
      <rows>1</rows>
      <cols>7</cols>
      <dt>d</dt>
      <data>
        4.1117610633373258e-001 5.8279592264443639e-002
        4.6187601808924230e-003 1.6481933271279559e-003
        4.5504356407377598e-007 -1.2890736165900308e-004
        -4.5619331736190814e-006</data></_>
    <_ type_id="opencv-matrix">
      <rows>1</rows>
      <cols>7</cols>
      <dt>d</dt>
      <data>
        2.8831018838617539e-001 1.5777175521685019e-002
        9.6773271604130660e-003 2.8431153178745363e-004
        5.2873850640998580e-007 2.9578107412615078e-005
        6.8702388321560818e-008</data></_>
    <_ type_id="opencv-matrix">
      <rows>1</rows>
      <cols>7</cols>
      <dt>d</dt>
      <data>
        3.3124038949608803e-001 2.4714585510082543e-002
        6.7334954110265244e-004 1.7267319526581559e-004
        1.6415332704244889e-008 8.7535816817307932e-006
        1.7021993814481107e-009</data></_>
    <_ type_id="opencv-matrix">
      <rows>1</rows>
      <cols>7</cols>
      <dt>d</dt>
      <data>
        3.3389272221497129e-001 2.4829244640256678e-002
        3.1779223271379514e-003 9.3082629973650910e-004
        1.1359394129987052e-005 2.1530877922616907e-004
        -4.3919245716418841e-007</data></_>
    <_ type_id="opencv-matrix">
      <rows>1</rows>
      <cols>7</cols>
      <dt>d</dt>
      <data>
        5.0723994861949573e-001 1.2732656367800452e-001
        7.9203161961314356e-002 1.9626517975914547e-002
        1.3433935152678796e-003 7.5221001355781809e-003
        -3.7614753195860180e-004</data></_>
    <_ type_id="opencv-matrix">
      <rows>1</rows>
      <cols>7</cols>
      <dt>d</dt>
      <data>
        3.0454415197555834e-001 2.1997239010838363e-002
        2.9437650615154079e-003 2.7210617064646125e-004
        -1.7336675353890173e-007 -3.4284042403516407e-005
        -6.3608476705172390e-007</data></_>
    <_ type_id="opencv-matrix">
      <rows>1</rows>
      <cols>7</cols>
      <dt>d</dt>
      <data>
        3.2464706783111280e-001 2.1964725680076159e-002
        1.8383722826211641e-003 6.4542956617795141e-004
        -1.6454848093410818e-006 -3.5787032529172466e-005
        -5.0731300591220626e-007</data></_>
    <_ type_id="opencv-matrix">
      <rows>1</rows>
      <cols>7</cols>
      <dt>d</dt>
      <data>
        3.4758436679840088e-001 1.5013078227639198e-002
        2.2330354200676084e-002 1.0680483756004833e-003
        7.2722554698145814e-006 5.5507690376543906e-005
        4.8894816586653178e-006</data></_>
    <_ type_id="opencv-matrix">
      <rows>1</rows>
      <cols>7</cols>
      <dt>d</dt>
      <data>
        3.1072294712066650e-001 1.0940650943666697e-002
        9.1642444021999836e-004 5.2478014367807191e-005
        -1.7954505660000564e-009 2.7027030853332690e-006
        -8.4452375093135856e-009</data></_>
    <_ type_id="opencv-matrix">
      <rows>1</rows>
      <cols>7</cols>
      <dt>d</dt>
      <data>
        3.9388920366764069e-001 1.3385770609602332e-002
        3.2512189791304991e-003 1.3052377762505785e-003
        -3.3920976143519965e-006 -1.5834402483960730e-004
        -5.7677673126477351e-007</data></_>
    <_ type_id="opencv-matrix">
      <rows>1</rows>
      <cols>7</cols>
      <dt>d</dt>
      <data>
        3.6769420653581619e-001 9.5429706852883101e-003
        2.7051677461713552e-003 3.7875737689319067e-004
        4.0804019185713969e-007 1.3389773585004150e-005
        1.6196546681612745e-007</data></_>
    <_ type_id="opencv-matrix">
      <rows>1</rows>
      <cols>7</cols>
      <dt>d</dt>
      <data>
        5.9437602758407593e-001 1.5157607197761536e-001
        2.5024490896612406e-003 1.5118988230824471e-003
        2.7899723136215471e-006 5.7070836191996932e-004
        9.2973579057797906e-007</data></_>
    <_ type_id="opencv-matrix">
      <rows>1</rows>
      <cols>7</cols>
      <dt>d</dt>
      <data>
        3.4609397053718566e-001 2.9544533044099808e-002
        9.2628814745694399e-003 1.2886674114270136e-003
        5.2886877648816723e-006 1.3894945204810937e-004
        5.7243452658894970e-006</data></_>
    <_ type_id="opencv-matrix">
      <rows>1</rows>
      <cols>7</cols>
      <dt>d</dt>
      <data>
        2.7740782499313354e-001 1.8426235474180430e-003
        4.7807493683649227e-004 2.3979449906619266e-004
        -3.4534758164284085e-008 -3.6860140077976666e-006
        -6.3386087489902820e-008</data></_>
    <_ type_id="opencv-matrix">
      <rows>1</rows>
      <cols>7</cols>
      <dt>d</dt>
      <data>
        4.3993279337882996e-001 9.8900131415575743e-003
        5.2683422109112144e-004 7.9315388575196266e-005
        2.7799060831057432e-008 -4.1720759327290580e-006
        -1.6694462701138946e-008</data></_>
    <_ type_id="opencv-matrix">
      <rows>1</rows>
      <cols>7</cols>
      <dt>d</dt>
      <data>
        4.8895898461341858e-001 1.1330289766192436e-001
        5.9775067493319511e-002 2.1404940634965897e-002
        6.7948921059723943e-004 5.3943758830428123e-003
        3.5047017445322126e-004</data></_>
    <_ type_id="opencv-matrix">
      <rows>1</rows>
      <cols>7</cols>
      <dt>d</dt>
      <data>
        2.6917853951454163e-001 1.8128568772226572e-003
        7.1377801941707730e-004 7.5168506009504199e-004
        -1.8166375070904905e-007 -2.4881850549718365e-005
        5.1976689974253532e-007</data></_>
    <_ type_id="opencv-matrix">
      <rows>1</rows>
      <cols>7</cols>
      <dt>d</dt>
      <data>
        2.2222222387790680e-001 2.5195263326168060e-002 0. 0. 0. 0. 0.</data></_>
    <_ type_id="opencv-matrix">
      <rows>1</rows>
      <cols>7</cols>
      <dt>d</dt>
      <data>
        2.4132984876632690e-001 5.3546254833539324e-003
        6.5178191107406747e-005 4.6093137522499696e-005
        4.2298597587494174e-009 3.4036328315778519e-006
        -2.5797378122582870e-010</data></_>
    <_ type_id="opencv-matrix">
      <rows>1</rows>
      <cols>7</cols>
      <dt>d</dt>
      <data>
        3.8348489999771118e-001 3.8850385812111200e-003
        1.0140946164028720e-003 6.2103086820570748e-004
        5.1440494583943066e-007 1.5543225254077696e-005
        -3.0581073933166892e-007</data></_>
    <_ type_id="opencv-matrix">
      <rows>1</rows>
      <cols>7</cols>
      <dt>d</dt>
      <data>
        3.1862583756446838e-001 2.1990899229422212e-002
        1.0032870030651489e-002 9.2660185449252219e-004
        2.7730187669069060e-006 5.7611392018467690e-005
        3.7316928698238883e-006</data></_>
    <_ type_id="opencv-matrix">
      <rows>1</rows>
      <cols>7</cols>
      <dt>d</dt>
      <data>
        4.8105013370513916e-001 4.3189143761992455e-003
        1.3330101501196623e-003 1.8440403800923377e-004
        -2.7104171351766126e-008 -5.1775487008853815e-006
        -8.7316550434479723e-008</data></_>
    <_ type_id="opencv-matrix">
      <rows>1</rows>
      <cols>7</cols>
      <dt>d</dt>
      <data>
        4.1444382071495056e-001 6.8136923946440220e-003
        1.2926172930747271e-003 1.3822891050949693e-003
        -7.3599790084699634e-007 1.0734594252426177e-004
        -1.6947954009083332e-006</data></_>
    <_ type_id="opencv-matrix">
      <rows>1</rows>
      <cols>7</cols>
      <dt>d</dt>
      <data>
        3.7275296449661255e-001 1.8611048348248005e-002
        2.7574767530798755e-004 2.3622903972864151e-004
        3.6541326705237985e-008 2.5702411524738029e-005
        1.0082514082891217e-008</data></_>
    <_ type_id="opencv-matrix">
      <rows>1</rows>
      <cols>7</cols>
      <dt>d</dt>
      <data>
        3.4722220897674561e-001 3.4449610859155655e-002
        3.3405683934688568e-002 3.7117423489689827e-003
        4.1331095417262986e-005 6.8892189301550388e-004 0.</data></_>
    <_ type_id="opencv-matrix">
      <rows>1</rows>
      <cols>7</cols>
      <dt>d</dt>
      <data>
        3.4144987165927887e-001 2.0814915187656879e-002
        2.4432587815681472e-004 1.5386234281322686e-005
        1.1338015734607687e-009 8.3420241026033182e-007
        -4.1043630993886637e-010</data></_>
    <_ type_id="opencv-matrix">
      <rows>1</rows>
      <cols>7</cols>
      <dt>d</dt>
      <data>
        5.0132530927658081e-001 5.5454071611166000e-002
        8.7160289287567139e-002 3.6684786900877953e-003
        -5.7168232160620391e-005 8.6217984789982438e-004
        3.2169024052564055e-005</data></_></avg>
  <inv_eigen_values>
    <_ type_id="opencv-matrix">
      <rows>1</rows>
      <cols>7</cols>
      <dt>d</dt>
      <data>
        7.3657204251778893e+001 1.1938752489497078e+003
        6.9395499148943090e+003 3.8194398921066183e+006 8388608.
        8388608. 8388608.</data></_>
    <_ type_id="opencv-matrix">
      <rows>1</rows>
      <cols>7</cols>
      <dt>d</dt>
      <data>
        2.4713950054000054e+002 9.2446620103386249e+003
        2.6803032513128646e+005 8.2545051206842111e+006 8388608.
        8388608. 8388608.</data></_>
    <_ type_id="opencv-matrix">
      <rows>1</rows>
      <cols>7</cols>
      <dt>d</dt>
      <data>
        3.0733254815385993e+002 3.2402718547826931e+004
        5.1339593437078572e+005 4.0105620609378107e+006 8388608.
        8388608. 8388608.</data></_>
    <_ type_id="opencv-matrix">
      <rows>1</rows>
      <cols>7</cols>
      <dt>d</dt>
      <data>
        4.5652373181401765e+002 1.5615286241027413e+005
        3.1804327444627596e+005 8.3886079999999991e+006 8388608.
        8388608. 8388608.</data></_>
    <_ type_id="opencv-matrix">
      <rows>1</rows>
      <cols>7</cols>
      <dt>d</dt>
      <data>
        8.5310000008033296e+002 5.5340130388991551e+004
        5.7197272108810078e+006 8.3886080000000019e+006 8388608.
        8388608. 8388608.</data></_>
    <_ type_id="opencv-matrix">
      <rows>1</rows>
      <cols>7</cols>
      <dt>d</dt>
      <data>
        2.7869669775856681e+002 2.3586785084984790e+003
        4.1767435416111851e+005 8.3886079999999991e+006 8388608.
        8388608. 8388608.</data></_>
    <_ type_id="opencv-matrix">
      <rows>1</rows>
      <cols>7</cols>
      <dt>d</dt>
      <data>
        6.4022670946977797e+001 8.8765407309676107e+002
        5.4344183594511996e+003 1.0660530102845423e+005
        1.5786627467454167e+006 8388608. 8388608.</data></_>
    <_ type_id="opencv-matrix">
      <rows>1</rows>
      <cols>7</cols>
      <dt>d</dt>
      <data>
        1.3317837186174268e+002 7.3042911780233326e+003
        5.3078873718781048e+004 8388608. 8388608. 8388608. 8388608.</data></_>
    <_ type_id="opencv-matrix">
      <rows>1</rows>
      <cols>7</cols>
      <dt>d</dt>
      <data>
        1.2098188466780778e+002 5.4913006376027324e+003
        6.8002428665196942e+005 8388608. 8388608. 8388608. 8388608.</data></_>
    <_ type_id="opencv-matrix">
      <rows>1</rows>
      <cols>7</cols>
      <dt>d</dt>
      <data>
        9.4295260544962886e+001 8388608. 8388608. 8388608. 8388608.
        8388608. 8388608.</data></_>
    <_ type_id="opencv-matrix">
      <rows>1</rows>
      <cols>7</cols>
      <dt>d</dt>
      <data>
        4.7140198777251295e+004 8.3886079999999991e+006
        8.3886079999999991e+006 8.3886079999999991e+006 8388608.
        8388608. 8388608.</data></_>
    <_ type_id="opencv-matrix">
      <rows>1</rows>
      <cols>7</cols>
      <dt>d</dt>
      <data>
        9.5515576952154291e+001 9.9859727628694425e+004
        2.0722920402231482e+006 8388608. 8388608. 8388608. 8388608.</data></_>
    <_ type_id="opencv-matrix">
      <rows>1</rows>
      <cols>7</cols>
      <dt>d</dt>
      <data>
        1.4515347839291968e+002 1.8021417504162964e+005
        1.8847622749814531e+006 8388608. 8388608. 8388608. 8388608.</data></_>
    <_ type_id="opencv-matrix">
      <rows>1</rows>
      <cols>7</cols>
      <dt>d</dt>
      <data>
        8388608. 8388608. 8388608. 8388608. 8388608. 8388608. 8388608.</data></_>
    <_ type_id="opencv-matrix">
      <rows>1</rows>
      <cols>7</cols>
      <dt>d</dt>
      <data>
        1.3277340615278030e+002 1.9331275912893634e+004
        2.3105007085083096e+005 8388608. 8388608. 8388608. 8388608.</data></_>
    <_ type_id="opencv-matrix">
      <rows>1</rows>
      <cols>7</cols>
      <dt>d</dt>
      <data>
        2.6837136434446791e+004 8388608. 8388608. 8388608. 8388608.
        8388608. 8388608.</data></_>
    <_ type_id="opencv-matrix">
      <rows>1</rows>
      <cols>7</cols>
      <dt>d</dt>
      <data>
        4.9207553933022064e+003 8388608. 8388608. 8388608. 8388608.
        8388608. 8388608.</data></_>
    <_ type_id="opencv-matrix">
      <rows>1</rows>
      <cols>7</cols>
      <dt>d</dt>
      <data>
        3.2183784803348686e+002 8.3886079999999991e+006
        8.3886079999999991e+006 8.3886079999999991e+006 8388608.
        8388608. 8388608.</data></_>
    <_ type_id="opencv-matrix">
      <rows>1</rows>
      <cols>7</cols>
      <dt>d</dt>
      <data>
        8388608. 8388608. 8388608. 8388608. 8388608. 8388608. 8388608.</data></_>
    <_ type_id="opencv-matrix">
      <rows>1</rows>
      <cols>7</cols>
      <dt>d</dt>
      <data>
        8388608. 8388608. 8388608. 8388608. 8388608. 8388608. 8388608.</data></_>
    <_ type_id="opencv-matrix">
      <rows>1</rows>
      <cols>7</cols>
      <dt>d</dt>
      <data>
        2.8752623762113612e+003 6.4827860494809523e+006
        8.3886079999999991e+006 8.3886079999999991e+006 8388608.
        8388608. 8388608.</data></_>
    <_ type_id="opencv-matrix">
      <rows>1</rows>
      <cols>7</cols>
      <dt>d</dt>
      <data>
        1.0079721773033839e+003 1.9169032157765410e+005
        8.0164851559606325e+006 8388608. 8388608. 8388608. 8388608.</data></_>
    <_ type_id="opencv-matrix">
      <rows>1</rows>
      <cols>7</cols>
      <dt>d</dt>
      <data>
        1.9827806156318636e+002 1.1657122288066486e+004
        2.2971226289578824e+005 8.3886079999999991e+006 8388608.
        8388608. 8388608.</data></_>
    <_ type_id="opencv-matrix">
      <rows>1</rows>
      <cols>7</cols>
      <dt>d</dt>
      <data>
        8388608. 8388608. 8388608. 8388608. 8388608. 8388608. 8388608.</data></_>
    <_ type_id="opencv-matrix">
      <rows>1</rows>
      <cols>7</cols>
      <dt>d</dt>
      <data>
        8388608. 8388608. 8388608. 8388608. 8388608. 8388608. 8388608.</data></_>
    <_ type_id="opencv-matrix">
      <rows>1</rows>
      <cols>7</cols>
      <dt>d</dt>
      <data>
        2.7385871284836065e+002 3.0196686641228400e+004 8388608.
        8388608. 8388608. 8388608. 8388608.</data></_>
    <_ type_id="opencv-matrix">
      <rows>1</rows>
      <cols>7</cols>
      <dt>d</dt>
      <data>
        8388608. 8388608. 8388608. 8388608. 8388608. 8388608. 8388608.</data></_>
    <_ type_id="opencv-matrix">
      <rows>1</rows>
      <cols>7</cols>
      <dt>d</dt>
      <data>
        6.0510141433284734e+004 8388608. 8388608. 8388608. 8388608.
        8388608. 8388608.</data></_>
    <_ type_id="opencv-matrix">
      <rows>1</rows>
      <cols>7</cols>
      <dt>d</dt>
      <data>
        8388608. 8388608. 8388608. 8388608. 8388608. 8388608. 8388608.</data></_></inv_eigen_values>
  <cov_rotate_mats>
    <_ type_id="opencv-matrix">
      <rows>7</rows>
      <cols>7</cols>
      <dt>d</dt>
      <data>
        -7.8797239047176293e-001 -6.0906519025151473e-001
        -7.6110647542135659e-002 -4.4375314545412756e-002
        -1.5042837625897677e-003 -1.9360581722171276e-002
        1.0804422829007190e-004 2.5466549875454475e-001
        -4.5544396949047616e-001 7.4297674926339663e-001
        3.9890949634516909e-001 2.7750883979422287e-002
        1.2569742668974052e-001 -1.7560012628670954e-003
        5.5549246467318203e-001 -6.4231957059187339e-001
        -3.7439603130283783e-001 -3.4726091785801577e-001
        -2.6507756638205586e-002 -1.3186085679794340e-001
        1.1004006546174682e-003 -7.3217086815621613e-002
        9.0341899325785152e-002 5.4024879789707425e-001
        -7.9880782732436029e-001 -1.9201040922246443e-001
        -1.4014522247444375e-001 2.4920209380677252e-003
        -1.1729040457148468e-002 2.0162079864896775e-002
        3.4201176439073236e-002 2.7189796588608761e-001
        -3.7462245231316332e-001 -8.8541439728778226e-001
        7.5537488079223591e-003 -1.3220807757484130e-002
        2.1626369932646484e-002 9.4770646124442040e-002
        -7.9303678342793352e-002 9.0622840224434775e-001
        -4.0349768000129521e-001 -5.1639906529701027e-003
        1.2385498187790549e-004 -2.9291395318861458e-004
        6.0964211065750234e-004 6.1470862551314003e-004
        8.0664952416077042e-003 5.3219517231278607e-003
        9.9995287779751707e-001</data></_>
    <_ type_id="opencv-matrix">
      <rows>7</rows>
      <cols>7</cols>
      <dt>d</dt>
      <data>
        -9.7967451863912591e-001 -1.9249347989916782e-001
        -4.7059727191533660e-002 -3.0427057126502764e-002
        -3.5821107024044832e-004 -6.5988847106613008e-003
        -2.0054631230270986e-005 1.6701692282423569e-001
        -9.3853918134878678e-001 2.5506041688547243e-001
        1.5715484803136831e-001 2.1691394650308624e-003
        3.8617962024850121e-002 1.9464055773435246e-004
        1.0848293673448645e-001 -2.7912503591095494e-001
        -6.6240060825462310e-001 -6.6762303047431570e-001
        -9.1319714790248571e-003 -1.6044155540681992e-001
        -8.3935982313164956e-004 -2.3968655039932233e-002
        6.4633978446485663e-002 7.0279141822246893e-001
        -6.8646453405492935e-001 -5.3885044447241877e-003
        -1.7340273572830472e-001 -1.0361588412431395e-003
        -3.4545960376067627e-004 -1.4388199034036315e-003
        -5.5701910583382296e-003 2.3945821722837504e-001
        -4.9757278308098472e-003 -9.7087668766550572e-001
        4.9508437590818286e-004 1.4715278511808142e-004
        -2.3702955640081370e-004 -2.8159064405758483e-003
        -9.0670290801304464e-003 9.9045892556926274e-001
        -7.2259258233457460e-003 1.3729051159421640e-001
        -6.0230828404848582e-006 4.5184282608835591e-005
        5.1586249630760446e-004 -1.7828450933464492e-004
        -1.3729201188816675e-001 1.1617288212181379e-003
        9.9052978444894169e-001</data></_>
    <_ type_id="opencv-matrix">
      <rows>7</rows>
      <cols>7</cols>
      <dt>d</dt>
      <data>
        -9.0222965780035258e-001 -4.2894320132198949e-001
        -4.2504483104077811e-002 -1.3480467546688933e-002
        -1.4717877563879469e-005 1.0080301117405925e-003
        6.4765404479702208e-005 4.2821007804709271e-001
        -8.8093128205608118e-001 -2.0129553486960117e-001
        6.4908103767330437e-003 1.7645090287652678e-004
        5.8436471987041100e-003 -5.5033103760671075e-005
        -4.6194978228671857e-002 1.9741013353390063e-001
        -9.6403866261332316e-001 -1.4296117946344586e-001
        1.4948140722049828e-003 9.5309472720542229e-002
        8.3141947161385031e-004 2.0855824010392328e-002
        -2.5527633102021323e-002 1.1910028806704714e-001
        -9.7346740060902048e-001 -4.3354032684540167e-003
        -1.9248156093706240e-001 4.6657115912029853e-003
        -6.9870378478104891e-003 1.8582651241842621e-002
        -1.1881176048818842e-001 1.7801331352826566e-001
        -2.2520129183112077e-002 -9.7633654169952433e-001
        7.7905888808901397e-003 -9.9395428495038787e-005
        2.4847047239055222e-004 -1.3116518088398539e-003
        -3.1339707347366659e-003 2.9026883408889759e-001
        -1.4736582130728903e-002 -9.5682559710937698e-001
        -6.0484078156890335e-005 9.3788362393949624e-005
        -3.1633195837000867e-004 9.5180220401660772e-004
        9.5666911008775701e-001 -1.9534053880145761e-002
        2.9051956232753606e-001</data></_>
    <_ type_id="opencv-matrix">
      <rows>7</rows>
      <cols>7</cols>
      <dt>d</dt>
      <data>
        -9.8806657378814200e-001 -1.1184569867454550e-001
        -1.0588770606159727e-001 -1.6425874460049086e-003
        -6.8551807646774656e-006 -2.8463145799727827e-004
        -1.6246169084228836e-009 1.3835057505187506e-001
        -9.4615427638791405e-001 -2.9112284293437674e-001
        -2.9410963447336812e-002 -1.0714406960917920e-004
        -5.8030910371280062e-003 -4.3141013148485914e-005
        6.7585689789704168e-002 3.0298162327286021e-001
        -9.5034837892298885e-001 -2.1616881208940512e-002
        -8.6720200712461133e-005 -2.2283984565712105e-003
        -7.9622635692163613e-005 -3.9596649254020682e-003
        2.1876122485012951e-002 2.9543694089304733e-002
        -9.9340871729015112e-001 -2.4042941298899941e-003
        -1.0847175182818193e-001 -3.8117614719439306e-004
        -2.4392826137429433e-004 2.4883315849903200e-003
        6.3518306304650670e-004 1.0860890196989917e-001
        -1.6437670892271525e-002 -9.9369505599866137e-001
        2.2302249208342922e-002 -1.4969624286452017e-005
        6.5994448796535341e-005 8.3819143234845566e-005
        2.6508497667794297e-003 1.7837172663868567e-001
        -2.4737432857387196e-002 -9.8364858966099689e-001
        3.1016347753524213e-006 5.9569153283703095e-006
        -4.8596827515531563e-005 -1.0988187853717257e-003
        9.8382291619684803e-001 -1.2383517853832595e-002
        1.7871180219004582e-001</data></_>
    <_ type_id="opencv-matrix">
      <rows>7</rows>
      <cols>7</cols>
      <dt>d</dt>
      <data>
        -9.6957949347691463e-001 -2.4476270504489481e-001
        2.5041093965218930e-003 -6.6712576908824694e-004
        -4.9970580630437213e-007 -3.2928254178017316e-004
        -5.0210804638558728e-007 2.4306593285759745e-001
        -9.6397508043305713e-001 -1.0795247298200213e-001
        3.5538287409109608e-003 2.9629011404674482e-006
        2.1518419873896646e-003 5.8121023559422233e-006
        -2.8863176982524864e-002 1.0392786999133437e-001
        -9.8950821485381246e-001 9.3605950542437200e-002
        3.1928485477191776e-005 2.1847929396580930e-002
        2.3980445920964339e-005 -1.1722434263733781e-003
        6.4936638286513856e-003 -9.5044270560199248e-002
        -9.9143552183533590e-001 -1.6754195317614872e-004
        -8.9323122233701674e-002 5.1149996169889153e-005
        3.1776096260221820e-004 -3.0444413147859544e-004
        -1.3419088804377201e-002 9.0996941923878832e-002
        -1.2634440149897378e-003 -9.9575966674474670e-001
        -6.1705065966106152e-004 9.4818661874401673e-007
        -2.4621458892101688e-006 -2.0959407230226900e-005
        -1.0636729056762100e-004 3.3825643299153496e-002
        5.6696798454624817e-004 -9.9942758249031971e-001
        -1.1019024038287872e-007 2.0230664117709670e-007
        -2.5474822781197706e-007 -5.0568098088205040e-005
        9.9942693603177268e-001 -1.2936754888318751e-003
        3.3824892913687087e-002</data></_>
    <_ type_id="opencv-matrix">
      <rows>7</rows>
      <cols>7</cols>
      <dt>d</dt>
      <data>
        -9.3664156805067156e-001 -3.3523071233511881e-001
        -9.6854775400871743e-002 -2.9340280673362609e-002
        -4.5547865157315360e-004 -9.0019526761386630e-003
        1.7496782641580023e-005 3.5002009518671029e-001
        -8.8517286499141623e-001 -2.9595355106294730e-001
        -7.4235193345246572e-002 -1.4860965955118214e-003
        -2.9212209201941002e-002 4.5618529165624902e-005
        -1.2737070753044998e-002 3.2240172083418361e-001
        -9.0635222741408406e-001 -2.6418729184179229e-001
        -3.7348281799136646e-003 -6.7909044277226258e-002
        1.5775435898088860e-004 5.0956015796510580e-003
        -1.0363220089906937e-002 2.7044900240932618e-001
        -9.5980721450152262e-001 3.8193434287034770e-003
        7.4020162798163869e-002 7.1743685833176093e-004
        -5.5465458498744425e-004 6.2526513030170643e-003
        9.1681807039783486e-002 -5.0998441622383393e-002
        -2.2540879246719884e-002 -9.9420524706137559e-001
        1.4273746516986279e-003 1.4011334242458821e-005
        -8.3540792204918855e-005 -2.8364259116114266e-003
        1.4078155125603253e-003 9.9972863544689428e-001
        -2.2997646855711647e-002 1.9311330195343971e-003
        -4.6099125751808845e-007 -5.9431440144943696e-006
        -1.6124073558969494e-004 8.0425537101586780e-004
        -1.9005158830608874e-003 1.4226176487947863e-003
        9.9999684566382185e-001</data></_>
    <_ type_id="opencv-matrix">
      <rows>7</rows>
      <cols>7</cols>
      <dt>d</dt>
      <data>
        -7.9973128417532491e-001 -3.5654916109545132e-001
        -4.6025036744903941e-001 -1.3438473568852044e-001
        -1.1482865243482908e-002 -5.7192132737601313e-002
        3.1803567552477637e-003 -3.1284629206648656e-001
        -4.3719171398508772e-001 7.8246935775254678e-001
        2.9507567459887019e-001 2.9752590623009455e-002
        1.0371122627355654e-001 -4.6279690388655263e-003
        4.8361672420495899e-001 -7.9573135889381674e-001
        -1.1470066720623229e-001 -2.9721906325118619e-001
        -4.9073350749135755e-002 -1.7034482323141426e-001
        2.3454997990873714e-003 -1.6827531004808685e-001
        2.1510878047411044e-001 4.0209340200541355e-001
        -8.0189788375406901e-001 -1.5085926095048127e-001
        -3.1116621105178249e-001 -3.3307434166745233e-002
        -1.5451831949303139e-002 4.0902871366713695e-002
        -1.1239766662335574e-002 3.9919251201144618e-001
        -4.5686128256238118e-001 -7.9145829984694482e-001
        5.8980760435720099e-002 -7.2729038039253168e-003
        2.0081699513543765e-002 1.5057739525701818e-002
        5.7562463079070335e-002 8.0480371909551518e-001
        -4.6193739989939608e-001 -3.6729888353187951e-001
        -7.9812598435510945e-003 1.4127931181089742e-002
        2.6886587236969926e-002 -2.8698479803699672e-002
        3.4261488440263282e-001 -1.4261441011785669e-001
        9.2761327111467295e-001</data></_>
    <_ type_id="opencv-matrix">
      <rows>7</rows>
      <cols>7</cols>
      <dt>d</dt>
      <data>
        -9.6135381903400718e-001 -2.6920085758107476e-001
        -5.7361664672481633e-002 -6.1505999371966203e-003
        6.3341112312899019e-006 1.2417332262485551e-003
        2.2610430222033077e-005 2.3205411463140466e-001
        -9.0423782202453651e-001 3.5745337248566644e-001
        -2.5727430189725588e-002 4.1096967714158949e-005
        8.3672256519358168e-003 1.5094151906254797e-004
        1.4814797855185119e-001 -3.3025917308285013e-001
        -9.3216073190910276e-001 -7.5739796574859821e-003
        3.5239591976111044e-006 -2.4444184483151071e-004
        4.8116211971289518e-007 -1.3041830233214713e-003
        2.8468151154890792e-002 -2.4125755602522393e-003
        -9.7677435639171639e-001 8.6285202520914922e-004
        2.1232756423565882e-001 3.1875701269291649e-003
        4.4504641685347155e-004 -1.8171392674549390e-003
        2.6972684503347487e-003 -2.1249564183938408e-001
        -5.3680255532382584e-003 -9.7699143488473772e-001
        -1.7139059025080946e-002 -1.6396170812972287e-006
        2.1583044614239274e-005 3.3742465232627231e-006
        -5.9159778499011178e-004 3.1748149369243983e-001
        -1.8247770757522711e-002 9.4808869287496356e-001
        -6.8990025914909730e-008 1.2022883040844031e-006
        -4.6901428306281257e-006 1.1487067289959735e-004
        -9.4824888041555799e-001 -3.8519042432709298e-004
        3.1752779279971433e-001</data></_>
    <_ type_id="opencv-matrix">
      <rows>7</rows>
      <cols>7</cols>
      <dt>d</dt>
      <data>
        -9.8824369033045167e-001 -1.4984103827780429e-001
        -2.8068960747278694e-002 -1.1504181914131785e-002
        4.9310222311208512e-005 1.3624715552678693e-003
        1.5833416080669778e-005 1.4946890879054561e-001
        -9.8793237240195186e-001 -5.0658525013117517e-003
        3.9142618634040713e-002 -3.7683255443940429e-004
        -9.5221111834570774e-003 -2.2979546334721620e-004
        3.0755655132071919e-002 -1.5517022841971817e-003
        -9.6041177407451150e-001 -2.7620271244345995e-001
        6.0026279244076628e-004 1.9302609253811814e-002
        -1.2929005013052276e-004 9.2164063774380078e-003
        -3.8580158002397856e-002 2.7711423420942644e-001
        -9.5802708703141981e-001 4.0373037129828497e-003
        6.1584720990514513e-002 3.0746209295738390e-003
        -1.6127921156038208e-003 6.8154277992473096e-003
        -1.4435340724785629e-003 -6.4960293681467413e-002
        -2.4034496223655614e-002 -9.9753746878856864e-001
        -8.3884834072977636e-003 1.6087872634103215e-005
        -6.6040797222203574e-005 -1.1341662579862539e-003
        3.4063885382675779e-003 6.2037953828391057e-001
        -2.1760715347741148e-002 7.8399158497398169e-001
        -8.1784423904526702e-007 4.3746754610494604e-006
        -1.6085663020901043e-004 -4.7761895654971142e-004
        -7.8392267915844505e-001 1.3699420310214245e-002
        6.2070710078883395e-001</data></_>
    <_ type_id="opencv-matrix">
      <rows>7</rows>
      <cols>7</cols>
      <dt>d</dt>
      <data>
        -9.5360797389466523e-001 -3.2362267344701878e-002
        -2.9908248854245600e-001 -1.1538178889716399e-002
        -1.0024794247444396e-004 -1.0182497821632716e-003
        -6.6103807248508857e-005 3.3053112315588412e-002
        -9.9938119475949905e-001 2.7305049179630059e-003
        4.0755116502116939e-004 1.1708864915234289e-002
        7.3735138985458679e-006 5.4622172513668220e-007
        -2.9898637531185485e-001 -7.2536918868625344e-003
        9.5421213984443831e-001 -3.6166557429709451e-003
        2.4931476702746659e-003 3.7910087119893150e-003
        2.3616575439374001e-004 1.5050961643869109e-004
        1.1202801038214471e-006 -3.9295015230745751e-003
        9.8002041829509112e-004 -7.8425690419335427e-005
        9.9804437930968093e-001 6.2377774095625567e-002
        1.2087318745833056e-002 8.1543861503224901e-004
        -1.7441899784367138e-004 -9.9745627597265107e-001
        7.0236866606072604e-002 9.7862693054301332e-004
        6.1195405038797139e-005 5.8765158826940846e-004
        -1.1688893275537298e-002 2.4351918683752777e-003
        -7.0239883356569097e-002 -9.9745849691413890e-001
        1.0359039873388486e-007 7.9923202537666828e-009
        -2.5779975104774540e-006 -1.5246593050577406e-020
        -5.0821976835258020e-021 6.2253162914487634e-017
        4.5550238986171818e-018 -6.2378286154973234e-002
        9.9805257847957207e-001</data></_>
    <_ type_id="opencv-matrix">
      <rows>7</rows>
      <cols>7</cols>
      <dt>d</dt>
      <data>
        -3.9927846297275787e-001 9.0678887738108627e-001
        -1.3483976101746029e-001 1.1315652308521260e-002
        -1.6460978722276380e-008 9.1417525347874953e-004
        -3.0420263322631431e-006 6.0369060570468125e-003
        -9.6154335924731951e-003 1.0179576004626894e-003
        9.9906163118415414e-001 6.8253172318013095e-009
        -4.1784208261821089e-002 3.0463397092280782e-008
        8.9141124681277351e-001 3.4965482386989211e-001
        -2.8830920631474166e-001 -1.6608084016441066e-003
        3.6167592816272766e-008 1.5926284119265389e-003
        -2.1374194099534957e-006 -2.1430150507030177e-001
        -2.3533574903744969e-001 -9.4795387940336051e-001
        3.5867212413500131e-004 -5.9465695358871227e-008
        8.6754285390287476e-003 -3.1107454226314993e-005
        -1.0576936968092079e-003 -2.5426309971546583e-004
        -8.8569609869947191e-003 -4.1772313493658661e-002
        4.5817425522760845e-005 -9.9908730479496555e-001
        -2.7759829142979240e-007 -5.9745804524694453e-006
        -3.8135917345500404e-006 -3.0500587294706224e-005
        4.4690521185750741e-008 2.3431065413641573e-002
        1.0725725653154315e-006 9.9972545440831084e-001
        1.3689166555598555e-007 8.9382421173207601e-008
        1.0725890526819111e-006 1.9068249775949724e-006
        9.9972545384937561e-001 4.5763799462278742e-005
        -2.3431065415843493e-002</data></_>
    <_ type_id="opencv-matrix">
      <rows>7</rows>
      <cols>7</cols>
      <dt>d</dt>
      <data>
        -9.9812004981755209e-001 -5.8997471337853345e-002
        -1.3676513794095922e-002 -9.2965886677026880e-003
        3.9023662960437594e-005 1.4796520456138657e-003
        6.6714235287455550e-006 6.0687531863160012e-002
        -9.7326653237582117e-001 -2.2107805925985119e-001
        -1.3918613177153927e-002 -9.7389192650021396e-005
        1.4071658764050476e-004 1.2275509015375423e-004
        4.9935866961376828e-004 2.2182786544618754e-001
        -9.7469612416482843e-001 -2.7553675720876969e-002
        -6.0645125600439798e-005 -6.0380796303065917e-004
        -2.0244246258552983e-004 7.9236667418922050e-003
        7.7302335963681107e-003 2.9509872695040910e-002
        -9.7686187072264130e-001 -1.8064033188886458e-003
        -2.1151612273200973e-001 -2.2756685083986134e-003
        -3.2180065803724582e-003 -2.0389100275536032e-003
        -5.8352707623540740e-003 2.1141792494572609e-001
        -1.4428822824805048e-002 -9.7725883833627625e-001
        -3.2969488687629904e-003 -1.4432839693562539e-005
        7.7119477809822312e-006 1.5340321431000134e-004
        -4.8071671163471986e-004 -8.9820436460324993e-001
        1.4638902474565351e-002 -4.3933400398003364e-001
        -4.3578041484536389e-007 -1.9929737322662780e-004
        6.0979554258306210e-005 1.9380536590541254e-003
        4.3933751342365412e-001 -3.0366917852197852e-003
        -8.9831482694632048e-001</data></_>
    <_ type_id="opencv-matrix">
      <rows>7</rows>
      <cols>7</cols>
      <dt>d</dt>
      <data>
        -9.9562687190959298e-001 -8.9686545970475012e-002
        -2.6077216293403961e-002 -1.8517897812667945e-003
        -6.4098107043254384e-006 -7.0903429392975910e-005
        -1.2561521572903291e-007 8.8995114004764578e-002
        -9.9549813244064722e-001 2.7225302425949005e-002
        -1.7779510100759285e-002 -5.9401119220519114e-005
        -2.4506636676885534e-003 2.5257661199894823e-005
        2.7981138515544620e-002 -2.1117964208653639e-002
        -9.8287938216156923e-001 -1.7952862914868231e-001
        -2.0567824201633627e-004 -2.2104517109158704e-002
        -1.6411146904157610e-004 4.4987278226238415e-003
        -2.0151392477508800e-002 -1.6269316624655128e-001
        8.2770208304493709e-001 9.9734848906836530e-003
        5.3657540786174296e-001 1.1133220913508990e-003
        1.9542016846900460e-003 -9.3671510280536885e-003
        -7.7831807641245337e-002 5.3137417615429261e-001
        -1.7147604277538652e-002 -8.4332336174557310e-001
        -1.9492087427116190e-003 6.4900809761514626e-006
        1.9836535860174461e-005 -6.7812926611162590e-005
        -8.2274859041840318e-004 -9.8989148798166660e-001
        1.9940019706246176e-002 -1.4041565328022235e-001
        1.9504026490504482e-006 2.8915354999577190e-005
        -1.4351748867969316e-004 -3.0583556366034842e-005
        -1.4043249415644818e-001 5.6068701316634142e-004
        9.9009008572076262e-001</data></_>
    <_ type_id="opencv-matrix">
      <rows>7</rows>
      <cols>7</cols>
      <dt>d</dt>
      <data>
        1. 0. 0. 0. 0. 0. 0. 0. 1. 0. 0. 0. 0. 0. 0. 0. 1. 0. 0. 0. 0.
        0. 0. 0. 1. 0. 0. 0. 0. 0. 0. 0. 1. 0. 0. 0. 0. 0. 0. 0. 1. 0.
        0. 0. 0. 0. 0. 0. 1.</data></_>
    <_ type_id="opencv-matrix">
      <rows>7</rows>
      <cols>7</cols>
      <dt>d</dt>
      <data>
        -9.8748996831182534e-001 -1.3818546682460331e-001
        -7.4147877973427589e-002 -1.6185423123685372e-002
        -1.1857196425164552e-004 -2.9051261782606528e-003
        -9.8462680991624900e-005 1.4696535266757538e-001
        -9.8078193128829649e-001 -1.1901861629129484e-001
        -4.7962163654245674e-002 1.3026931165265650e-004
        1.4669209776242836e-003 -1.3921262324653814e-004
        5.6381094815031556e-002 1.3690197701432921e-001
        -9.3485572820762930e-001 -3.0967639915838452e-001
        -3.7167815333276617e-003 -9.0586250136206845e-002
        -2.1524172458192137e-003 -8.6618047150810572e-003
        -1.7498225253658947e-003 3.0949604799333641e-001
        -7.7564372097884338e-001 -1.9998688304436987e-002
        -5.4964595572114849e-001 5.4906128510073815e-004
        3.3001740022497029e-003 -1.5044105322307277e-002
        -1.0290484421662796e-001 5.4764003070594591e-001
        -3.3274345348566284e-002 -8.2954769814054907e-001
        2.6847724463975381e-003 -2.9439189651695550e-005
        -1.6869025331439977e-004 1.6004532550038684e-003
        -4.4892613205885045e-004 -8.5492891081131261e-001
        3.2124811914526104e-002 -5.1774681226452490e-001
        -2.9499675314397142e-005 -1.1517904550136653e-004
        1.2870385240313807e-003 2.2812452782918109e-003
        5.1727708471605183e-001 -2.2169257983798776e-002
        -8.5552677745555394e-001</data></_>
    <_ type_id="opencv-matrix">
      <rows>7</rows>
      <cols>7</cols>
      <dt>d</dt>
      <data>
        -9.7263215893347110e-001 2.2180016920128809e-001
        -6.8849724052010577e-002 -7.0945225888376625e-003
        1.1808299809277857e-005 8.6684584183305724e-004
        6.0616842669362249e-006 2.2468973383805099e-001
        8.4944893668571975e-001 -4.3523264312350296e-001
        4.5716661055888314e-004 -6.6270627181827958e-007
        1.9627369877073667e-001 -3.4749887051391097e-007
        5.6254890646461386e-002 4.7040799706117198e-001
        7.1611050056022840e-001 -1.7874242379747642e-002
        3.1269928367466345e-005 -5.1226747387875182e-001
        1.5939116414459179e-005 -1.8330309961332555e-002
        8.7710437548734074e-002 5.2199430522307810e-001
        2.8692654924386968e-001 -5.0142469505183498e-004
        7.9822657357624660e-001 -2.5562748876960766e-004
        -7.7066908507384660e-004 -1.6259900113051232e-002
        -1.4331768264853997e-001 9.5775742126522811e-001
        -1.6737130660201289e-003 -2.4878154310910730e-001
        -8.5326545154394424e-004 -6.3455700546256895e-007
        -8.6990283683016645e-019 -3.7242979899587518e-018
        1.8446473725315638e-003 9.9225575195292659e-001
        -4.6798528976769466e-018 1.2419790655240784e-001
        1.8875201812915760e-007 -1.7088889710855509e-019
        -9.8809040275174304e-019 -6.6695856877271929e-004
        1.2419931101458062e-001 -1.5107550193461836e-018
        -9.9225706664640867e-001</data></_>
    <_ type_id="opencv-matrix">
      <rows>7</rows>
      <cols>7</cols>
      <dt>d</dt>
      <data>
        -7.7279620212399225e-001 -6.3244951798696614e-001
        -5.2264266980395158e-002 -7.8684346577988437e-003
        -2.7577888430815066e-006 4.1388824355227015e-004
        1.6561639710865763e-006 6.3320525628901736e-001
        -7.7361234563960080e-001 2.2972127471918985e-003
        -2.3867965571644389e-002 -7.6153461511161129e-006
        2.9164535266263043e-004 -1.2023856079944477e-007
        3.8452979610813981e-002 3.6082688783252978e-002
        -9.6868901196170409e-001 -2.4261284108331801e-001
        -1.1841080318890501e-004 -2.1920470013281428e-005
        2.9558997929610238e-005 1.8933652911534898e-002
        -1.5144208075112124e-002 -2.4270301086279397e-001
        9.6979761666905928e-001 -2.9832379874789419e-005
        5.0540315817001400e-006 7.4051489611316845e-006
        1.3592712623960871e-004 4.8825141690079349e-004
        9.5410096903446696e-007 -1.9414540543072624e-009
        3.0705201236801610e-008 9.9999987156672132e-001
        -2.5319411908522477e-011 5.8017988170309238e-006
        -2.8598040778399725e-006 -1.1171002149885371e-004
        -9.3089562708992353e-011 7.4967800165005649e-001
        -2.2321509198560178e-008 -6.6180275106787567e-001
        5.2273392355505308e-006 -2.5245866977114220e-006
        -5.7908110081038748e-005 -4.5153729036477135e-012
        6.6180274921254900e-001 -1.9724461791151467e-008
        7.4967800937980256e-001</data></_>
    <_ type_id="opencv-matrix">
      <rows>7</rows>
      <cols>7</cols>
      <dt>d</dt>
      <data>
        -5.4220105517779271e-001 -8.2940752751804558e-001
        -6.8210413652016216e-002 -9.5932204801502330e-002
        -6.7169776857326112e-003 -6.4807574551137406e-002
        6.1733572893888614e-004 -6.2738865873696328e-002
        -9.5971940900273001e-002 -7.9043958701754402e-003
        8.8899947271349844e-001 5.5656380350173514e-002
        4.3974201702059551e-001 7.1433474269416659e-005
        9.0757657734923409e-003 1.3883241979410883e-002
        -1.7503801738268029e-002 4.3760749804907662e-001
        9.9714729059204241e-002 -8.9329455017045678e-001
        -9.3867695557980442e-006 -3.6999477606694822e-002
        -5.6598276503105116e-002 9.8972134371247145e-001
        1.9855029806958691e-002 -1.2199548297298679e-001
        -2.4540045973449342e-002 4.0284782441062743e-005
        -5.6477755680741674e-003 -8.6394290921421504e-003
        1.2421788383001524e-001 -9.2641100535146140e-002
        9.8591467016711698e-001 6.2044786352231637e-002
        1.9272675722288579e-003 3.5166294283662500e-004
        5.3794047273046381e-004 -2.3676323430111483e-004
        1.7757047494321580e-004 -1.8941037954958171e-003
        -1.1837797602892226e-004 9.9999794885918969e-001
        -8.3701762142127822e-001 5.4717593279517107e-001 0. 0.
        -3.5561831257524545e-017 1.3877787807814457e-017
        5.5196732601237031e-016</data></_>
    <_ type_id="opencv-matrix">
      <rows>7</rows>
      <cols>7</cols>
      <dt>d</dt>
      <data>
        1. 0. 0. 0. 0. 0. 0. 0. 1. 0. 0. 0. 0. 0. 0. 0. 1. 0. 0. 0. 0.
        0. 0. 0. 1. 0. 0. 0. 0. 0. 0. 0. 1. 0. 0. 0. 0. 0. 0. 0. 1. 0.
        0. 0. 0. 0. 0. 0. 1.</data></_>
    <_ type_id="opencv-matrix">
      <rows>7</rows>
      <cols>7</cols>
      <dt>d</dt>
      <data>
        1. 0. 0. 0. 0. 0. 0. 0. 1. 0. 0. 0. 0. 0. 0. 0. 1. 0. 0. 0. 0.
        0. 0. 0. 1. 0. 0. 0. 0. 0. 0. 0. 1. 0. 0. 0. 0. 0. 0. 0. 1. 0.
        0. 0. 0. 0. 0. 0. 1.</data></_>
    <_ type_id="opencv-matrix">
      <rows>7</rows>
      <cols>7</cols>
      <dt>d</dt>
      <data>
        -9.9879557911935268e-001 -4.8807445129527151e-002
        -4.4686694114897440e-003 -2.2855618516706019e-003
        -3.5084936925964840e-007 -1.7785430772725413e-004
        1.6077322036277672e-008 4.8960067258505387e-002
        -9.9811634420627593e-001 -3.2384458009288977e-002
        -1.7766392536917339e-002 -3.4622770734141877e-006
        -1.5091076724947743e-003 -2.3563908835315417e-007
        3.0113466219400084e-003 3.5421746940483098e-002
        -6.8819735463492404e-001 -7.2231441224032855e-001
        -1.1518736905992129e-004 -5.8159343748902990e-002
        -6.7212326260984842e-006 -1.1082391408504179e-003
        -1.1246567604777017e-002 7.2330834940282840e-001
        -6.9038097654130859e-001 1.7675100957278822e-005
        8.4513369812654199e-003 5.2879361779330382e-006
        8.0890092573202542e-005 6.4131774012069474e-004
        -4.6267809547462624e-002 -3.6264697326709984e-002
        2.4404604242822371e-003 9.9826737751557615e-001
        1.7560444889973763e-004 1.2407896817164369e-008
        7.5831688209346166e-007 -2.0747556839225310e-005
        -1.7368649123043125e-005 -9.9990220953591402e-001
        2.4404417487682477e-003 1.3770071770388977e-002
        3.9323333970641760e-008 -5.9927608474697420e-008
        -4.7378050320364277e-008 5.3996194030957775e-006
        1.3769601499859865e-002 -2.0936104923158268e-004
        9.9990517261054446e-001</data></_>
    <_ type_id="opencv-matrix">
      <rows>7</rows>
      <cols>7</cols>
      <dt>d</dt>
      <data>
        -9.9789801173032744e-001 -5.4016835703527596e-002
        -3.3419355007515625e-002 -1.2831002953225808e-002
        -2.7237064990846123e-005 -5.0064423508011614e-004
        1.8243497070544354e-005 5.6949030188596046e-002
        -9.8362338505800107e-001 -1.4524997004937606e-001
        9.0233908123105777e-002 -7.8725888097224317e-005
        -1.4580074296055411e-003 1.9226893828183189e-005
